nep4 1 Pt 
cutoff 6 5 71 43
n_max 4 4
basis_size 8 8
l_max 4 2 1
ANN 80 0
  1.3516884e+00
 -7.7419505e-02
 -3.4388369e-01
 -2.3669719e-03
  6.4298308e-01
 -6.7351855e-02
 -1.1266507e+00
  1.0386800e+00
 -7.4291432e-01
  6.5642792e-01
  8.7838781e-01
  6.2211597e-01
  3.8612166e-01
  3.2124397e-01
  1.1832283e+00
  1.0043054e+00
 -5.5419832e-01
  8.1648779e-01
 -4.5546718e-02
 -4.6526363e-01
  9.3221152e-01
 -6.5053177e-01
 -6.8444304e-02
 -1.1634066e-01
 -6.6493636e-01
 -6.9886005e-01
 -3.0859470e-01
  6.0613263e-01
 -1.0754915e+00
 -2.9968283e-01
 -8.3285861e-02
  3.3028737e-01
 -1.6958046e-01
  3.8436044e-02
 -8.8626087e-01
 -6.7007109e-03
 -1.8627646e+00
  9.3169373e-01
  5.8136356e-01
 -9.6519774e-01
 -4.9168369e-01
  6.8548453e-01
 -5.7281733e-01
 -2.0945466e+00
 -1.9052157e-01
  8.3246189e-01
 -2.2749475e-01
 -2.1426833e-01
  5.7472581e-01
 -8.5622633e-01
  3.9645609e-02
  2.5940356e-01
  3.7137416e-01
 -7.6716937e-02
 -7.2737938e-01
  7.4184787e-01
 -8.3184533e-02
 -5.8172977e-01
  3.0359736e-01
  1.4519152e-02
 -3.0079529e-01
 -1.5555215e-01
  1.8577962e-01
  1.8460464e-01
 -1.3883649e-01
 -3.5374048e-01
  1.0051130e-01
 -8.9635867e-01
 -4.4484711e-01
 -1.3727278e-01
 -6.0125729e-03
  2.7983300e-03
  1.5616699e-01
 -3.9301628e-01
  4.6135914e-02
 -8.8017173e-02
  6.4686872e-02
 -2.7365014e-01
  3.0513071e-03
 -1.7473927e-02
  1.6742950e-02
  1.6374987e-02
 -1.7058884e-01
  3.9875899e-02
  7.3511332e-02
 -1.7175341e-01
 -4.7084834e-02
 -1.3421866e-01
 -4.6033163e-02
 -1.0454495e-02
  2.2406311e-01
  6.4823419e-02
 -1.5354356e-02
 -1.9743439e-02
 -1.2930676e-01
  1.3173667e-03
  5.4739822e-02
 -1.0955544e-01
  7.3807307e-02
 -6.3023758e-03
 -4.8388131e-02
 -5.5051148e-02
  1.6606054e-01
  1.5051989e-01
 -7.2733015e-03
  2.2531611e-01
  2.2539863e-01
 -6.0943830e-01
  4.0850241e-02
 -1.2798378e-01
  2.3226050e-01
 -8.1366166e-02
 -1.2574878e-02
 -7.0739880e-02
  4.6213318e-02
 -8.3573692e-02
  1.1988368e-01
 -1.3881101e-01
 -9.8282553e-02
 -1.5955739e-01
 -9.4313987e-02
  1.0885753e-01
  1.3981238e-01
  5.9283435e-02
 -2.4420163e-02
 -2.8425282e-02
 -8.9229919e-02
  6.5657273e-02
 -2.5224242e-02
 -4.1700680e-02
 -3.1964630e-02
 -2.6490125e-01
  7.7532940e-02
  1.1384872e-01
  1.1821260e-01
  1.4687300e-01
  2.3844218e-01
  3.7332028e-02
  1.7220964e-01
  2.6591899e-02
  4.7034800e-01
  3.6727729e-01
 -4.1283372e-01
 -1.8909292e+00
  1.5062621e-01
 -3.4828705e-01
 -4.6926790e-01
  1.0992638e-01
 -5.0936812e-01
 -1.4753845e+00
 -7.4223626e-01
 -5.1365715e-01
 -2.3564023e-01
 -1.3990714e-01
 -1.0984927e+00
  2.0118184e+00
  1.4176157e-01
  1.7724122e+00
  9.3097186e-01
  1.0145768e+00
  2.8257480e-01
  2.8662536e-01
 -3.1454912e-01
  6.1558777e-01
 -3.9499289e-01
  1.0993586e+00
 -2.9694414e-01
 -4.7057897e-01
  8.3796275e-01
 -9.4542307e-01
  1.7284782e-01
 -2.0663118e-01
 -3.8722172e-01
 -5.0376809e-01
  1.3348675e-01
 -1.4370176e-01
  2.2210064e+00
 -8.7662739e-01
  2.2101507e-01
 -3.1320218e-02
 -1.4939184e+00
 -1.3478241e+00
  3.2055265e-01
 -9.7262788e-01
  1.0003141e+00
  1.4107656e+00
 -4.8290381e-01
 -8.9167613e-01
  1.2177746e+00
 -1.7550027e+00
  3.6726627e-01
 -6.6343486e-01
  3.3734152e+00
  1.0022585e-01
  1.5465021e+00
  2.8193453e-01
  7.4710179e-04
  6.0565227e-01
 -3.1347814e-01
  7.9736102e-01
  6.8687153e-01
 -5.3031266e-01
  7.6849383e-01
  7.7680165e-01
 -1.1918222e+00
  5.3934060e-02
  2.1393166e-01
  8.9669186e-01
  5.8459908e-01
 -1.0652901e-01
 -6.4339215e-01
 -1.4982909e+00
 -8.4109336e-01
 -8.3445394e-01
  2.0599608e+00
  1.0256417e+00
  1.1044419e+00
  7.1657747e-01
  6.7172199e-01
 -9.0825421e-01
  9.6174967e-01
 -7.5294968e-04
  2.2619541e-01
  1.2178400e+00
  4.0061021e-01
  5.3309125e-01
  1.7559615e-01
  7.3115468e-02
  6.3713056e-01
 -1.4214116e-01
  3.9748639e-02
  2.7423924e-01
  7.0814377e-01
  6.5913559e-03
 -1.2940233e+00
 -1.1074808e-01
 -2.2631152e-02
  2.0997521e-01
  2.0796803e-01
 -2.9911533e-01
  3.0405156e-02
  2.0335048e-01
  5.3902620e-01
 -5.0461709e-02
 -2.4296434e-01
  3.8462275e-01
 -2.2321172e+00
 -1.7719471e+00
 -2.9932815e-01
  1.6894664e+00
  1.0999795e+00
  1.1082554e+00
  3.7687692e-01
  2.0367100e+00
 -1.9147166e+00
 -2.1208020e-01
  2.4973954e-01
  1.2204331e+00
  3.6270615e-01
  6.2034857e-01
 -1.2265270e+00
  1.6305876e-01
 -1.6522959e+00
 -3.6238156e-02
  6.1618668e-01
  6.4015454e-01
  7.2812818e-02
  7.5288785e-01
 -2.4558379e-01
 -6.3008767e-01
  3.9026836e-01
 -1.8731751e-01
  3.3299387e-02
  3.4735337e-02
 -2.5337255e-01
  3.2062312e-03
  1.5343659e-01
  3.4640867e-01
 -9.5443241e-02
 -4.7090754e-01
 -6.6444930e-03
  1.5338641e-01
 -5.1071055e-02
  6.3400745e-02
 -1.3477825e+00
 -1.1559487e-02
  7.8141885e-03
 -1.1396912e-01
 -1.1085933e-01
 -1.1623217e-01
  6.2898688e-02
 -2.8208888e-01
  2.3212122e-04
 -7.5396381e-02
  9.2795007e-02
 -7.4055940e-02
 -7.8572166e-01
  3.1594840e-01
 -6.4636834e-02
 -1.7514020e-02
 -1.7972234e-01
  6.0404655e-02
 -1.8900040e-03
 -1.4862992e-01
 -2.5697353e-01
  3.1357468e-03
  1.1168385e-02
  1.3495298e-01
  1.3131106e+00
 -7.1517490e-02
  5.7431287e-03
  9.1961436e-02
 -2.2073755e-02
 -1.7981003e-01
 -5.3852219e-02
  7.0533830e-01
  8.1538659e-01
  3.5770071e+00
  3.4958169e+00
  2.1074262e+00
 -2.6695433e+00
  5.7964635e-01
  2.2469203e+00
  1.2186513e+00
  8.5377300e-01
  5.5219173e-02
  5.9085494e-01
 -1.0785339e+00
 -2.8001235e+00
 -3.2872719e-01
 -7.5348514e-01
  5.7130325e-01
  1.0145211e+00
  6.4950025e-01
 -2.8303465e-01
  4.4244772e-01
 -3.1046176e-01
 -8.2542107e-02
 -1.2508416e+00
  4.2683471e-02
 -5.2148503e-01
  5.8313631e-02
  4.3696731e-01
 -2.0665582e-01
 -7.1301937e-01
 -9.9845745e-02
  1.3411646e-01
  9.6484715e-01
  4.3870991e-01
  4.9047083e-02
  1.1262009e+00
 -1.0764503e+00
 -1.0618790e+00
 -2.4001902e-01
  1.6371782e-01
 -1.5686120e+00
 -8.0369252e-01
  2.8236872e-01
 -1.0848691e+00
 -1.0745718e+00
  1.1696204e+00
 -3.3462161e-01
  8.4089592e-02
 -1.0781380e+00
  2.0252042e+00
 -1.0084269e+00
  3.0046350e-01
 -1.5394303e+00
  1.7261523e+00
  6.4939266e-01
  1.6235316e-01
  4.9999258e-01
 -4.2076388e-01
  1.1179479e+00
 -4.3670091e-01
  1.0120169e+00
 -1.8150115e-01
  2.9834521e-01
 -3.2232866e-02
  4.4142720e-01
  7.5874045e-02
  2.1379009e-01
 -4.8548540e-01
  5.5788201e-01
 -3.0967084e-01
 -1.0094532e+00
  1.8180093e-01
 -7.3787236e-01
  1.4752589e+00
  4.5839339e-01
  4.7279820e-02
  3.8462088e-01
 -9.0293482e-02
  4.6178635e-02
 -3.5578167e-01
 -5.1670384e-01
 -3.9529309e-01
 -1.1359990e+00
  2.9750893e-01
 -6.8544978e-01
 -1.5033074e-01
  4.0429795e-01
 -8.7063983e-02
  3.0744237e-01
 -7.3218828e-01
  3.9202224e-02
 -1.4716838e-01
 -1.1037176e-02
 -3.2043850e-01
 -6.0861826e-01
  8.5868686e-02
 -1.0798541e-01
  2.4887824e-01
  2.8380603e-01
  5.1766228e-02
 -2.3796964e-01
  1.6592991e-01
  6.6877925e-01
 -2.3589402e-01
 -8.3907589e-02
 -2.0280789e-01
 -1.1343153e+00
  9.3888807e-01
  1.2357957e+00
  5.3726810e-01
 -9.1856962e-01
 -5.1784319e-01
 -6.2963814e-01
 -6.3926476e-01
 -1.7919992e+00
  8.2529515e-01
  2.0596996e-01
  8.9794755e-01
 -1.2809460e+00
 -3.6379775e-01
  1.1750090e+00
  6.5631109e-01
  2.3707547e+00
 -7.2549355e-01
  9.0484715e-01
 -8.0736190e-01
  7.6665586e-01
 -1.5069869e+00
  2.4222191e-02
  9.4521022e-01
 -5.4577971e-01
 -7.1084730e-02
 -1.2256538e-01
 -4.5650691e-01
  3.4779218e-01
 -8.9238055e-02
 -5.0881892e-02
 -7.5854653e-01
 -2.3357774e-01
  1.5821776e-01
 -3.9660864e-02
 -1.0551715e+00
  1.0849215e-01
  4.0006571e-02
  4.7310565e-02
 -1.0509883e-01
  5.2878197e-02
  2.6357833e-02
 -8.1144974e-02
 -3.2174096e-02
  1.4063640e-01
  8.6060993e-02
 -1.1056100e-01
  1.9730192e-01
  4.3143764e-02
  4.7835540e-02
 -8.2818829e-02
  1.3041109e-01
 -1.7124689e-01
 -5.5971436e-02
  2.8578376e-02
  3.0045420e-02
  5.8030583e-02
  1.6128005e-02
  1.0639620e-01
 -6.6673197e-02
 -1.5544555e-01
  1.9882539e-01
  9.7091094e-02
  9.4214596e-02
  6.0000212e-04
  8.2559332e-02
 -1.8649125e-01
 -6.8815902e-02
 -1.2912326e+00
  1.2915543e-01
 -1.5566306e+00
 -5.0724834e-01
  2.2122273e+00
 -1.1015201e-01
 -1.1431082e-01
  1.3628425e-01
 -4.8722932e-03
 -5.9036475e-01
 -6.4210367e-01
  2.0808113e-01
  7.3403679e-02
 -1.6119696e-01
 -4.1770186e-02
 -1.1495060e-01
 -2.7582666e-01
 -2.5333709e-01
  4.0304437e-01
  2.8992532e-02
  2.3518069e-01
 -7.8602649e-02
  1.1428683e-01
 -1.6940850e+00
  1.2946304e-02
  1.8690400e-01
 -1.9727653e-01
  2.0529540e-01
 -4.5554012e-02
  1.3264009e-01
 -9.9262558e-02
 -1.1850350e-01
 -3.8565241e-02
 -9.5936723e-02
 -9.3105823e-02
  1.5502040e-01
 -7.0940651e-02
  9.5360719e-02
 -1.2153761e-01
  2.9991421e-01
 -4.0095347e-01
  4.7763643e-01
 -1.5234260e-01
  4.8268018e-03
  4.3136451e-01
 -2.0352200e-01
  3.2720204e-02
  3.1877160e-03
 -8.8119723e-02
 -2.8044787e-01
  1.5713090e-01
  1.1823715e-01
 -6.5660551e-02
 -2.6212466e-01
 -1.6138689e-01
 -2.1520545e-01
  7.8608267e-02
  3.5661001e-02
 -2.7989998e-01
 -2.4315847e-01
 -4.0566614e-01
 -1.4944923e-01
 -1.0206573e-01
  5.9319798e-02
 -2.5430594e-02
  3.2651716e-01
  2.6287696e-01
  1.3490190e-01
 -1.7993003e-01
  2.9924577e-01
 -1.6526927e-01
 -2.4689171e-01
 -7.5246984e-01
 -5.9594506e-01
 -5.9869623e-01
 -1.0069493e+00
  7.8011268e-01
 -1.5681139e-01
  7.0752114e-01
  9.1221386e-01
  7.4863398e-01
  3.5598564e-01
 -3.4617528e-01
 -2.1129289e+00
 -1.2965420e-01
 -3.3844867e-01
  1.6121002e-01
  3.0550945e-01
 -6.6816813e-01
  1.3168862e+00
  1.8388909e+00
  1.9389070e+00
  2.2691751e-01
 -1.3654507e+00
 -2.3321712e+00
 -5.2747655e-01
 -7.7374989e-01
  3.3758831e-01
  8.5691184e-01
  4.9906310e-01
  7.7535754e-01
  9.5665820e-02
  3.9557236e-01
  6.8470255e-02
 -7.9056561e-02
 -6.7132242e-02
  1.7221202e-01
  1.4029512e-01
 -2.4681681e-01
 -7.9007976e-02
  1.4343399e-01
  1.4415346e-01
 -3.8160492e-02
  1.3078269e-01
  7.9051852e-02
  8.1379451e-02
  3.5386723e-02
  4.3166682e-02
 -8.2767487e-02
  1.9490960e-01
 -8.5747026e-02
 -1.5069020e-01
  1.0271254e+00
  6.7770131e-02
 -3.5862377e-01
 -3.1027892e-03
  2.0437299e-05
 -3.0246574e-01
  1.0462391e-01
  4.0901671e-03
 -2.0821866e-01
  2.2454797e-01
 -1.0744590e-01
  1.8040780e-02
  6.3886069e-02
  2.7667219e-04
 -8.5380012e-01
  2.1037965e-01
 -2.2244766e-02
 -8.2832649e-03
 -1.0788619e-01
 -7.2155362e-01
  1.1067678e+00
  2.3067713e+00
  1.6970439e+00
  1.4955144e+00
 -8.7702312e-02
  4.7419924e-01
  4.5768559e-02
 -9.7497171e-01
  2.0255232e+00
 -7.5721765e-01
  1.8244018e-01
  6.9545692e-01
 -5.0027287e-01
 -3.1249349e+00
 -8.2312846e-01
 -7.5918518e-02
  6.3187474e-01
 -1.1878642e-01
 -5.1925385e-01
 -1.0676990e+00
  4.0464807e-01
  5.1514280e-01
  1.3003552e+00
  2.9998976e-01
 -2.6315606e-01
  9.8044194e-02
  3.7339196e-01
  6.5712178e-01
 -1.2042564e+00
 -1.5799344e-01
 -1.5275383e-01
  1.3910253e+00
 -5.0385237e-01
  1.3916144e-01
  1.1561235e+00
 -1.0011365e+00
 -4.8895010e-01
 -1.0937874e-01
 -9.4112150e-02
  3.6779621e+00
 -9.0093476e-01
  1.5716052e+00
  1.0329647e+00
  1.1760217e+00
 -1.6504226e+00
 -4.8143408e-01
 -9.1181546e-01
 -2.1935560e-01
  1.5408252e-01
  4.4212404e-01
 -4.5138499e-01
  1.4210467e+00
 -2.3383148e-01
 -7.0181453e-01
 -1.7608714e+00
 -7.7116883e-01
 -1.2018116e+00
 -2.1387841e-01
 -5.4725277e-01
  5.6071913e-01
 -2.9043844e-01
 -1.1290202e+00
 -3.0239576e-01
  7.0963883e-01
 -8.6555414e-02
  5.8066972e-02
  5.8127552e-01
 -6.0307384e-03
 -7.8020081e-02
 -1.8219390e+00
  5.2855387e-02
 -1.2677819e-01
  2.7527592e-01
 -4.9258807e-01
 -1.4950129e+00
 -3.3410108e-01
 -1.1599754e+00
 -8.7250143e-01
  1.5735794e-02
  5.1028448e-01
 -1.5135293e-02
  9.0981245e-01
  7.3103546e-03
 -1.7654875e-01
  3.2417202e-01
  1.7293842e-01
  7.1589440e-01
 -5.3156864e-02
  2.5552520e-01
  1.9990113e-01
  1.3534907e-01
  5.6623054e-01
  1.0179156e-01
 -1.2105002e-01
 -1.6874403e-01
 -1.1822759e-01
 -2.0241553e-01
  5.5202242e-02
 -5.4236292e-03
 -1.9292025e-01
  1.1829422e-01
  8.0605395e-02
 -1.0777698e-01
  8.6770386e-02
 -7.3867589e-01
 -8.3091003e-01
 -3.1329224e-01
 -1.4083394e+00
  7.7215856e-01
 -2.9685888e-01
  2.2111043e-01
  8.3563708e-02
 -1.8532430e-01
  3.4472179e-01
 -1.9194824e-01
  2.3125720e-01
 -4.7011405e-01
  1.6479822e-01
  4.1550264e-01
 -4.6600990e-02
 -1.8181825e-01
  1.7417663e-01
  1.1599260e-01
  1.4273806e-01
  5.9472289e-02
 -2.9537056e-02
  3.8746074e-01
  2.1919762e-01
 -3.3108571e-01
  2.6299201e-02
  3.2524760e-03
  7.3497675e-02
  1.2002419e-01
 -6.7249134e-02
  1.0695379e-01
 -1.0904358e-01
 -1.0610814e-02
  4.9245857e-02
  2.1453603e-01
  5.8696993e-02
 -1.2139034e-02
  1.3571818e-01
  1.0178792e-01
  2.4042340e-01
  6.9896565e-03
  7.2667323e-02
 -1.6187347e-01
 -1.8541868e-01
  5.6568561e-03
 -1.7023036e-01
  4.0402226e-02
 -5.3156577e-02
 -8.9896480e-03
  1.8528797e-01
  3.5849430e-02
  7.9809085e-02
 -2.7915871e-01
  5.4459167e-03
 -3.7029110e-02
  8.4977835e-02
 -1.4410099e-01
 -2.0062748e-01
 -7.6274094e-03
 -1.1150502e-01
  8.1767209e-02
  1.1653975e-01
 -4.3228947e-02
 -6.9453962e-02
  1.0044524e-01
 -1.6150807e-01
 -3.7925586e-01
  4.9358040e-02
  4.5535456e-02
  2.0843696e-02
 -5.2431434e-02
 -1.2803732e-01
 -7.9528940e-01
 -5.2866381e-01
  1.1388676e-01
  3.3761618e-01
  1.2697385e-02
  6.8327016e-01
 -2.7592027e-01
  8.7374020e-01
  8.8860732e-01
  1.7363821e-01
  1.0263919e+00
 -1.8569635e-01
  4.4157445e-02
  9.3141692e-03
  9.9946491e-02
  1.1098000e-01
 -3.6286110e-01
 -6.4876699e-01
 -3.6770838e-01
 -3.8326114e-01
 -5.5510700e-01
 -2.9469353e-01
 -6.1088152e-02
  1.6308746e-01
 -3.3980626e-01
  8.5213613e-03
  4.0110748e-02
 -8.1299342e-02
 -1.1768905e-02
 -1.4905775e-01
  1.6903989e-01
 -2.3967426e-01
 -1.9118845e-02
 -6.9760978e-01
  9.1629350e-01
 -1.8742625e+00
 -3.8959894e-01
  1.8152292e+00
 -9.3629676e-01
 -1.1849787e+00
 -9.8009586e-01
  1.3440965e+00
 -7.0525670e-01
  6.5334082e-01
 -7.6735973e-02
 -6.9208968e-01
 -8.2152563e-01
 -9.9388456e-01
  1.6829677e+00
 -3.2361418e-02
  1.9699275e-01
  1.1438379e+00
  1.7191230e+00
  1.1549605e-01
 -1.0958612e-01
  1.0488592e+00
  1.4755173e-01
  3.8973749e-01
 -2.6281136e-01
 -2.3587941e-01
 -5.8889780e-02
  5.6901384e-02
 -2.5664061e-01
 -1.3488173e-02
  4.2082585e-02
  1.4362935e-02
 -1.3434060e-01
 -9.1498323e-02
 -2.4442070e+00
 -1.0958157e+00
 -1.9756536e+00
 -3.5201234e-01
 -3.5052547e-01
  6.8293703e-01
 -1.8186782e-01
 -4.2845690e-01
 -8.5242248e-01
  5.6340892e-02
  1.6151283e+00
 -1.0167236e+00
  2.6489727e+00
 -2.4313743e-04
 -3.4830028e-01
 -1.2614105e+00
  5.9491551e-01
 -3.0071177e-02
 -8.4823328e-01
 -1.7414670e-01
 -6.9789967e-04
 -4.8096809e-01
  1.7597338e+00
  7.8216094e-01
  8.9169091e-01
 -2.0881234e-02
  1.1079325e-02
 -8.8280237e-01
 -6.8019474e-01
  6.5349716e-01
  1.8928070e-01
 -1.0415480e-01
  2.8663567e-01
 -3.6485782e-01
  2.3424286e-01
 -9.6396011e-01
  1.3860370e+00
  1.5055846e+00
  1.1623468e+00
  2.9924756e-01
  9.7121614e-01
 -7.5478727e-01
 -5.0454694e-01
  1.6924511e+00
 -4.6432874e-01
 -4.6415764e-01
 -1.7061438e-01
 -3.5269335e-01
  1.5357316e+00
  1.3509649e+00
 -6.0343373e-01
  2.7877321e-02
 -1.5204865e-01
  9.6138012e-01
  3.5503483e-01
 -8.5481107e-02
  6.3576555e-01
  1.3882905e+00
  1.6414498e-01
  1.2113683e+00
  1.2284604e-01
 -3.3573024e-02
  7.6553833e-01
 -1.0280342e-01
  2.7667385e-01
  2.4756333e-02
  2.2046213e-01
  3.3296794e-01
  5.9070402e-01
  1.2178974e-01
  2.7270250e-02
  2.2846238e-01
  2.0569658e-01
  6.8864584e-01
 -1.1192762e+00
  8.6229250e-02
 -6.9833493e-01
 -7.6248646e-01
 -9.2789000e-01
  4.4184256e-01
 -4.8277795e-02
 -3.4683686e-02
 -9.1143161e-01
 -5.7632208e-01
 -4.7005318e-02
 -5.0063986e-01
  2.0934972e-01
  3.8110927e-02
 -1.5981970e-03
 -1.9890451e-01
 -1.7677382e-01
  1.0969586e-01
  7.2324306e-01
 -9.5725411e-01
  3.5765901e-01
  2.3320888e-01
 -4.3861385e-02
 -1.4326913e+00
 -2.7845412e-02
  2.6958537e-01
  8.7039694e-02
  3.4139180e-03
  6.9889571e-03
 -7.9685561e-02
 -6.4297095e-02
 -1.6185304e+00
  2.2366440e+00
 -3.4231052e-01
 -1.5407642e+00
 -7.3800373e-01
 -8.0252218e-01
  7.9274327e-02
 -2.8631954e+00
  5.9128255e-01
 -1.1087453e+00
  1.7857561e+00
  4.4160628e-01
  8.3850652e-01
  4.5854115e-01
  9.8429665e-02
 -1.5079576e+00
  1.6185048e-01
 -5.0590622e-01
  5.5169761e-01
  9.9942726e-01
 -1.2585126e+00
 -8.1042938e-02
 -2.5573194e-01
  1.2215648e+00
  5.1960343e-01
 -5.3035128e-01
  1.3766648e-01
  1.8833679e-01
  1.3035017e-01
 -3.8898781e-01
 -2.5464809e-01
 -1.5950438e-01
  2.8771797e-01
 -3.0975696e-02
  2.6631335e-02
 -6.7781556e-01
 -2.0128777e+00
  8.6767602e-01
  4.9119160e-01
 -2.9942310e-01
 -2.5599259e-01
  4.1698390e-01
 -1.2778991e+00
  1.3348856e+00
 -6.8847609e-01
 -5.3942192e-01
 -3.1670985e-01
  1.1365271e+00
 -1.0721097e+00
 -2.6188916e-01
 -5.8919597e-01
  7.9081587e-02
  2.3748033e+00
 -2.1147236e-01
  7.5879008e-01
  1.1874412e+00
  9.6770191e-01
 -3.9133188e-01
 -1.3154330e+00
  1.2679090e+00
  4.2931833e-03
  3.8278538e-01
  5.9942264e-02
  4.7614193e-01
  4.0287605e-01
  4.1352913e-01
 -3.9303330e-01
 -3.0209827e-01
 -1.5806380e-01
  7.0915794e-01
  1.2415471e-01
 -4.7318894e-01
  4.1721797e-01
 -5.0040770e-01
  5.5861974e-01
 -8.7845695e-01
  3.3531305e-01
  8.5549408e-01
 -1.5774674e+00
  1.4124010e+00
 -6.1391699e-01
  3.6250582e-01
 -1.2373377e+00
  1.1706635e+00
 -4.1804519e-01
 -1.1282374e+00
 -2.8460470e-01
 -9.5674264e-01
  1.4685123e+00
 -4.3707728e-01
  1.4129411e-01
  6.5554351e-02
  4.4886652e-01
  1.2814084e+00
  1.7525487e+00
 -3.9758873e-01
  1.9035782e-01
  2.4478410e-01
 -1.9149318e-01
 -4.1575402e-01
  9.6670324e-01
 -4.1907355e-01
 -1.2260006e-02
  2.2794667e-01
  3.5908961e-01
  2.2140417e-01
 -1.0206794e-01
  7.9238933e-01
  6.5949786e-01
  1.3788521e+00
 -2.1387229e-02
  2.6340732e-02
  3.9608181e-01
  2.5864169e-01
  4.1912943e-02
 -8.2157686e-02
  3.1960115e-03
 -1.7737350e-01
 -3.6980364e-02
 -2.7517387e-01
 -3.5395145e-01
 -1.1191860e-01
  1.7705457e-01
  3.7551087e-01
  1.1330844e-01
  1.9956116e-01
 -1.2452197e-02
  4.7111011e-01
  3.1902179e-02
  4.6509892e-02
 -3.2083582e-02
 -6.4870812e-02
  1.2977220e-01
 -7.2278731e-02
 -2.0465160e-02
 -4.1103166e-02
 -3.4248363e-02
  2.0476985e-01
  1.8072952e-02
 -6.5381429e-03
 -1.5050662e+00
 -6.9406366e-01
  1.0586108e+00
  2.2705787e-01
 -5.7434044e-03
  2.0107477e+00
  3.5033986e-02
  7.0967591e-01
  9.0718687e-01
 -1.6310035e+00
  9.5461607e-01
  2.3033282e-01
 -1.4893789e+00
  5.5685186e-01
  8.5254425e-01
  1.0929872e+00
  8.8809900e-02
 -1.4476403e+00
 -1.4942713e-01
 -1.3703853e+00
 -3.2495677e-01
  3.1238467e-01
 -5.3152674e-01
 -1.4872323e+00
 -1.6476411e+00
 -1.4046765e-02
  1.6360275e-01
  6.9090146e-01
 -1.5362616e-01
 -5.4559505e-01
  2.6529887e-01
 -3.0519390e-01
 -2.5422370e-01
  2.3455276e-01
  2.5491792e-01
 -3.1740788e-01
 -3.7942774e+00
  5.3671879e-01
  3.0325756e+00
 -1.1161240e+00
  3.9628690e-01
  6.3898957e-01
 -2.0180659e+00
 -1.0715204e+00
 -2.6007304e-01
  8.9945561e-01
  3.9821859e-03
  5.7162893e-01
  3.9273500e-01
 -9.0624517e-01
 -2.7909458e+00
  6.5150154e-01
  2.1846902e+00
  7.1806717e-01
 -1.2819958e-01
 -1.2162356e+00
  4.7040302e-01
 -1.4459256e+00
  1.2738671e+00
 -8.5347211e-01
 -3.6159980e-01
  1.3924398e-02
 -4.7829717e-01
 -6.2258542e-02
  5.0137365e-01
 -2.9329149e-02
  1.0597254e-01
 -2.3285758e-01
 -1.9992065e-01
  2.7594042e-01
  9.0129632e-01
 -1.1524385e+00
 -1.1469674e+00
 -7.7131480e-02
 -1.9099594e+00
  7.4557342e-02
 -2.1004181e-01
  1.3521405e+00
  1.4634637e+00
  1.1080723e+00
  5.9249580e-01
  8.0272043e-01
  3.6980167e-01
 -4.1484514e-01
  2.5098777e-01
  7.9414761e-01
  2.8889591e-01
  7.7651620e-01
  5.7496929e-01
  4.9662992e-02
 -1.1626039e+00
  2.5609645e-01
  4.1562676e-01
 -9.7287685e-02
  2.7616169e+00
 -6.7714000e-01
 -5.2865773e-01
 -6.0917521e-01
 -3.5006300e-01
  1.2376312e+00
  9.0488978e-02
  2.4902898e-01
 -1.8456033e+00
 -5.6596439e-02
  1.8041597e-01
 -1.1935163e+00
  8.8441706e-01
  1.0063837e+00
  9.7215182e-01
  7.7099651e-01
 -8.0026013e-01
 -7.6313078e-01
 -1.1132160e+00
 -2.5201461e-01
 -8.8331187e-01
  9.9877429e-01
  3.3628511e-01
  2.0173702e+00
 -1.5351459e-02
  1.1030966e+00
  1.0100702e-02
  3.3433479e-01
  1.2352091e+00
  4.8154831e-01
  2.0388407e-01
  9.2558110e-01
  8.0648851e-01
  9.1670793e-01
 -7.4810433e-01
 -4.7868464e-02
  7.1073784e-03
  4.8999071e-02
  2.2690007e-01
  3.2339744e-02
  1.5467979e-01
  8.6487710e-02
 -1.5208353e-01
 -1.2091008e-02
  3.1013045e-01
  1.3302135e-01
  1.3461232e-01
 -1.3253824e-01
  1.2558317e-01
  2.9407322e-01
  1.7387125e-01
  3.6494476e-01
  1.7821227e-01
 -2.2858961e-01
  3.0900183e-01
 -2.8579604e-02
  2.3640488e-01
  1.0214891e-02
  1.1563694e-01
 -6.0005323e-03
  2.6029581e-01
  4.9880752e-01
  2.4831703e-01
  2.7925706e-02
  1.2292185e-01
  1.8468184e-02
 -4.9028128e-02
 -9.3416348e-03
 -2.2779991e-01
 -6.0322881e-03
 -2.7999038e-01
  3.3690855e-02
  8.4992856e-02
  2.5248137e-01
  6.8428740e-02
 -2.1811761e-01
  1.4685793e-01
 -5.5195402e-02
 -1.3614504e-01
 -5.8739971e-02
  2.3135337e-01
  3.9566228e-01
  1.9184805e+00
 -1.4057891e+00
  1.9776254e+00
  2.6873586e-01
 -1.9617419e+00
  7.7794951e-01
 -3.0648726e-01
  9.7568518e-01
 -5.1875705e-01
  1.0057945e+00
  1.6844344e-01
 -1.0877829e-01
 -7.4804676e-01
  1.9686352e+00
 -3.7916264e-01
 -7.4013114e-01
 -4.4654864e-01
  5.1048979e-02
  1.2644626e+00
  1.2482736e+00
  1.1334222e-01
 -1.5505975e+00
 -1.1958436e+00
 -6.4675754e-01
 -1.3096365e-01
  8.8307202e-02
 -3.6058855e-01
 -1.9309641e-01
  6.6210777e-01
  9.9450338e-01
 -3.6715728e-01
  4.0769970e-01
 -6.3886619e-01
  2.4158816e-01
  3.0394225e+00
 -7.3877299e-01
 -4.4757801e-01
 -2.2081909e+00
  6.4653200e-01
 -2.4336979e+00
 -1.0110095e+00
 -5.2924395e-01
  2.0759528e+00
  1.1534337e+00
 -1.0045378e+00
  8.1059456e-02
  9.5906901e-01
  1.1202160e-01
  1.8058240e+00
  1.2803375e+00
  3.7723280e-02
 -3.0222768e-01
 -1.3128145e-01
  1.1737472e+00
  6.9103634e-01
 -3.0011702e-01
 -1.3464743e+00
  6.6097349e-01
 -1.6353492e+00
  4.2992625e-01
  3.3204910e-01
 -2.9214722e-01
 -9.7127247e-01
  1.7836295e-01
  6.7190993e-01
 -3.6554310e-01
 -1.4802125e+00
  1.8714529e-01
  2.2347085e-02
 -1.0834997e+00
 -2.8030780e-01
 -3.2983866e-01
 -1.8804997e-01
 -9.9603571e-03
 -1.4483205e+00
 -4.5054772e-01
  6.1123419e-01
 -1.3047116e+00
 -3.0811140e-01
  5.7992971e-01
 -2.0596954e-01
  3.2316262e-01
 -3.7296709e-01
  1.2563344e+00
  1.4056141e+00
  4.2553425e-01
  5.7635325e-01
 -2.1784711e+00
 -1.0456123e+00
  7.2077245e-01
  1.6993661e-01
  9.2681879e-01
 -1.0588744e+00
 -8.2112348e-01
 -3.1087881e-01
 -1.4723061e-01
 -1.2118795e-01
 -4.7826111e-02
 -2.1752173e-01
 -1.5286230e-01
  2.3650877e-01
 -2.0053731e-01
 -2.9461381e-01
 -4.9982950e-01
 -1.3186089e+00
  1.5850302e+00
 -1.3594762e+00
 -6.0418028e-01
  1.2807938e+00
 -1.0517963e-01
 -6.0384160e-01
 -4.6573099e-01
 -2.6080951e-01
  5.4834133e-01
 -2.9464555e-01
  2.7864960e-01
  1.7012215e+00
 -5.2386129e-01
  2.4224052e-01
 -3.2080662e-01
 -9.6938126e-02
  8.9948291e-01
 -3.5577977e-01
  1.4626596e+00
 -1.1479857e+00
 -2.9213005e-01
 -2.4877639e+00
  8.6962837e-01
 -4.8957774e-01
 -3.3522940e-01
 -1.4543918e-01
 -3.9044002e-01
 -5.7859898e-02
  6.5499753e-01
 -3.6653254e-02
 -2.3151585e-01
 -5.1888508e-01
 -1.1538730e-01
  3.3196074e-01
  6.1137015e-01
  2.1383879e+00
 -3.0818214e+00
 -6.7081010e-01
 -1.9538044e+00
  3.6636110e-02
 -1.8653450e+00
  9.9350202e-01
  4.5886600e-01
  2.5575063e+00
 -5.7430524e-01
 -1.0925891e+00
  2.9454815e-01
 -1.1674821e+00
  4.5623784e+00
 -4.8493370e-01
 -3.0821168e-01
  1.4235528e+00
 -7.2346961e-01
 -1.6503964e-01
  9.5495470e-02
  7.7169222e-01
 -4.5561096e-01
  2.5760312e+00
 -1.5784998e-01
 -5.6248343e-01
  3.3138774e-02
  1.3561325e+00
  8.8872135e-01
  1.9717690e-01
 -3.8869357e-01
 -1.4880859e-02
  6.8100847e-02
 -5.6917693e-02
  4.7500831e-01
 -1.0392977e+00
 -9.4143689e-01
 -5.2019525e-01
  2.1370075e+00
 -7.1099329e-01
 -1.7021547e-01
  1.6320907e+00
  1.6144374e-01
 -8.1458688e-02
 -3.2811564e-01
  7.7935532e-02
  4.2574292e-01
  7.3758823e-01
  9.7118652e-01
 -4.2990839e-01
 -4.6363139e-01
 -2.9280113e-02
  1.1809970e+00
  1.0832403e+00
  2.7632073e-01
  1.3855438e+00
 -7.3013270e-01
  2.2716293e+00
  4.0249504e-02
 -3.7892364e-02
 -4.3542659e-01
 -5.7337701e-02
 -8.7516737e-01
 -2.0174825e-01
  4.2885534e-02
  7.6715392e-03
 -1.0680507e-01
 -5.7135016e-01
 -3.0466825e-01
 -1.1499714e-01
  2.0153241e+00
 -1.6885478e+00
 -1.2878450e+00
 -1.1157010e+00
 -1.0416099e+00
 -1.3823063e+00
 -5.5229801e-01
 -1.1128988e+00
  7.3931217e-01
 -2.8287101e+00
 -1.6960223e-01
 -6.5374804e-01
 -7.5808507e-01
 -4.3718421e-01
  3.9747188e+00
 -1.4705760e+00
 -6.9397384e-01
 -3.2648972e-01
  4.6201032e-01
 -6.3784462e-01
  5.2316982e-01
 -5.1667422e-01
  4.6664590e-01
  4.5699307e-01
 -5.4294586e-02
  9.6459258e-01
 -9.9616513e-02
 -1.5480627e+00
 -1.3590704e+00
  1.6171478e+00
  4.1910395e-01
  1.7182420e-01
 -1.2561671e+00
  5.6922072e-01
 -2.9936633e-01
  1.0159203e+00
  5.9002143e-01
 -1.1495962e+00
  7.3143667e-01
  1.3834205e-01
 -1.0921845e+00
  1.5123202e-01
  1.2073251e+00
 -1.0623658e-01
  2.3158369e+00
  2.7261075e-01
  3.9837617e-01
  9.2108095e-01
 -1.2928221e+00
  7.2045618e-01
 -4.1846652e-02
  3.1339252e-01
 -5.2667850e-01
 -3.5204664e-01
 -1.4395905e+00
 -6.7002468e-02
  1.7872338e-01
  3.3775496e-01
  3.7492189e-01
  1.3619344e+00
  2.7880613e-03
 -4.7654432e-01
 -5.8065575e-01
  3.2821968e-01
  3.9246938e-01
 -7.8391796e-01
  3.3467120e-01
  1.3786300e+00
 -4.3701467e-01
 -7.7460712e-01
 -1.6204602e+00
 -2.8821239e-01
  1.5417695e-01
 -1.9253943e+00
  2.2924761e-01
 -2.2024725e-01
  3.1623808e-01
 -1.8853852e-01
 -1.9396663e+00
  4.1506472e-01
  6.5575403e-01
  6.6378659e-01
 -1.6712444e+00
 -5.1414305e-01
 -6.9789612e-01
  1.5280305e+00
  1.6118355e-01
  3.7281567e-01
 -1.1689122e+00
  9.3111503e-01
  2.5577226e+00
 -2.2627196e-01
  9.4174927e-01
 -7.7546857e-02
  1.3351525e+00
  5.2262680e-03
  1.3252820e-01
  4.4238552e-01
  3.8822827e-01
 -1.0855470e+00
  7.7914640e-02
 -1.5287243e-01
 -2.7093539e-01
 -4.5323748e-02
  1.7907149e-01
 -1.3294120e-01
 -8.6159827e-03
  7.7218875e-02
 -8.0906920e-02
 -1.6783547e-01
 -8.5337870e-02
  2.7734004e-02
 -4.0869057e-02
 -7.7900095e-03
 -3.9902534e-02
  1.0752259e-02
  6.7371055e-02
 -6.4611480e-02
  2.0964594e-01
 -2.4891695e-02
  2.2173551e-01
  1.3726823e-01
  5.5369112e-04
 -3.9430171e-02
  1.0140097e-01
  1.4234515e-01
 -1.8966518e-02
 -1.6361240e-01
 -2.4100508e-01
 -2.7324595e-02
  9.7574830e-02
 -9.6931435e-02
 -1.5156955e-01
 -4.5741789e-02
 -2.1659276e-02
  1.4468624e-02
  1.1452661e-01
  6.1686989e-02
  7.0501328e-02
 -1.0452908e-03
  6.0462773e-01
 -9.9144261e-03
  1.9006068e+00
  1.9862978e+00
  1.4146943e+00
  3.4520057e-01
  2.0629194e-02
  1.4652356e+00
  6.1845052e-01
  1.4112612e+00
  1.3152476e-01
 -6.2718034e-02
 -1.0999049e+00
 -1.0350194e+00
 -4.9252960e-01
 -2.5842279e-01
 -1.2622581e-01
  4.7850069e-01
  1.3131174e+00
  5.1065755e-01
  6.4809275e-01
  1.3408723e-01
 -7.8828894e-02
 -9.5857251e-01
  1.2746328e+00
 -1.0112898e-02
 -1.7300619e-01
 -4.2792112e-02
 -3.0276379e-01
  1.4834163e-01
 -1.3909148e-01
  1.4630829e-01
 -2.8111542e-02
  1.7954122e-01
 -1.1922698e-01
  6.9687957e-01
  1.5003346e-01
 -3.0824737e-04
 -1.6906672e+00
 -2.6528367e-01
  9.5027268e-02
  1.5062316e-01
 -3.0068862e-01
  3.5603613e-01
 -4.2563072e-01
  9.9371588e-01
 -3.7658074e-01
  3.1703949e-01
 -8.1455097e-02
  1.5946820e+00
  1.5347424e+00
 -6.0141504e-01
 -7.3645723e-01
 -1.0016670e+00
 -3.5113925e-01
 -1.5146917e+00
 -1.4772025e+00
  7.2190899e-01
  1.1181527e-01
 -2.5068527e-01
  2.5803348e-01
  6.1583567e-01
 -6.4948577e-01
 -3.2019317e-02
  1.8109823e-02
  4.2874327e-01
 -2.0591544e-01
  2.9074949e-01
  1.5105295e-01
  4.4093418e-01
  1.2368909e-01
  8.5247153e-01
  1.0048300e+00
 -8.9759523e-01
  2.2093475e-01
 -1.8700485e+00
  6.1112277e-02
  6.1727846e-01
  1.7886629e+00
 -2.2667666e-01
  1.2972865e+00
 -1.0285275e-02
  6.3650534e-02
 -5.9084535e-01
  2.4882350e+00
 -5.3026110e-01
 -2.3021699e-01
 -1.4465996e+00
  5.3868270e-01
 -2.4040375e+00
 -6.5938663e-01
  7.1424820e-02
 -2.1505357e-01
  1.3613327e+00
  9.4004452e-01
 -8.0147147e-01
  3.1713620e-01
  1.9553070e-01
 -5.9138936e-01
  8.5753351e-01
  9.1833726e-02
 -1.5191612e-01
  9.4941747e-01
  5.2099794e-01
  3.3773389e-01
 -4.8206431e-01
  1.0212992e+00
  7.0078880e-01
  1.3869158e+00
 -1.2228496e+00
  4.3708127e-02
  3.6548245e-01
  8.1784797e-01
  3.8892820e-01
  8.2268320e-02
  1.4369845e+00
 -2.1836524e-01
 -1.3470851e+00
 -3.5705667e-02
 -1.3855052e+00
  8.9060658e-01
  3.9282659e-01
 -1.2050945e+00
  7.8372043e-01
 -6.4280075e-01
  1.0938112e+00
  7.8359440e-02
 -1.1457466e+00
  1.2165217e+00
 -1.1613623e+00
 -2.9476896e-01
 -1.3032773e-01
 -1.0046557e-01
  3.7150256e-02
  6.4371318e-02
  2.0418151e-01
 -1.6717181e-01
  2.7537084e-01
 -1.1093365e-01
  1.0427175e-01
 -3.2733717e+00
  1.4846015e+00
  5.5093116e-01
  1.6342837e+00
  1.0024998e+00
 -7.2849202e-01
 -5.7431817e-01
 -2.8571002e+00
 -7.2624987e-01
 -4.8863760e-01
  2.9772973e-01
  2.3181561e-01
  1.9195184e+00
 -1.0764859e+00
  1.1633666e+00
  1.9294330e+00
 -2.8864151e-01
  1.5525529e+00
 -1.5729845e-01
  7.9365444e-01
  1.5952210e-01
 -8.9812708e-01
  1.5752565e+00
 -8.5827404e-01
  1.4378784e+00
  2.0550711e-01
 -4.6079043e-02
  8.8736147e-01
 -8.0399024e-01
 -8.5816276e-01
 -3.0768961e-01
  1.2058619e-03
  1.6583040e-03
  1.8156041e-01
  4.7298178e-01
  3.3452174e-01
 -1.9301498e-02
 -1.1726223e+00
  1.4240561e-01
 -3.1900308e-01
  3.2664742e-02
  2.0510354e+00
 -6.0967195e-01
  4.1434664e-01
 -6.6335358e-02
  3.0167609e-01
  1.3979993e+00
 -5.3526992e-01
 -1.3449158e-01
  4.8710641e-01
 -1.0778826e+00
  6.8520606e-01
 -1.3173364e+00
  1.8244211e-01
 -4.0469079e+00
 -6.0118687e-01
  4.0169168e-01
  1.0820335e+00
 -1.4437336e+00
  8.3068925e-01
  7.8825063e-01
  3.1703261e-01
 -8.3263183e-01
 -7.3868029e-02
 -1.8992560e+00
  3.8744554e-01
 -5.8230406e-01
  8.7639999e-01
  1.1149743e+00
  2.4355661e-02
 -3.9953381e-02
  8.4148154e-02
 -1.7548230e-01
  2.7347994e-01
  1.0047462e+00
  2.1130550e-03
  1.5784931e-01
 -6.8460643e-02
  1.5795482e-02
 -1.2771028e-01
  5.9120063e-02
 -5.2983988e-02
  5.3269003e-02
  4.4805843e-02
 -3.4483284e-02
  5.9917118e-02
 -5.3090427e-02
  1.3098767e-01
  1.6647556e-01
 -7.9671323e-02
  1.2668669e-01
  3.3543566e-03
 -9.8867573e-02
  4.1810428e-03
  1.7963254e-01
 -4.5853443e-02
  1.7970805e-01
  1.6947985e-01
 -8.4556960e-02
 -8.7408379e-02
 -1.5204920e-01
  2.2193126e-02
  3.8620528e-02
  4.3612339e-02
  5.4736178e-02
  1.8257950e-01
  4.4868207e-01
  1.0454838e+00
  5.5115443e-01
  1.2235513e+00
  1.5687416e-01
  4.9473796e-02
  1.0142834e+00
  3.3137423e-01
  2.0583208e-01
  1.2255398e-01
  1.7017412e-01
 -7.4849337e-01
 -1.3040872e+00
 -2.0215206e-02
 -4.0163806e-01
 -4.2643285e-01
  9.6780904e-02
  1.0332383e+00
  1.4969095e+00
  3.3407453e-01
  2.1137613e-01
 -1.5687029e-01
 -9.9818331e-01
  8.2235850e-02
  1.4037728e-01
  5.0539736e-02
  4.0338802e-01
 -4.1123426e-01
  2.8166544e-01
  1.6648242e-01
 -1.1264258e-01
 -2.2383603e-01
  2.2640105e-01
  2.8579801e-01
  1.6199110e-01
 -1.4686419e-01
 -1.4776934e+00
  6.3338685e-01
  7.6305705e-01
 -3.2100424e-02
 -2.0247503e-01
  7.6509476e-01
  2.4844332e-02
  7.5904822e-01
  7.4271882e-01
  1.2762323e-01
  1.0746804e-01
 -1.5919497e+00
  3.6016268e-01
  5.3318477e-01
  9.1445021e-02
 -6.2329566e-01
  1.4699115e-02
  1.2268277e-01
 -1.0202619e+00
 -2.9119155e-01
 -7.0668125e-01
 -1.7040925e-01
  2.5381708e-01
  1.6215028e-02
 -1.3629334e-01
 -1.8470834e-01
 -4.0734448e-02
  2.1012327e-01
 -1.4836155e-01
  1.2202762e-01
  3.9173806e-01
  5.5033032e-02
 -1.9596842e-01
 -1.1759627e+00
  1.2714792e+00
  2.3181887e+00
 -1.4179987e+00
  5.0382102e-01
  7.6226401e-01
 -1.1256102e+00
  5.6237340e-01
 -1.5545933e+00
 -3.4128505e-01
 -5.3407246e-01
  7.2954178e-01
 -1.3688803e-01
 -3.3726898e-01
  6.6131234e-02
 -5.0996786e-01
 -1.2641102e-01
  3.6482842e+00
  1.3982813e-01
  8.5274482e-01
 -4.4732973e-01
  4.8509464e-01
  5.3263783e-01
 -1.5245597e+00
 -1.3392782e+00
 -1.1178422e+00
  2.4003489e-01
  8.9111507e-01
 -1.3986048e-01
 -1.2399482e+00
 -2.8278440e-01
 -2.6991254e-01
 -1.8540920e-01
 -1.2926428e-01
 -1.1825341e-01
 -1.8984210e+00
 -1.3424287e+00
 -9.2486936e-01
  5.6084061e-01
  2.5549498e-01
  2.3244533e-01
  1.3665314e+00
 -6.2989283e-01
 -4.6008641e-01
  6.3645512e-01
 -2.1597067e-01
  4.2520469e-01
  1.4288810e-01
 -6.0417920e-01
  4.9240413e-01
 -8.7960055e-03
 -2.1196163e-01
  5.4198754e-01
 -2.5923982e-01
  9.3744993e-01
  1.6390151e+00
  1.1126007e-01
  5.5728966e-01
  2.8664833e-01
  7.7053696e-01
 -5.0702167e-01
  2.3870654e-01
 -1.7378575e-01
  2.3803332e-01
  3.7825018e-02
  6.2727697e-02
 -2.0395236e-01
  7.4065202e-01
  2.1733461e-01
  1.7903017e-01
 -9.8269415e-01
  2.3658111e+00
  1.2910815e+00
  1.9588565e+00
  1.6972011e+00
  2.7912259e+00
  7.1366139e-02
 -4.3402204e-01
  1.3762653e-01
  3.5039103e-01
 -1.6049328e+00
 -3.1817654e-01
  6.3551658e-01
  6.5817940e-01
 -1.3291115e-01
  8.5740054e-01
  1.5673527e-01
 -2.3742712e+00
 -1.3347675e+00
 -1.5095079e+00
 -1.3467709e+00
 -2.8498280e-01
 -1.8396189e+00
  2.9671785e-01
 -1.1357763e+00
  1.2412880e-01
 -7.4235894e-02
  5.7465523e-01
  2.6356763e-01
 -7.9950744e-01
 -2.3747598e-01
  9.3969092e-02
  6.5456730e-01
 -4.1590104e-01
 -7.4979827e-02
  3.9882347e-01
 -2.5983841e+00
  1.5090576e+00
 -3.3136129e-01
  1.7217236e+00
 -1.6008418e+00
  5.7140797e-02
 -8.6383575e-01
  3.4717578e-01
 -1.4707077e+00
 -2.1907395e-01
  4.3885726e-01
  5.1206976e-01
  6.6961557e-01
  2.8434145e-01
 -1.1080707e+00
  1.4646197e-03
  8.0671364e-01
  9.5154679e-01
  3.4331968e-01
 -4.5937625e-01
 -3.5228851e-01
 -6.9789153e-01
  1.8692394e-01
  5.6472379e-01
  5.5344474e-01
 -1.9009781e-01
 -3.9427046e-02
 -6.7872453e-01
 -1.1614028e-02
  2.3478955e-01
 -4.1252967e-02
 -6.8727881e-02
 -4.1671790e-02
 -1.9970627e-01
  1.3424744e-01
 -1.9250979e+00
 -6.6288680e-01
 -4.3590632e-01
  2.7428436e-01
  3.6161444e-01
  1.3030924e+00
 -4.5662013e-01
 -1.8226598e-01
  4.8472100e-01
 -1.3957648e+00
  1.3796294e-01
 -1.9984918e+00
 -4.9597329e-01
 -8.6052167e-01
  2.7122520e-02
 -1.8300792e-03
 -3.1313893e-01
 -1.9865704e-01
  6.9807684e-01
 -1.5366584e+00
 -5.1037419e-01
 -4.3029237e-01
  2.2719624e+00
 -1.1520411e-02
 -2.1723659e-01
 -1.0974456e-01
 -3.3129342e-02
  3.1576101e-02
 -6.1915696e-01
  1.6299471e-01
 -1.0670438e-02
 -8.9675146e-01
 -6.3862383e-02
  1.1777904e-01
 -2.6044955e+00
  1.8975019e+00
  8.5834765e-01
  1.2217900e+00
  5.3737962e-01
  1.9723843e+00
  5.1398617e-01
 -1.7671382e-01
 -4.0005776e-01
 -7.6942968e-01
  6.1777836e-01
  8.6606568e-01
  9.5134012e-02
  3.8891169e-01
  2.7623397e-01
  3.2238913e-01
  1.3403115e-01
 -1.2699518e+00
 -5.6651968e-01
 -5.5375915e-02
  1.2689666e+00
 -6.2050956e-01
  5.3993315e-01
 -1.9276889e-01
  4.1295004e-01
 -5.7168818e-01
 -3.2147324e-01
 -4.7194427e-01
  7.9742068e-01
 -6.8800592e-01
 -5.3445780e-01
  2.7359459e-01
 -3.1071212e-02
 -5.6577796e-01
 -5.4819983e-01
  1.0528957e+00
  5.1987475e-01
  5.5745238e-01
  1.9563227e+00
  2.4852230e-01
 -1.8489257e-02
  3.5633352e-01
  9.8585552e-01
  1.1731181e-01
 -9.1323566e-01
  9.5329958e-01
  7.2750598e-02
  3.4261274e+00
  1.5473746e+00
 -1.3569744e+00
  1.1782749e-01
 -6.5090132e-01
 -4.6381113e-01
 -7.2102106e-01
 -1.1727248e-01
 -6.8714219e-01
 -4.3931842e-02
  7.7539659e-01
  1.1894790e+00
 -4.5311624e-01
  3.1823792e-02
 -1.6449371e-01
 -4.1869369e-01
  7.8463294e-02
 -7.2230607e-01
 -9.2186138e-02
  7.9084241e-01
 -3.7279990e-01
 -4.4452879e-01
 -1.7862795e-01
 -5.5393732e-01
 -1.1187428e+00
 -8.8861752e-01
 -2.0339720e+00
 -4.1530219e-01
  6.1558580e-01
 -6.4738154e-02
  6.2293684e-01
  1.3089460e+00
 -1.1224651e+00
 -1.1082120e+00
 -3.8173180e-02
  1.1867366e+00
 -8.8682435e-02
  7.3105532e-01
  5.1345646e-01
 -1.5627760e-01
  6.2851959e-01
  9.5456034e-02
  2.8273947e+00
 -1.5878459e+00
  4.3040043e-01
 -1.0306444e+00
 -3.5319178e+00
 -2.7804896e-01
 -1.5774524e-03
  2.4086121e-01
  3.9054462e-01
  6.9012918e-02
 -2.1624371e-01
 -5.4371301e-02
 -1.6977195e-01
 -6.9936293e-01
  1.9250646e-01
  9.3451604e-02
  4.6728802e-01
 -4.6231624e-01
 -5.1628584e-01
 -4.4639033e-01
 -2.0241009e-01
  2.4000353e-01
  1.0679550e+00
 -1.0073247e+00
 -4.8660675e-01
 -2.7348098e-01
  5.1311392e-01
  6.5086865e-01
 -2.3836718e+00
 -4.4364393e-01
  4.8855251e-01
 -6.3062125e-01
 -2.9210159e-01
  1.3752726e+00
 -2.9922360e-01
  3.8070545e-01
 -3.2304642e-01
  5.4117978e-01
  1.2680178e+00
  8.6349291e-01
  8.3600801e-01
 -1.0264872e-01
  2.0659144e-01
 -3.6264932e-01
 -5.8574474e-01
  1.0730331e+00
 -3.7559859e-02
 -1.6393410e-01
  5.5331773e-01
  3.8999912e-01
  3.3164787e-01
 -4.0846854e-02
 -1.8184929e-01
  1.7563513e-01
 -8.8875070e-02
  9.9190599e-01
  1.1582202e-01
  1.0740013e-01
  5.0062139e-02
  3.5298988e-02
 -7.2450563e-03
  7.5396925e-02
 -2.7787529e-02
 -1.1910664e-01
 -3.9518324e-01
  6.8985373e-02
  1.0727173e+00
  1.0065027e-01
 -1.0529832e-01
 -1.7932984e-01
 -6.5787934e-02
 -1.7692122e-01
 -4.6171553e-02
  8.4964640e-02
  7.1078718e-02
 -1.1603325e-01
  8.0013365e-02
 -3.9802209e-02
 -8.2852982e-02
  3.8310610e-02
 -5.3636634e-01
 -1.2162744e-01
 -4.3628246e-01
  6.4128652e-02
  1.2328644e-01
  1.8478620e-01
  8.4294242e-01
 -1.7958490e-02
 -2.1128276e-02
 -2.8824985e-01
 -6.0036503e-02
  4.9256574e-02
 -7.4965820e-02
 -6.9507822e-02
  9.1375165e-02
 -7.6987997e-02
 -9.2609137e-02
 -1.7006989e-01
 -5.9142426e-02
  1.0093490e-01
  2.2244869e-02
  2.8923847e-02
  9.5464028e-02
  3.8963360e-01
  6.8297274e-02
 -8.0289215e-02
 -1.2230761e-01
  1.6821174e-02
  3.1490335e-01
 -9.3716562e-02
  1.4768928e-02
  2.1500193e-01
 -1.8253465e-01
  4.7595002e-02
 -7.3154874e-02
  1.1394297e-01
 -5.6502562e-02
 -5.8221076e-02
 -5.3213395e-02
 -1.9771616e-01
 -4.2403892e-02
 -5.2028179e-01
  1.2500305e-01
  3.8916200e-01
 -2.9013075e-02
 -1.1316968e-01
  7.6678157e-01
  1.7275603e-01
  1.1548144e+00
 -8.8565600e-01
  8.6025620e-01
 -1.0527846e+00
 -9.8229632e-02
  3.0664909e-01
 -2.7087328e-01
  4.0895534e-01
 -1.1796758e-01
 -1.8139054e-01
 -1.1981092e-01
 -4.3910170e-01
 -7.4182518e-02
  1.2968487e+00
 -3.3899210e-02
 -1.5019234e+00
 -4.5610834e-02
 -9.7274882e-01
  1.7587303e-01
  2.5356039e-01
 -9.2998409e-01
 -4.2335387e-02
  1.8678282e-01
  1.4335117e-01
 -2.1361798e-01
  3.0720767e-02
 -1.2510228e-02
  1.4760563e-01
  6.0435876e-02
 -1.7609307e-01
 -7.3711969e-02
 -2.2549009e-02
 -1.3671352e-01
  1.4146643e-02
  5.5132829e-02
  8.4760740e-02
  1.0293946e-01
  2.1629117e-02
  4.9209382e-02
 -1.4462411e-01
  6.2563315e-02
 -4.7092494e-02
  7.3971346e-02
  2.4356524e-02
 -7.9040602e-02
  2.0092782e-02
  1.6479518e-01
 -1.3626185e-01
 -4.8168844e-01
  2.9303048e-02
  1.3798623e-02
 -1.7961839e-01
 -1.2568364e-01
 -8.9536883e-02
  3.7838370e-02
  1.0343837e-01
 -1.0783673e-01
  1.7286332e-01
  4.0077474e-02
 -3.9187811e-02
  2.7201517e-02
 -2.0519075e-01
  9.7960435e-02
 -1.1713445e-01
 -2.2434947e-01
  1.9839966e-01
  1.3921431e-01
 -1.1587162e-01
 -8.1153877e-02
  9.4510913e-02
  1.1221144e-01
  2.5544783e-01
  6.9704257e-02
  1.8868619e-01
 -2.7471207e-02
  3.4532599e-02
  1.7127889e-01
  7.0148632e-02
  1.3263573e-01
 -8.3201267e-02
 -7.2864302e-02
  1.4256780e-01
  9.6228179e-03
  2.4105161e-02
  9.0349138e-02
 -2.4317873e-01
  4.0031750e-02
 -8.5618570e-03
 -5.3118803e-03
  4.9294885e-02
 -2.5613923e-02
 -2.2621731e-01
  3.4898266e-02
  8.2885806e-04
 -1.0360964e-01
  1.1238800e-01
  4.3584358e-02
 -2.1027720e-02
  1.8879995e-01
 -1.0651236e+00
  1.6692042e+00
  1.4086527e+00
 -1.0059471e+00
  2.1182597e+00
  3.3997101e-01
  2.0522857e-01
  6.0915971e-01
  6.4253485e-01
  6.2568063e-01
  2.4416119e-01
 -2.9564971e-01
  1.7135682e+00
  4.0234548e-01
  6.0822701e-01
 -3.1328139e-01
 -8.5331462e-02
  8.0091506e-01
  5.0163651e-01
 -2.4328856e+00
 -9.8647494e-03
 -1.2847040e+00
  7.9033875e-01
 -3.8187560e-01
  4.5379484e-01
  3.0799788e-01
 -7.0778161e-01
 -2.0319934e-01
  1.1105931e+00
 -1.0543905e-01
 -4.1782403e-01
  7.3786801e-01
  4.9456537e-01
  6.5581429e-01
 -6.8816394e-01
  9.0624847e-02
  8.5079265e-01
 -1.2163923e+00
  4.2120561e-01
  1.5839634e+00
 -2.8205442e-01
  6.7900419e-02
  1.6393124e-01
 -4.6271902e-01
  1.0514570e+00
 -8.2799539e-02
  1.0703715e-01
 -5.1433021e-01
 -9.7309166e-01
 -8.7075748e-02
  1.7875622e-01
 -5.3345007e-01
  5.9377837e-01
  4.5834801e-01
  2.1140343e-01
 -1.4344478e-01
  2.3926671e-01
 -5.6290459e-02
 -3.1027883e-01
  2.3596297e-01
 -1.0981526e-01
  2.4071257e-01
 -2.2387030e-02
 -8.2745943e-03
 -1.7006409e-01
  4.2013958e-01
  1.9738097e-01
 -1.6257632e-01
 -5.3177738e-01
  2.8023794e+00
 -8.5435808e-01
  1.1501715e+00
 -1.5980250e+00
  6.0461295e-01
  2.8079039e-01
  6.8064415e-01
  4.9755156e-01
  4.3900010e-01
  5.2489728e-01
  9.4245297e-01
  4.0858182e-01
 -1.8431510e+00
  2.1196029e-01
 -2.2427387e+00
 -1.0625757e+00
  1.9068381e-01
 -2.0978592e-02
  8.1161958e-01
 -2.7907366e-01
  1.7533600e-01
 -4.6088180e-01
 -3.7166247e-01
 -1.9053652e+00
 -2.2378855e+00
 -1.5535855e-01
 -3.1427041e-01
 -5.8827281e-01
  3.4899265e-01
  4.4785053e-01
 -5.4340273e-01
  9.4050926e-01
 -6.6175026e-01
 -3.7540311e-01
 -4.7684065e-01
 -3.8841161e-01
  2.9723030e-01
 -2.1344148e-01
 -9.4107169e-01
  8.3700573e-01
  1.2156386e+00
 -2.4316944e-01
 -1.2914902e+00
 -4.8049740e-02
 -3.2487489e-02
  1.1668200e-01
 -2.9223245e-01
  1.5457481e-02
 -4.5527363e-01
 -3.7751421e-01
  3.3809781e-01
 -1.3979015e-01
 -2.7697152e-01
 -1.0669154e+00
 -5.5283319e-02
  5.2286226e-01
 -5.1081952e-02
 -1.5065517e-01
 -4.2889026e-01
 -6.0989165e-01
  1.8018977e-01
 -1.0717168e-02
  4.8184324e-02
  3.6277272e-02
 -3.0470455e-02
 -2.1728417e-01
  1.1897220e-01
  3.2997417e-01
  2.2866854e-01
 -1.8056756e-01
  1.1238500e+00
 -4.7943377e-01
  2.2002438e-01
 -1.4540014e+00
 -4.3909723e-01
 -1.3200009e+00
 -1.5514155e-01
  9.2046392e-01
  5.7224983e-01
  1.4677012e-02
 -5.6005263e-01
  5.7141167e-01
  8.3172309e-01
  4.6193678e-02
  4.2810169e-01
 -1.3014202e+00
  5.8287475e-02
 -1.0977136e+00
  3.0459806e-01
  6.6930050e-01
 -2.2958392e-01
  4.4795886e-02
 -2.0574348e-01
 -5.7366145e-01
  8.1954819e-01
  1.9659339e-01
  1.3969350e-01
 -4.3151802e-01
 -4.2207590e-01
 -2.6786372e-01
  1.5732731e-01
 -1.5059902e-01
 -5.3523731e-01
  1.0031519e+00
  2.2205091e-01
  5.8272576e-01
 -3.7633616e-01
  1.2003281e+00
 -2.1553840e-02
  1.4332749e+00
 -1.8023467e-01
  1.5031525e-01
  1.2032174e-01
 -9.3674429e-02
  7.2780475e-02
  9.6306592e-02
  1.0375698e-01
  1.3245912e-01
  2.1546048e-01
 -1.5963562e-01
 -3.0748039e-01
 -1.2254795e-01
 -5.5202030e-02
  5.2027881e-02
  9.0817429e-02
 -1.3489652e-01
  1.2297459e-01
  2.9444423e-01
  2.6057327e-01
  1.2201686e-01
 -6.5961696e-02
  1.0025906e-01
 -2.4561487e-01
 -6.0844459e-02
  7.4743956e-02
  5.8043352e-03
  1.3448820e-01
 -3.3966340e-02
 -9.7943686e-02
  2.4889296e-02
 -1.8522227e-01
  1.0348530e+00
 -9.0516376e-01
 -6.7942077e-01
  5.0573874e-01
  1.1883048e+00
 -2.6202616e-01
  5.8917469e-01
 -5.8468884e-01
  5.6478739e-01
  1.2281736e-01
 -9.2401333e-02
  1.0176568e+00
 -6.4074911e-02
 -4.8726833e-01
 -8.5364990e-02
  1.3591444e-01
  3.0703944e-01
 -7.6746809e-01
  2.5605705e-01
  3.6150092e-01
 -1.9157808e-01
 -5.7045311e-01
  2.1406051e-02
  9.8125227e-02
  3.2119417e-01
 -1.9688839e-01
 -1.9916524e-01
  2.3711351e-01
  1.8979141e-01
  1.9011825e-01
  6.8115301e-02
  3.2481849e-02
 -1.2600125e-01
 -2.7982328e-02
 -2.7714831e-01
  4.8532940e-02
 -7.6614904e-01
  2.4763331e-01
  1.9719636e+00
 -2.9789048e-01
  1.8905252e-01
  5.2695489e-01
  5.5492375e-02
  8.7163284e-02
  3.8835518e-02
  1.0280970e-01
  1.2172183e+00
  1.3301420e-01
  1.5095918e-01
  3.8559277e-02
  2.8257564e-02
  3.0408777e-02
  7.7342495e-02
  3.4935805e-03
 -5.6181714e-02
  4.0517066e-02
  5.9575766e-01
  1.5913780e-01
  1.4869711e-01
  2.1256953e-01
  4.9429990e-02
  5.6586135e-02
  4.3307729e-02
  1.5395002e-01
  2.6223501e-03
  1.2505492e-02
 -2.6505330e-01
  3.4076624e-02
 -7.1933948e-02
  1.7322239e-01
  1.9946949e+00
  8.0591106e-01
  5.0323719e-01
 -9.1299820e-01
 -1.6231669e+00
  4.6855745e-01
  2.1555829e+00
  4.4210753e-01
  5.2784204e-01
 -1.0788747e+00
 -4.9886721e-01
 -1.5389331e-01
  5.9099680e-01
 -1.7292624e+00
 -1.0525219e+00
  4.7475210e-01
 -7.5740713e-01
  9.2679169e-03
  3.3183238e-01
 -8.3132833e-01
 -4.2930415e-01
 -2.4868751e+00
 -4.7059834e-01
 -5.1833266e-01
  1.4227924e-01
 -8.2477406e-02
  1.1240748e+00
  5.0729805e-01
 -9.4975168e-01
 -1.5076037e-01
  1.9010006e-01
  5.6317508e-02
 -1.5366653e-01
 -1.4574631e-01
  3.9369428e-01
  1.6321926e-01
  6.3682395e-01
 -6.9219226e-01
  1.5511973e-01
 -9.5600754e-01
  1.9872306e-02
 -6.0178328e-01
  1.2519530e+00
 -4.8308194e-01
  4.9947315e-01
 -2.3965053e-02
 -6.8764371e-01
 -4.7661740e-01
 -4.5016709e-01
 -8.3148527e-01
 -3.0803108e-01
 -1.0386229e+00
  3.3423349e-01
  1.9884947e-01
 -8.8741839e-02
 -2.7341956e-01
  3.7818819e-01
 -1.2042838e-01
 -2.8720108e-01
 -2.3422934e-01
  9.1887675e-03
 -1.5054442e-01
  8.8134147e-02
 -2.1043974e-01
 -2.3057310e-01
  1.3120651e-01
 -2.1895744e-01
  7.7988133e-02
 -2.5446665e-01
  1.0130330e+00
 -9.9762875e-01
 -1.9049173e-02
 -1.7681359e-01
  1.2230533e+00
 -1.0381907e+00
  1.3604831e+00
  1.0624948e+00
  7.5428855e-01
 -9.3005401e-01
  6.0616469e-01
  9.8792338e-01
 -6.9086486e-01
 -3.1625163e-02
  6.4865535e-01
  9.2762613e-01
  1.0305369e-01
 -3.7042543e-02
 -1.8880010e-01
 -5.6019461e-01
 -7.6192141e-01
 -9.0647362e-02
 -3.0384195e-01
  6.5353918e-01
 -6.0083961e-01
  1.0888588e+00
 -2.3644376e-01
  5.2970278e-01
  3.0081111e-01
  1.0583032e+00
  6.4178419e-01
  4.2727882e-01
 -1.6115646e-01
 -5.5242062e-01
  9.1855109e-02
 -8.5193276e-01
 -3.6022589e-01
  2.2008483e-01
 -9.6308631e-01
 -6.2860352e-01
  7.6773602e-01
  3.5600927e-01
 -9.4444191e-01
  4.6479112e-01
  2.3097391e-01
  2.4143963e-01
  3.4916803e-01
  7.8149563e-01
 -5.2742404e-01
  1.2810349e+00
 -8.3848703e-01
  1.9929936e+00
 -1.2470465e+00
 -2.0221654e-02
  1.5342309e+00
 -5.7845688e-01
 -1.6204065e-01
 -6.5515441e-01
  2.0477684e+00
 -7.6563680e-01
  9.7287428e-01
  1.4184133e+00
  1.3252791e+00
 -5.1369458e-01
 -7.3508430e-01
 -1.4165759e+00
  7.0414342e-02
  4.1719466e-01
 -1.3962886e-01
  8.5609898e-02
  6.9139427e-01
  4.2487091e-01
 -6.9813126e-01
  4.8039994e-01
 -1.0171139e+00
 -7.8696871e-01
 -6.7512918e-01
  1.4422858e-01
  1.1565008e+00
 -1.0029817e+00
  1.8568586e+00
  6.4666212e-01
 -5.6004845e-02
  1.4059034e-01
 -1.5231211e+00
  1.6939741e+00
  6.1426562e-01
  8.3682466e-01
  1.2363054e-01
 -3.6612809e+00
  1.1414286e+00
  9.5947194e-01
  9.2836320e-01
 -1.1054055e-01
 -2.3103349e-01
  3.9645991e-01
  9.9905014e-01
  1.3668957e-01
 -1.3316597e+00
  7.2508210e-01
  3.9724067e-01
 -1.7235070e-01
 -9.0482421e-02
 -3.2209989e-01
  5.1121461e-01
 -1.6883717e+00
  5.7988727e-01
  4.1396102e-01
 -5.8572376e-01
 -1.3380471e+00
 -9.5886266e-01
  7.7559896e-02
 -7.6126021e-01
  5.4806727e-01
  1.1787820e+00
  7.9624766e-01
 -2.2842786e-01
 -8.1347907e-01
 -9.1058612e-01
  7.8644544e-01
 -5.5229634e-01
  1.5484289e+00
 -1.1147987e+00
  1.8049561e+00
  1.5961144e+00
 -6.0348934e-01
 -3.5022616e-02
  2.0585364e-01
 -8.3141619e-01
 -1.7067338e+00
 -4.7420138e-01
  7.9356301e-01
 -1.6868402e+00
 -6.8898141e-02
 -3.8803962e-01
  4.0563083e-01
 -1.5869627e+00
 -1.2250215e+00
  7.0744914e-01
 -8.2656968e-01
 -6.4940447e-01
  1.7608006e+00
  6.0862869e-01
 -4.6998703e-01
 -8.7253487e-01
 -6.2728584e-01
  1.0495873e-04
 -4.6223456e-01
 -2.0760654e-03
 -7.6991946e-02
 -9.9039555e-01
  5.1342666e-01
  1.2224371e+00
  2.9593334e-01
 -6.4765918e-01
 -2.9361606e-01
  2.6969755e-01
 -1.1074812e-01
  1.2536676e+00
  4.8653841e-01
 -5.9027724e+00
 -1.4100789e+00
  2.0202689e+00
  9.4188952e-01
  8.3217764e-01
  3.4661293e-02
  4.4603366e-01
  6.4058280e-01
 -9.0344197e-01
 -7.9675114e-01
  7.9349440e-01
  8.1749898e-01
 -2.6469424e+00
  1.3527107e-01
  1.6173651e+00
 -1.0134191e-01
 -8.7831807e-01
 -1.1224355e+00
  5.9641981e-01
  7.2215438e-01
  1.0968069e+00
 -1.3359975e+00
  5.8654726e-01
  4.4676879e-01
 -1.4162064e+00
  1.2165718e+00
  8.1219691e-01
 -1.8702994e-01
  7.8591518e-02
  5.3938955e-01
  5.7478413e-02
 -1.5758908e-01
  1.3290641e+00
 -9.4888109e-01
 -8.7059379e-02
  7.2035366e-01
  7.3683746e-02
  2.8674322e-01
  5.1275414e-01
 -6.8110234e-01
  1.2044207e+00
  1.9913239e+00
 -4.3483257e-01
 -3.6888930e-01
  1.0565749e+00
  1.0592773e+00
  7.8041208e-01
  2.5552824e+00
 -2.5967741e+00
  6.9923681e-01
  2.0870094e+00
 -1.2967498e+00
 -9.7629321e-01
  6.7165452e-01
  6.6156262e-01
 -1.6380181e+00
 -1.0305837e+00
 -1.1184455e+00
  8.8985860e-01
  2.4533151e-01
  1.8337601e+00
  1.2692219e-01
 -7.9784763e-01
 -5.2066010e-01
 -9.6082592e-01
 -5.3370059e-01
 -1.1149479e+00
 -1.0480779e+00
 -4.4709808e-01
  2.1839130e+00
  8.9455150e-02
 -1.0371574e+00
 -8.5934377e-01
 -9.9112737e-01
 -5.1442313e-01
 -2.4736759e-01
 -3.6448500e-01
 -6.8120486e-01
 -7.7874023e-01
 -1.7174491e-01
  1.4443721e+00
  1.7697413e-02
  1.2193208e+00
  5.5699694e-01
 -1.6121325e+00
  1.3204651e+00
  1.3389744e+00
 -4.2375770e-01
 -4.9297822e-01
 -8.8834643e-01
 -1.9076547e-01
  1.9404432e-02
  1.9404432e-02
  1.9404432e-02
  1.9404432e-02
  1.9404432e-02
  6.4319231e-02
  6.4319231e-02
  6.4319231e-02
  6.4319231e-02
  6.4319231e-02
  5.3195208e-02
  5.3195208e-02
  5.3195208e-02
  5.3195208e-02
  5.3195208e-02
  4.1125018e-02
  4.1125018e-02
  4.1125018e-02
  4.1125018e-02
  4.1125018e-02
  2.5329093e-02
  2.5329093e-02
  2.5329093e-02
  2.5329093e-02
  2.5329093e-02
  2.7485678e-02
  2.7485678e-02
  2.7485678e-02
  2.7485678e-02
  2.7485678e-02
  8.8649224e-03
  8.8649224e-03
  8.8649224e-03
  8.8649224e-03
  8.8649224e-03
