nep4 2 O H 
cutoff 6 4 251 80
n_max 9 7
basis_size 9 7
l_max 4 2 0
ANN 100 0
  3.0882651e-01
  9.6501482e-01
  1.2589535e-01
 -3.4334561e-01
  3.1769304e-03
  4.6291071e-01
 -2.8128371e-01
  4.7789809e-01
 -2.3369201e-01
 -2.3272951e+00
 -1.8825805e-01
 -1.7823167e-01
  1.2861583e-02
 -7.8973871e-01
 -6.7620111e-01
  1.3818055e-01
  1.0441196e-01
 -7.8730255e-01
  7.1053624e-02
 -1.6245829e-01
  3.2969147e-02
 -4.0781689e-01
 -1.8741342e-01
 -5.5405182e-01
  1.1857384e-01
 -1.1535573e+00
 -2.7030486e-01
 -2.8016084e-01
  2.0160380e-01
 -9.1928071e-01
 -2.4573961e-01
  1.8776810e-01
 -6.7619652e-02
  5.3207934e-01
  1.1387054e-01
  2.8268117e-02
 -6.9495231e-01
  7.0252409e+00
 -9.7029543e-01
  4.3253905e-01
  1.0000359e+00
  1.2661517e-01
  9.0956980e-01
 -1.7011988e-01
 -1.3901453e-01
  4.0972817e-01
 -3.5246012e-01
  6.7677386e-02
  3.9525217e-01
  2.0653096e-01
  1.3312125e-01
 -1.2482049e+00
  3.5904720e-01
  7.7365942e-02
 -7.8899659e-02
  1.9445020e-01
 -4.0802851e-01
  7.9715803e-02
 -5.3966719e-01
 -7.3307908e-01
  4.4844661e-02
  5.2093230e-02
  1.3309810e-01
 -9.4091885e-02
  2.6092392e-01
  8.1783747e-03
  4.3653291e-01
 -2.8913556e-02
  6.2113307e-02
  1.1737236e+00
 -1.3959557e-01
  1.2283036e+00
  2.0548581e-01
 -5.6952119e-02
  2.0835774e+00
  5.6252456e-01
  1.8570906e-01
 -4.7545233e-01
  7.1448946e-01
  2.0253150e-01
  9.1237199e-01
  1.1527082e-01
 -5.5994533e-02
  1.8697792e-01
 -3.0271965e-01
 -2.0086408e-01
 -5.0480954e-02
  1.6833401e+00
  4.1745462e-02
 -1.2939140e-01
  1.7725261e-01
 -1.5984339e-01
  1.2583898e-01
 -4.9315166e-02
  7.9535317e-01
 -3.8426712e-01
  3.4346029e-01
  5.2079406e-02
  7.6072633e-02
 -3.1105298e-01
 -8.8804060e-01
 -9.5401746e-01
  8.1561726e-01
 -8.0397502e-03
  1.4657565e+00
  1.1107098e+00
 -1.0172520e-01
  2.4617927e-01
 -1.1845466e-01
 -4.5267051e-01
 -1.5999739e-01
 -5.9931880e-01
  1.7942917e-01
 -8.9094603e-01
  5.7287514e-01
  2.1918049e-01
 -8.8511413e-01
  6.9073194e-01
  7.4037206e-01
  2.2239314e-01
 -2.9676983e-01
  6.7013359e-01
  3.6292368e-01
 -3.1165512e-02
  2.1155815e-01
  1.4629574e+00
  2.8967789e-01
 -9.8141778e-01
  5.5659342e-01
 -5.6802011e-01
  4.0444080e-02
  2.3156753e+00
  4.0075194e-02
  1.8431422e-01
  5.8041054e-01
 -1.5079682e-01
  1.1197411e-01
 -1.3190763e+00
  4.4393092e-01
 -7.0256954e-01
  7.5411958e-01
 -8.4030442e-03
 -9.5467043e-01
 -7.3526639e-01
  3.8531139e-02
  5.0843880e-02
 -3.3454967e-01
  3.8834578e-01
 -5.1696081e-02
 -3.0443019e-01
  2.7351245e-01
 -4.6467081e-01
 -2.7539218e-02
  1.3519302e-01
  2.3593841e+00
  3.5303688e-01
 -1.0843360e+00
 -2.2024593e-01
 -2.9623693e-01
  1.8912921e-02
 -2.8096125e-01
 -7.7158815e-01
  1.4967026e+00
  1.3538015e-01
  1.0501144e+00
  8.7980643e-02
 -4.8055610e-01
  2.0765297e-01
  9.6922621e-02
 -4.7075433e-01
  7.6570809e-03
  4.3864604e-02
  4.4574839e-01
  1.3514782e+00
  6.0327441e-01
 -5.6430960e-01
 -1.0547612e-01
 -4.2488053e-02
  5.8094996e-01
  5.5569645e-02
  1.8596730e-01
 -9.1707908e-02
  1.6086437e-01
  3.2205257e-01
  4.4231018e-01
 -7.0259917e-01
 -1.8285604e-01
 -1.7363547e+00
 -7.1302503e-01
 -2.0571521e-01
  4.4320025e-02
  3.9191568e-01
 -7.8119397e-02
 -8.9944756e-01
  4.2911284e-02
  2.6661071e-01
 -3.3602512e-01
  4.3420464e-02
  5.5063081e-01
 -1.4866453e-01
  4.9773552e-02
 -1.3138771e-01
  6.1615527e-01
  1.7074798e-01
 -7.6146185e-01
 -1.1640087e+00
  1.1947789e-01
  2.1032867e+00
 -6.6507536e-01
 -5.4003221e-01
 -1.5201610e+00
 -1.6665399e-01
  2.2123786e-02
  2.4895644e-01
 -2.0021959e-01
 -3.0242109e-01
  3.0779240e-01
  5.3154781e-02
  3.8016194e-01
  3.0063713e-01
 -9.1995895e-02
  5.7146952e-02
 -7.0778930e-01
 -2.7615443e-01
 -7.2915472e-02
 -1.3607065e-01
 -2.0115243e-01
 -9.5482260e-01
 -4.6952358e-01
  1.0637897e-01
  1.5533193e+00
 -5.4838198e-01
  9.0416014e-02
  9.4807856e-03
 -4.0844995e-01
 -9.1492355e-01
  4.2978862e-01
  9.9775261e-01
  4.3918064e-01
 -1.1551639e-01
  3.1708837e-01
  7.8076363e-02
 -2.9113710e-01
 -5.0200410e-02
  1.9903253e-01
  3.0269110e-01
 -8.1089830e-01
 -2.5372547e-01
 -1.1486370e-01
 -5.3901011e-01
 -1.7203066e-01
 -3.4547195e-01
  7.5018543e-01
  8.9684710e-02
  5.1018280e-01
  4.8594555e-01
 -5.0468389e-02
  6.8034202e-01
 -3.4415475e-01
 -5.2842838e-01
  4.5686850e-01
 -3.4103367e-01
  1.9068636e+00
  2.5201513e-02
 -4.6071506e-01
  2.5178400e-01
  7.6669091e-01
  1.0123276e-02
 -1.9949989e-01
  9.6078858e-02
  3.7380689e-01
 -2.3633334e-01
 -2.7459165e-01
 -3.6080360e-01
 -3.5323453e-01
 -7.5641268e-01
  8.0552280e-01
  3.2355529e-01
 -1.2092835e-01
 -1.6922028e-01
 -2.5121513e-01
 -3.0673292e-01
  4.4031617e-01
  8.7111765e-01
 -3.4239826e-01
  4.6956107e-01
  1.1077627e-01
  4.4821540e-01
  1.8443409e-01
  1.6586232e-01
 -4.7770105e-02
 -4.2927824e-02
 -6.1155792e-02
  1.9361103e-01
 -1.1588894e-03
  1.7185934e-01
  3.1613669e-01
 -4.2273849e-02
  8.0765575e-02
 -2.8911254e-01
  6.2654436e-02
 -4.7026059e-01
 -3.2894596e-01
 -2.1967416e-01
  3.8691685e-02
  3.1939617e-01
  1.5235132e-01
  2.1645918e-02
 -1.9148562e-02
 -1.2118922e-01
  3.1372520e-01
  1.1939111e-01
  2.3191133e-01
 -1.1758372e+00
  6.9168620e-02
 -1.1683189e+00
  1.7673399e-02
 -1.5531048e-01
  4.1300680e-02
  1.0809499e-01
  5.1880521e-01
  1.9319004e-01
  1.1041323e+00
  4.4947681e-01
 -4.2739344e-01
  1.3896990e-01
  2.1512616e-01
 -3.7664396e-01
  9.1418797e-01
  6.5348822e-01
  2.0250883e-02
 -5.8378923e-01
 -6.3041791e-02
  8.0221939e-01
  6.9270945e-01
 -1.2099227e-01
  1.9947419e-01
 -4.2702046e-01
  2.1223196e-01
 -2.6978896e+00
 -1.2915152e-01
  2.4019364e-01
 -4.7813407e-01
 -2.5261700e-01
  1.1836725e-01
  4.8918530e-01
 -2.6993878e-02
 -8.7184779e-02
 -2.2842716e-02
 -1.6673895e-02
 -1.5929055e+00
 -1.5757872e-01
  3.4156585e-01
 -3.3279458e-01
  6.2673712e-01
 -5.8941060e-01
  6.1810361e-03
 -5.2328432e-01
 -3.5365018e-01
 -3.9807297e-02
  1.8058957e-01
 -1.1447273e-01
  2.5532773e-01
 -4.8994783e-01
 -4.1236812e-01
  3.2099417e-01
 -1.2448031e-01
  1.9499050e-01
  9.1019416e-01
  4.0198871e-01
  1.9703421e-01
  2.8827199e-01
 -4.8405930e-02
 -1.3367184e-01
  1.0676895e+00
  3.6449784e-01
  2.8042322e-02
  1.4491083e-01
 -9.7520590e-02
 -2.2862184e-01
  9.4805795e-01
 -1.9303502e+00
 -9.6013367e-02
  2.9664806e-01
 -3.6015588e-01
 -2.1761222e-01
 -1.4537130e-01
  6.6410601e-03
 -4.2184004e-01
  1.0572296e-02
 -1.0195466e-01
  4.9427424e-02
 -1.4829847e-01
 -6.7900527e-01
  7.2553408e-01
  1.9407696e-01
  4.0010563e-01
  5.5975360e-01
  2.1955955e-01
 -9.4339587e-02
 -2.9844537e-01
  1.5730152e-01
 -2.2792709e-01
 -4.2221138e-01
 -2.2555858e-01
  1.9084626e-01
 -1.8975224e-01
  6.2537485e-01
 -3.8715467e-01
  7.0329827e-01
  1.2148689e-01
 -3.1171430e-02
  1.1826634e-01
  4.5892686e-01
 -9.7027346e-03
 -3.4036543e-02
  1.5966448e-01
  4.7874707e-01
  8.9810953e-02
 -7.6107562e-01
  4.8311844e-01
  1.1477445e+00
 -8.9957899e-01
 -2.0619021e-01
 -7.5340146e-01
 -1.2452563e+00
  2.4797820e-01
 -3.1315798e-01
  1.2122666e+00
  2.4575323e-02
 -7.2614051e-02
 -2.5183174e-01
 -8.4412888e-02
  1.0206563e+00
 -1.0503348e-01
 -6.2828571e-02
  1.3291670e-01
  1.0464419e+00
  1.7850570e-02
 -2.5488248e-01
  8.3214700e-01
 -1.2537265e-01
  3.9817013e-02
 -3.5537818e-01
  8.9884996e-03
  7.5672731e-02
 -1.2820062e-01
  1.0625042e-01
  3.6462036e-01
 -7.9548258e-01
  4.8963404e-01
  1.5768340e-01
  9.0007985e-01
 -1.9504238e-02
  1.0163365e-01
  2.3374993e-02
  3.6083853e-01
 -3.4314886e-02
  3.0321336e-01
  3.6968699e-01
  4.0667260e-01
 -1.6645589e-01
  6.0246271e-01
  6.3327454e-02
  4.7226223e-01
  5.7166922e-01
 -2.6586485e-01
 -7.2273993e-01
  1.2588257e-01
  3.7525257e-01
  1.4757910e-01
  5.4730618e-01
  4.7168145e-01
 -6.2007479e-02
  2.8420985e-04
 -1.0968851e+00
 -7.1015574e-02
  1.9906515e-01
 -1.1203609e+00
 -3.8283610e-01
 -8.0741771e-02
 -7.5227827e-02
  2.7136159e-01
  2.0522621e-01
 -1.1036578e-01
  1.1587818e-01
  2.4784547e-01
 -4.6696857e-02
  8.9135528e-02
  7.3528238e-02
 -3.4735510e-01
 -1.1771659e+00
 -7.4099094e-02
  3.5668078e-01
  5.3950638e-01
  7.9906946e-01
 -3.8518809e-02
  2.9974574e-01
  9.2649288e-02
  6.7960061e-02
 -3.7050329e-02
 -1.3380431e-01
 -4.6205017e-01
 -1.8549831e-01
 -2.3919371e-01
 -5.9205687e-01
  6.8679678e-01
 -1.1552922e-01
 -3.1391196e-02
 -4.1568741e-01
  4.0959236e-01
  6.7178495e-02
  1.2595703e-01
 -1.1475699e-01
 -5.0209445e-01
 -3.2002404e-01
 -5.8145151e-02
  4.6819288e-01
 -9.7180255e-02
 -2.4513319e-01
 -2.4834256e-01
  1.7627256e-01
  8.9256769e-01
  1.1461446e-01
 -4.9992613e-02
  2.8929663e-01
 -2.4527904e-01
  1.8609782e+00
  4.0860385e-01
  2.5909090e-01
 -3.1642827e-01
 -1.3638031e-02
 -5.9982114e-02
  1.0304929e+00
 -3.8188014e-02
  2.6247117e-01
  4.2958248e-01
 -1.2290442e-02
  1.6165116e-01
  4.7791405e-03
 -1.0099952e-01
 -1.1509156e-01
  9.6397378e-02
 -4.1912597e-01
  4.5817900e-01
  4.8644673e-03
  5.6284237e-01
 -8.7575269e-01
  4.2601553e-01
  2.5614780e-01
  4.5959893e-01
  1.7285888e-01
 -1.1959501e-01
 -3.8014810e+00
  5.0019832e+00
  1.7057376e+00
 -4.2955050e+00
 -2.2831519e+00
 -9.4428241e-02
  2.3502223e+00
  1.5639241e+00
  6.4587764e-02
 -3.8309937e+00
  2.1896451e+00
  2.4689397e-02
  1.0529509e+00
 -1.9725196e-01
 -1.6252815e+00
  5.6752067e-02
 -9.5539802e-01
 -1.1983669e+00
 -6.2093109e-01
  1.7019720e-01
  3.9635500e-01
 -2.3891263e-02
 -8.1360984e-01
  1.6298737e-01
 -1.4019080e+00
 -3.0519381e+00
  3.0786843e+00
 -7.4486524e-01
 -1.6867632e+00
 -3.4809363e-01
 -1.7496324e+00
 -6.2143919e-03
 -8.7928557e-01
 -1.0647430e+00
 -3.1133838e+00
 -1.0813720e+00
 -1.4767562e+00
  2.5997296e-01
 -2.2355737e-01
  5.3608060e-01
  8.3780068e-01
  3.4885693e-01
  3.6957952e-01
 -1.5191022e-01
 -1.0259679e-01
  1.3784504e-01
  5.0847270e-02
 -1.5857545e+00
 -3.1267312e-01
 -1.7775652e-01
 -8.7367171e-01
 -7.8497964e-01
 -8.0023485e-01
  4.3428245e-01
  1.1267579e-01
  4.5399866e-01
 -1.9176686e-01
  2.9487655e-01
  3.3396009e-02
  3.2791665e-01
 -1.5794036e+00
  6.2646234e-01
 -2.1475405e-01
  1.3754451e-01
 -2.3905677e-01
 -9.7060245e-01
 -9.6827611e-02
 -3.9224017e-02
  1.4450090e-01
 -7.3487169e-01
 -1.2243845e-01
 -2.1452287e-01
 -3.4794697e-01
  4.2701879e-01
  1.6692278e+00
  1.7738488e-01
 -3.1005913e-02
 -4.4103616e-01
 -1.6958258e-01
 -1.4010437e-01
 -4.6518853e-01
 -1.8122621e+00
 -2.4167167e-02
  2.0282926e-01
 -1.8499273e-01
 -5.1027542e-01
 -1.5922770e-02
  2.2390065e-01
  1.4084144e-01
  2.8104678e-01
  8.5677437e-02
  2.5808826e-01
 -8.7226772e-01
 -5.6651038e-01
 -8.9539252e-02
 -5.4254733e-02
  1.7702764e-01
  9.7038829e-01
  7.5811011e-01
 -1.5053639e+00
 -4.0047660e+00
  1.9749672e+00
  2.7046287e+00
  1.0377772e+00
  1.1815678e+00
  9.8142326e-01
  3.1294471e-01
  5.3084772e-02
 -1.6192567e+00
  1.8398061e-01
  2.3034947e-02
  6.5758991e-01
  1.0308790e+00
  2.8448213e-02
 -4.9859306e-01
  3.3446008e-01
  8.1117523e-01
  4.2144731e-01
  1.9553556e+00
  4.4383442e-01
  4.3155199e-01
  4.9346903e-01
  3.4504250e-01
  7.8374255e-01
  2.8469524e-01
  4.8605198e-01
  2.3442420e-01
  3.1257517e+00
 -1.4973133e+00
 -2.8025573e-01
 -1.0043086e+00
  1.2913588e+00
 -1.6284834e+00
 -4.3679002e-01
 -9.0355128e-01
 -1.8340144e+00
 -1.9344392e-01
 -1.8686646e-01
  1.0928400e-02
 -5.5889142e-01
  2.8090486e-01
 -7.6880759e-01
  9.8701072e-01
  7.6176459e-01
 -8.2569563e-01
 -8.1383705e-01
 -1.0230651e-01
 -4.5872650e-01
  4.7120997e-01
 -2.1228829e-01
 -2.3697658e-02
  7.6338553e-01
  7.3215164e-02
 -3.4026425e-02
  2.0771912e-01
  2.3549464e+00
  1.9925645e-01
  9.2761695e-01
 -6.1517239e-01
  1.1890445e+00
 -7.0602572e-01
 -5.7075813e-02
  2.7180767e-01
 -1.5417650e-01
 -2.6783770e-01
 -1.4826634e+00
  3.2575554e-01
 -3.7507075e-01
 -2.7892148e-01
 -7.7688575e-02
 -3.2155511e-01
 -3.3630604e-01
 -2.3641053e-01
  6.9098794e-01
  7.9913907e-02
 -3.0293070e-02
 -1.4831136e-01
  2.6494484e-02
 -1.1262683e-01
 -1.3872030e+00
 -1.6394203e+00
  5.0027901e-01
 -1.8200092e-01
 -8.0777898e-02
  9.4170821e-01
  1.7109476e-01
  3.9805960e-02
 -6.2772208e-01
  2.6295640e-02
 -4.7502086e-01
 -4.3155346e-03
  3.1094608e-01
 -1.8900381e+00
  3.8677692e-01
  1.4040086e-01
 -2.5782803e-01
  1.0742500e-01
 -1.2134762e-01
 -1.2819320e-01
 -7.5769341e-03
  1.7324930e-01
  9.3341835e-02
  7.5870536e-02
  3.7922591e-02
  2.5619245e-01
  1.5108792e+00
  1.0299958e-02
 -1.5543027e-01
  7.5822490e-01
 -1.5360290e-01
  1.0878997e-01
 -4.3359131e-01
 -1.0335829e+00
 -2.2668454e-01
 -4.6267039e-01
 -1.0145048e-01
  2.1318972e-02
  1.7068791e-01
 -5.3509701e-02
 -5.2859886e-03
  2.7780795e-01
 -4.6655551e-01
 -1.9562417e+00
  2.6792032e-01
 -1.0699176e-01
  3.0935478e-01
  2.2720374e-01
 -2.2790433e-01
  7.3319131e-01
 -5.1008272e-01
  7.4175131e-01
  2.4229638e-01
  4.5673206e-01
 -1.0347198e-01
 -5.2250512e-02
  4.7330236e-01
  2.0465831e-01
 -6.5760028e-01
  2.2785503e-01
 -1.2561342e-01
  2.0244095e+00
 -8.4071308e-02
  1.7682900e-01
  6.9539863e-01
 -7.9131022e-02
  2.2674772e-01
  5.9967969e-02
  1.2109878e+00
  3.9004788e-01
  1.6011430e+00
  1.3379362e-01
  3.5285018e-02
  3.0164704e-01
  8.6847320e-03
 -1.0864021e-01
 -5.3407812e-01
  4.6656764e-01
 -4.0395133e-02
 -4.2821136e-01
 -1.2818788e-01
  1.9608849e-01
  6.2921628e-02
  3.5517961e-01
 -1.6667572e-01
  3.9291584e-01
 -1.4324701e-01
  1.6590899e-01
 -7.4244373e-02
  6.0816592e-01
 -4.9781817e-01
  6.9067615e-01
 -4.2622301e-01
 -2.0090018e-01
 -1.4350480e-01
  5.6188637e-01
  2.2113366e-01
 -1.3449629e-01
  1.5422195e-02
  1.3782752e-01
 -7.4113482e-01
  1.1182724e-01
 -5.5083036e-01
  7.7136479e-02
  9.7671413e-01
 -3.8932672e-01
  1.5496997e-02
 -1.5003233e-01
 -6.5860644e-02
 -1.2863645e-02
 -4.0968078e-01
 -2.2346681e-01
  7.6986834e-02
  3.3500519e-01
 -1.4079168e-01
 -6.3060606e-01
 -3.2743841e-01
 -6.0055584e-01
  4.1977909e-01
  7.1219462e-01
  9.3601727e-01
  3.7649054e-02
 -5.8541185e-01
 -5.3514898e-01
  7.0115137e-01
 -3.3004093e-01
 -2.0420375e+00
 -5.0837666e-01
 -1.3825058e-02
 -2.8766373e-01
  9.5440373e-02
  1.0540146e-01
 -6.4062327e-01
  1.5630774e-01
  1.8138473e-01
 -1.7374890e-01
 -3.3716701e-02
 -2.5857851e-01
 -2.3760048e-01
  9.5968857e-02
  7.3467392e-01
  2.0426510e-02
  2.5717318e-01
  2.6722471e-03
 -4.2106277e-01
 -8.4126216e-01
  5.7166594e-01
 -3.0598983e-01
  1.7275129e-01
  3.1632526e+00
 -4.6357539e-01
 -5.5229682e-01
  2.2818424e-01
  1.7155737e-02
 -2.8134641e-01
 -1.7765588e-01
  2.2301377e-01
 -7.2001678e-01
  5.7588130e-01
 -5.1392031e-01
  2.3096558e-01
  3.8721517e-02
 -1.1266175e-01
 -3.7619621e-02
 -5.9758472e-01
 -5.6780475e-01
  8.3446160e-02
  7.2557852e-03
  1.7507926e+00
  4.5378780e+00
  4.6477504e+00
  8.7427366e-01
  1.5924703e-02
  1.8667896e-01
  3.2658732e-01
  6.3404270e-02
  1.6492076e+00
  2.6777749e+00
 -9.2038637e-01
  4.5263644e-02
 -5.0488985e-01
  6.1625469e-01
 -1.9390995e-02
  4.8504686e-01
  1.7803045e-01
 -1.8477277e-01
 -8.9247301e-03
 -2.8140000e-01
 -7.8576583e-01
 -2.3806756e+00
 -4.9107796e-01
 -2.4894080e-03
 -5.6219226e-01
  1.7252074e-01
 -7.7763915e-01
 -1.0122756e+00
 -1.3583799e-01
  2.1013519e-01
 -2.9359153e-03
 -5.3951651e-01
 -4.7760016e-01
 -1.3973587e+00
 -5.0054693e-01
 -5.3003460e-01
 -3.0546728e-01
  2.7842170e-01
 -5.1090586e-01
 -7.3551580e-02
 -7.5524694e-01
  2.0178309e-01
  1.0859221e-01
 -2.8081241e-01
  6.2540278e-02
  4.8917356e-01
 -3.3189777e-01
 -6.5211937e-02
 -1.8466812e-01
  5.4284066e-01
  9.4272211e-02
  8.1109440e-01
  8.1566823e-01
 -7.8644887e-02
  1.3798430e+00
 -9.0215403e-01
  3.4922779e-01
  3.0052847e-01
 -2.4894677e-02
  7.9268798e-02
  8.5234225e-02
 -2.6836669e-01
  1.2168795e+00
  8.2786739e-02
  1.4453150e-02
  2.2148776e-01
  6.0788941e-01
  8.0417052e-02
 -6.1810935e-01
 -1.5766582e+00
 -1.5624045e-01
 -5.2674669e-01
 -4.3359011e-01
  5.3112143e-01
 -1.8786463e-01
 -6.8788379e-02
  2.5099236e-01
 -3.4762457e-01
  1.5608588e-01
  5.7402962e-01
  3.2001501e-01
 -8.0027050e-01
 -5.5970728e-01
 -5.4872662e-01
  8.9160246e-01
 -1.1652099e-02
  6.6256380e-01
  2.0650177e-01
  4.0950981e-01
  1.8035953e-01
 -6.7247194e-01
 -1.9682224e-01
 -4.0159985e-01
  1.2913266e-01
  9.8370478e-02
 -3.1000373e-01
  3.1064242e-02
 -3.4641427e-01
 -8.6061978e-01
  1.7302394e-02
  2.5197828e-01
  2.0194678e-01
  2.1565777e-01
  3.2599819e-01
  4.2419777e+00
 -2.0189808e-01
  2.9714596e-01
  1.3111252e+00
 -9.9982750e-01
  3.0411997e-01
 -1.4380087e-01
 -4.7862011e-01
 -2.7627575e+00
  3.2532918e-01
  2.3769501e-01
  1.6847444e-01
  2.8548706e-01
 -5.7714266e-01
  8.8116050e-02
 -4.5336768e-02
  6.7859612e-02
 -1.2211217e+00
  9.4991004e-01
 -1.7764200e-01
  2.7430207e-01
  2.3548946e-01
 -4.7697949e-01
 -6.3435650e-01
 -1.8669423e-01
 -6.6497231e-01
 -3.8530445e-01
  1.3991488e+00
  1.1245396e-02
 -9.1905558e-01
 -7.6017237e-01
  3.3306733e-01
 -2.3339592e-01
  4.4862318e-01
 -1.6310826e-01
 -2.8607160e-02
 -3.2723641e-01
 -1.2205559e-01
 -1.0289608e-01
 -3.3260408e-01
 -8.3217733e-02
  4.1192168e-01
 -3.6511311e-01
  3.4657848e-01
  1.6962650e-01
  5.1431882e-01
  5.6598438e-03
  4.0142223e-01
 -1.0035731e+00
  7.3997384e-01
 -2.7990064e-01
  2.8352761e-01
 -1.4523820e+00
  8.9546132e-01
 -5.5712756e-02
 -3.6020437e-01
 -4.5790756e-01
  2.3711081e-01
 -1.1039353e-02
  1.8212220e-02
 -5.2333452e-02
  4.6204048e-01
  6.3512510e-01
 -5.4739738e-01
 -1.7173511e-01
  2.4965344e-01
 -6.1740144e-03
 -1.8635489e-01
 -1.1631452e-01
  7.0096731e-02
 -3.4514863e+00
 -2.3199590e-01
  8.7219857e-02
  1.9187871e-01
 -6.1106479e-01
  1.5802389e-01
  1.1351516e+00
  7.5869173e-02
  5.5025935e-01
 -2.5605604e-02
 -1.3898673e+00
 -1.5251803e-01
  5.1907915e-01
 -1.0989399e-01
  6.7539221e-01
 -6.6981769e-01
 -6.5746582e-01
 -2.7643228e-01
  2.1937916e-01
  4.0816669e+00
  1.2538177e+00
 -1.6592312e-01
  1.6598817e-02
 -4.8545164e-01
  5.3340179e-01
  3.4943974e-01
  4.8845473e-01
  3.2137537e-01
 -2.4798925e-01
 -5.9372580e-01
 -1.9890846e-01
 -1.3413218e-01
 -2.3023072e-01
 -6.8246907e-01
  2.7329671e-01
 -2.4629267e-01
  9.9091232e-02
 -1.9465336e-01
 -8.8134676e-02
 -6.2200107e-02
 -6.5097457e-01
  4.7481287e-01
  3.8311797e-01
 -2.3930942e-01
  1.3444309e-01
 -1.1947722e+00
  2.0674552e-01
 -1.5015113e-03
 -6.9587433e-01
  6.2422282e-01
  1.4255600e-02
 -3.9515412e-01
 -7.9976037e-02
 -5.6260633e-01
 -9.4516613e-02
  2.5421228e-02
  9.4670579e-02
 -5.2355021e-02
  2.5876196e-02
 -7.1633004e-02
  1.7393292e-01
 -1.1031774e-01
  2.7629766e-01
  4.1452777e-01
 -2.1696608e-01
  2.4949872e-01
  8.4949844e-03
 -1.1439879e+00
  1.2909096e-01
  1.1181537e+00
 -2.5494611e-01
  5.6248951e-01
 -1.9742489e-01
 -2.1864510e-01
 -3.6682124e+00
  4.4439444e-01
  3.4176165e-01
  1.1757535e-01
  2.0571168e-01
 -8.7098628e-02
 -4.7734502e-01
 -7.8120291e-01
 -1.8157084e-01
  1.2172528e-01
  1.8841301e-01
 -1.5848027e-01
  2.2151269e-01
  1.3636698e-01
 -3.4812254e-01
 -1.2407687e-01
  5.7318187e-01
 -1.1702024e+00
 -1.1426485e-01
 -8.1214350e-01
 -1.7846987e-01
 -2.3372850e-01
 -4.8519179e-01
  3.2779869e-01
  3.0872649e-02
 -1.6399881e-01
 -1.3085473e-01
 -4.3872494e-01
 -9.0130013e-01
 -5.1057696e-01
  9.7571164e-01
  1.2586758e-01
  1.3766263e-01
 -1.0831423e-02
 -3.0885866e-01
 -4.7322103e-01
 -1.2657006e-01
 -6.5806806e-02
 -2.6589227e-01
  7.1112585e-01
 -1.0017862e-01
 -1.5194404e+00
  6.2371832e-01
 -2.6144326e-01
  6.1968178e-01
  1.7904614e+00
  1.7294721e-01
  6.6832846e-01
 -4.3550033e-02
 -6.3375466e-02
  1.1148076e-01
  1.4891337e-01
 -6.6506958e-01
 -5.8675009e-01
 -7.5549029e-02
 -1.3061465e+00
  6.2750387e-01
 -8.1170731e+00
  4.0767571e-01
  4.2510886e-02
 -4.3775883e-01
 -7.9715508e-01
  6.3193667e-01
  7.6628886e-02
  6.0947716e-01
 -5.7614524e-02
 -1.7830294e-01
  1.0631267e-01
  3.0339783e-01
 -7.0335433e-02
 -1.4387619e+00
 -1.6354203e-01
  1.0449593e+00
 -4.0432793e-01
  1.5089324e-01
  2.0113429e-01
  3.3323249e-01
 -3.0156848e-01
  3.0020931e-01
 -1.1265391e-01
  1.7286634e-01
  1.0740473e+00
 -1.6877928e-01
 -9.5869757e-02
 -1.6022402e-01
 -2.5113735e-01
  3.3298272e-01
  1.2435312e-01
  5.2756137e-01
  4.1853708e-01
  2.4575926e-02
  1.8380621e-01
 -2.2364417e-01
 -1.5993664e-01
 -1.8363944e-01
  7.9687424e-02
 -3.4681328e-02
  1.1946964e-01
  3.4174874e-01
  3.1891897e-01
 -1.4700373e-01
  4.1738871e-01
 -1.1682805e+00
  3.8792360e-01
  3.9672694e-01
 -2.6744983e-01
  1.4232503e-01
 -1.3919585e+00
  1.0858388e+00
  2.0818743e-01
 -4.3772098e-01
 -1.5155324e-01
 -2.3015115e-01
 -1.5099630e-02
  1.0714784e-01
 -5.5595821e-01
 -1.0935409e-01
  1.0363021e+00
 -5.8745831e-02
 -4.2296055e-01
  3.1230915e-01
  1.8159087e-01
  3.6605996e-01
 -4.2067251e-01
 -1.2048465e-01
 -9.7205251e-02
 -1.3439082e-01
 -3.4792686e-01
  7.1441102e-01
 -7.6750942e-02
  4.2575169e-01
  2.6204517e+00
 -1.5014452e-01
  5.5571824e-01
  3.2179531e-01
  7.9510510e-01
  1.0919879e-01
  3.5524458e-01
  4.2374966e-01
 -1.0192762e-01
  1.9203015e-01
 -1.4831001e-01
  2.3746908e-01
  2.0476227e-01
 -1.2467074e-01
 -8.1390709e-01
  1.2568992e-01
 -2.1423753e-01
 -3.0249229e-01
 -5.1324302e-01
  1.0902147e-01
 -3.9000559e-01
 -5.1317167e-01
  4.0834931e-01
  2.4588318e-01
 -6.2564278e-01
 -1.8146697e-01
  1.1402582e-01
 -2.4622180e-01
 -2.7834162e-01
  4.4154161e-01
 -1.8948750e-01
  3.0256566e-01
  4.7767666e-01
  1.8753202e-01
 -1.6214631e+00
  1.1010949e-01
 -1.3441312e-01
 -3.5521336e-02
 -2.4731076e-01
 -3.1048957e-01
 -1.1824484e+00
 -9.1064982e-02
  1.5665016e-01
  5.9009302e-02
 -8.3895907e-02
 -2.6996860e-01
  2.5893527e-01
  2.1496658e-01
  1.1250854e+00
 -5.7631326e-01
 -6.7797458e-01
 -1.9999883e-01
  2.7312368e-01
  9.8821029e-02
  4.8888013e-02
  2.7224660e-01
  1.0853687e-01
 -1.7847839e-01
 -5.6283170e-01
 -9.4354868e-01
 -1.3682405e-02
 -6.9776461e-02
  4.0699360e-01
 -1.3486260e-02
 -5.1178360e-01
  1.1850016e-01
  8.7927580e-01
  3.1701541e-01
  7.2162503e-01
 -1.0348698e+00
 -8.1535786e-02
  2.9622834e+00
  1.3663121e+00
 -3.6188558e-02
  2.6756224e-01
  7.0036724e-02
  8.5780716e-01
  3.6430223e+00
  4.1263294e+00
 -5.7189351e-01
  4.8491153e-01
  2.5300542e-01
 -1.5145721e-01
  2.1991737e+00
 -2.6349580e-01
  1.1844167e+00
  9.6506572e-01
 -4.3991193e-01
 -1.3566989e+00
  1.7326441e-01
  1.4352505e+00
  3.2286164e-01
 -2.1743596e+00
 -3.7252369e+00
  9.6340120e-01
  2.1240186e-02
  3.6698889e-02
  1.6168185e+00
  7.9152063e-02
  2.4424367e+00
  2.1992447e+00
  4.3234241e-01
 -6.3654214e-01
 -6.9325209e-02
 -7.2798866e-01
 -5.2444544e-02
 -2.5269297e-01
  1.2873690e-01
  3.7141912e+00
  2.2023880e+00
 -5.8654383e-02
  1.6226836e-02
  9.6856065e-02
 -3.1021091e-01
 -1.8182912e-01
  5.6631929e-01
 -8.1788547e-02
 -4.1448092e-01
 -3.2518244e-01
 -4.1553043e-03
  3.3136705e-01
  2.5870087e-02
 -1.2222590e-01
 -4.4805452e-01
  2.2064807e-01
 -5.2894121e-01
 -3.0141202e-01
  7.3475009e-01
  8.1581092e-01
 -8.6619365e-01
 -1.3104815e+00
  1.5649350e+00
  5.2708930e-01
 -8.0495131e-01
  2.8294617e-01
 -8.9171469e-02
 -9.0412699e-02
 -8.4475562e-02
 -6.1221112e-02
 -3.0505601e-01
 -2.4276903e-01
 -2.9285267e-02
  6.6992581e-01
  5.0574267e-01
  6.7458546e-01
 -6.2350106e-01
  6.3009577e+00
 -4.0306646e-01
  1.1067042e-01
  9.1308482e-02
 -9.5340312e-03
  1.6876596e-01
  3.3350933e-02
  1.5963134e-01
  1.5847157e-01
  2.3252431e-01
 -5.2333540e-01
 -1.2313004e-01
  2.2749600e-01
 -3.7427723e-01
  5.6356031e-01
 -4.9920848e-01
 -9.1805659e-02
 -2.5458986e-01
 -1.4964725e-01
 -1.9078405e+00
 -2.4223384e-01
  1.0172282e-01
  6.7775123e-02
 -5.4562867e-01
  4.6990801e-02
 -1.6476294e-02
 -7.6712739e-01
  1.7216500e+00
 -3.3016512e-01
  1.9793986e-01
  3.0025771e-01
  1.4083153e-01
  1.8661177e-02
  4.2698890e-01
 -1.6334958e-01
 -4.6443362e+00
  1.4962792e-01
  4.7337663e-01
 -2.2318113e-01
  7.6020330e-02
  1.0290196e+00
  1.0253489e+00
 -1.1147301e+00
 -1.7658865e-01
 -1.9319572e-01
 -5.2603591e-02
  1.7422006e-01
 -1.0701366e-02
 -5.7180606e-02
  4.8874959e-01
 -2.2963674e-01
 -2.6759309e-01
 -1.4066337e-01
 -1.5880843e-01
 -3.2809280e-02
 -5.6763870e-01
  4.1804418e-02
 -4.3280470e-01
 -1.9440804e-01
 -2.7130091e-01
  3.8292253e-01
 -1.3218556e-01
 -5.4974426e-02
  2.0032571e-01
 -4.7405380e-01
  1.2090893e-02
  1.8831113e-01
 -6.7604154e-01
 -4.9898528e-02
 -1.3152209e-01
  2.7786806e-01
 -4.0187860e-01
  1.6216907e-01
 -9.3050957e-01
 -3.0720028e-01
  1.8703067e-01
 -2.6268399e-01
  2.9278818e-01
 -3.2227185e-01
 -2.3074840e-01
 -3.3202186e-01
  2.9624312e+00
  8.4496580e-02
 -8.0433595e-01
  2.6817471e-01
 -7.2531193e-01
  8.5190469e-01
 -3.1994796e-01
 -1.5228865e-01
  4.0906590e-01
 -2.2658767e-01
 -8.7297307e-03
 -2.2690910e-01
 -6.2244391e-01
  2.6429015e-01
  7.6690465e-02
  6.4175449e-02
  1.0248119e-01
 -2.7085230e-01
 -1.2659158e-01
  1.2625140e-01
  1.0154394e-01
 -4.3668416e-01
  1.4744708e-01
  7.8454815e-02
 -1.8544269e-01
  4.6906907e-02
 -8.5209215e-01
  2.6791680e-01
  2.8120390e-01
  1.5667753e+00
  5.8800441e-01
 -1.2138097e+00
  1.1175887e-02
  1.2388705e-01
 -6.5039796e-01
 -2.4389178e-01
 -4.8805904e-01
  3.6408517e-01
  3.0270678e-01
 -1.2778798e-01
  3.6463481e-01
 -3.1060457e-01
  1.4039424e-01
 -2.6022574e-01
 -6.1450368e-01
  1.9243276e-01
 -5.4866332e-01
 -1.3160075e+00
 -4.1018912e-01
  1.6502431e-01
 -4.6889099e-01
 -5.5249728e-02
  2.8755251e-01
  7.7702177e-01
 -1.9114012e-01
  1.1252309e-01
 -9.3736935e-01
 -2.2691311e-01
  1.1028075e-01
 -1.0314294e+00
  3.1963384e-01
 -2.4501005e-01
 -5.5087227e-01
  1.1341701e-01
  7.4517675e-02
  2.4437930e-01
  9.2543423e-02
  2.7982590e-01
  2.1686560e-01
  1.7151405e-01
 -9.3343252e-01
 -1.8110925e-01
 -1.4003117e-01
 -3.7549060e-02
  4.9716085e-02
  8.5885984e-01
  8.7981530e-02
 -4.6910578e-01
 -1.6346134e+00
 -6.0970980e-01
 -2.3183173e-01
 -7.4559897e-02
  3.2875273e-01
  7.5904942e-01
 -7.7681875e-01
 -4.0339556e-02
  1.9945937e-01
  3.8877401e-01
  3.6874023e-01
  4.7791666e-01
 -1.4969134e-01
  3.1395042e-01
 -9.2526597e-01
  1.4562519e-01
 -1.0072954e+00
  6.5888804e-01
 -3.3604747e-01
  5.0311941e-01
  1.9690577e-02
 -3.0536260e-02
 -1.8091165e-02
  1.1996884e-01
  1.1489557e+00
  6.1541653e-01
 -1.1735492e+00
  2.0289461e-01
  4.0916763e-03
  3.9308643e-01
  2.5470075e-01
 -1.6766556e-01
  2.5619337e-01
 -1.9100255e+00
 -1.4804301e-01
  1.3029584e-01
 -9.6865073e-03
  4.1721743e-01
  1.4877528e-02
 -4.8698395e-02
  2.7833862e-02
  4.5945773e-01
  6.6346014e-01
  3.0462006e-01
 -2.3500943e-01
  1.2884715e-01
  1.1497363e-02
  2.2069912e-02
 -1.8650553e-01
  3.8199487e-01
  3.2721171e-01
  1.3511661e-01
  3.1090513e-01
  1.0831483e-01
 -4.3853484e-02
  2.1069455e-01
 -1.1262740e-01
  3.1990281e-01
 -6.8411928e-01
 -4.6213716e-01
  1.3470631e+00
 -3.0708277e-01
 -4.1864106e-01
 -2.3346430e-01
  2.2554193e-01
  2.0748626e-01
 -6.4427185e-01
 -1.1802378e+00
 -6.6996759e-01
  1.6878618e+00
 -7.2381943e-01
  9.3038633e-02
  2.9235363e+00
 -2.3208249e+00
  2.1870122e+00
  2.9770041e+00
  1.4294040e-01
 -2.1473990e-01
  3.1917247e-01
 -2.4969995e-01
  2.8327061e-03
  6.3124233e-01
  9.9374086e-01
 -1.0914437e-01
 -3.1008416e-01
 -2.1289775e+00
  1.2103381e+00
 -1.1000626e+00
  1.3281076e-01
  3.2753710e-02
  9.4949171e-02
 -1.1387713e-01
 -1.4421999e-01
  3.5930949e-01
  1.1348872e+00
  1.8357600e+00
 -3.5536161e-01
  1.4489243e+00
  1.3136858e-01
  6.8715024e-01
 -4.0857521e-01
 -3.6134593e-02
  1.5992477e+00
 -1.0533184e+00
  2.2779825e-01
 -1.7768369e+00
  2.9362872e-01
  4.0598400e-02
  7.8702176e-01
 -1.9049063e-02
 -1.0977194e+00
 -2.1534628e-01
 -1.6038382e-01
 -3.5553390e-01
  6.5750271e-01
 -1.1367380e-01
  8.4388578e-01
  5.0460535e-01
  3.6375132e-01
  1.8335130e+00
 -1.1032927e+00
  9.8457909e-01
  9.5986652e-01
  6.1309940e-01
  3.0782098e-01
 -1.5717565e-01
 -3.0465800e-01
  1.6153520e-01
 -1.5794337e-01
  2.0560343e+00
  8.7262385e-02
 -1.6179529e+00
  3.8750774e-01
  2.2322251e-01
  8.2508671e-01
  1.4090881e-01
 -3.2285103e-01
 -2.5596392e-01
  5.8065642e-02
 -9.5740288e-02
 -2.0372877e-01
 -7.8309059e-01
 -3.0734009e-01
 -2.5664124e-01
 -5.8189355e-02
 -2.0357397e+00
 -1.0622805e-01
  9.8540610e-01
 -3.7592601e-02
  1.7051318e+00
 -2.6650780e-01
  3.7156972e-01
 -1.9825488e+00
  7.2065175e-02
 -8.7777442e-01
  1.7779183e-01
 -6.4020827e-02
 -5.4717594e-01
 -3.5858056e-01
  1.1514993e+00
  4.0931785e-01
 -3.2420404e-02
 -5.5719383e-02
 -2.2059318e-01
  2.1990289e-01
  9.2124842e-02
 -4.5823887e-02
  8.7895292e-01
 -5.1919788e-01
  3.5936746e-01
 -7.0042461e-01
  8.3912653e-01
  1.9145092e-01
  6.5557033e-01
 -1.3528554e-01
  4.7166392e-02
  1.4386839e-01
 -4.6006444e-01
 -1.1070206e-01
 -2.1502448e-02
 -2.9461595e-01
 -2.1914901e-01
 -6.3906163e-01
 -3.8372511e-01
  1.2021637e-01
  6.8645567e-01
 -3.6014218e-02
  2.5991154e-01
  3.3715114e-01
 -4.6542335e-01
  1.1494304e+00
  3.5529396e-01
 -1.7891426e-01
  1.1470701e+00
 -1.1709189e-01
 -4.7732434e-01
  2.4875891e-01
 -1.6258609e-01
  2.9235438e-01
  1.4168968e+00
  6.1354987e-02
  8.3711916e-01
  1.0530484e+00
  2.9928836e-01
  2.5341329e-01
 -2.2951794e-01
 -3.5677379e-01
  1.3914317e-01
  2.0492463e+00
 -3.1959921e-01
 -3.8356841e-01
 -2.5651690e-01
 -6.0294622e-01
  3.3939406e-01
  5.5929106e-01
 -5.5283237e-01
  1.5392837e-01
  7.0125788e-01
  6.1065428e-02
 -1.2143545e-01
  4.0501800e-01
  2.3153163e-01
 -3.6805785e-01
 -6.3576631e-02
 -1.5208826e+00
 -2.6969263e-01
  4.5613050e-01
  2.6059511e-01
  9.1692023e-02
 -2.3376885e-01
 -9.2053014e-01
  9.2564464e-02
  2.3038682e-01
 -1.2591687e-01
  7.4829954e-01
 -9.0933836e-01
 -4.4764552e-01
 -4.3161279e-01
  3.6693937e-01
 -1.2959852e-02
  1.1231810e-01
  7.1042186e-01
  1.2705797e-01
 -1.6398235e-01
 -6.2778562e-01
  7.7601984e-02
 -1.3113561e-01
 -3.7394378e-02
 -9.6334681e-02
  1.0323856e-01
  3.4252360e-01
 -2.5614148e-01
 -4.8089262e-02
  4.1033196e-01
 -6.4869426e-02
 -6.0985339e-01
 -6.7757833e-01
 -1.0556571e+00
  3.3315122e-03
 -4.5745224e-02
  1.9047016e+00
 -3.1150037e-01
  2.1877918e-01
 -1.0100182e+00
  4.6486762e-01
  3.5939330e-01
  2.1510625e-01
  5.6180530e+00
  8.0679342e-02
 -4.2641175e-01
  7.9905801e+00
 -1.0373118e+00
 -5.9806138e-01
 -6.2568951e-01
 -2.5904851e+00
 -1.1085473e+00
  2.5262347e-01
 -1.3564947e-01
  7.8807496e-02
  1.9420905e-01
  2.1832828e-01
  8.8771246e-02
 -7.1715295e-01
 -3.8354275e-01
 -1.7334335e-01
 -1.7961472e-01
  1.5825361e-01
 -3.0450431e-01
 -1.5239174e-02
  4.1465262e-01
  1.1395636e-01
 -7.6462150e-02
  3.0555424e-01
  1.5062916e-01
  3.2560840e-01
 -8.1237584e-02
 -6.8536896e-01
 -1.2213099e-01
 -9.0118982e-03
  5.9275977e-02
 -1.3706309e-01
  5.2357751e-01
 -4.2100556e-02
  5.6008142e-01
  2.1253029e-01
 -7.7149183e-02
  5.6408387e-01
  9.3609765e-02
  3.2648790e-01
 -5.5831213e-02
 -1.7468818e-01
 -5.4339594e-01
 -5.6446970e-01
  3.7452686e-01
  2.2869207e-01
  6.9007564e-01
 -2.1956816e-01
  1.2283240e-01
  9.2893219e-01
  6.5687549e-01
  2.3188105e+00
 -5.0668371e-01
 -7.5757042e-02
  1.5727961e-01
 -2.0481806e-02
  3.9973152e-01
 -4.4511911e-03
 -3.1131250e-01
 -6.9527119e-02
 -7.8453296e-01
 -2.7478477e-02
 -1.9464390e-01
  3.0496001e-02
  6.9724321e-01
  9.6056837e-01
 -3.0252099e-01
  1.8077459e-02
  1.1964638e+00
 -1.7053360e-01
 -1.2336074e+00
 -6.4953709e-01
 -4.4188611e-02
  8.2673989e-02
 -9.6295655e-02
  7.6286143e-01
  9.3728226e-01
 -9.0451747e-01
 -2.4239578e+00
 -5.8526343e-01
 -8.4219903e-02
  3.3431152e-01
 -7.4927270e-01
 -9.5913216e-02
 -3.6428869e-01
 -6.5321568e-03
  2.0188313e-02
  2.7132595e-01
 -2.3962388e-02
 -5.8643156e-01
  2.7239048e-01
  4.6866290e-02
 -1.3799758e-01
  1.5175082e-01
 -2.6977202e-02
 -1.4447744e-01
  2.3888490e-01
 -2.1735092e-01
  3.2371426e-01
  3.9188919e+00
 -3.0227479e-01
 -5.8081503e+00
 -8.9592159e-01
  4.0622333e-01
  2.4776168e-02
  2.6918083e-01
  1.3699596e+00
 -5.2109611e-01
  5.6367105e-01
  1.3529303e-02
 -1.4507330e-02
 -7.1560824e-01
 -2.7824724e-01
 -1.8037029e-01
 -5.3805578e-01
  3.3927683e-02
 -4.6578825e-01
 -4.7013119e-02
 -2.5635913e-01
 -9.9383754e-01
 -1.1757770e+00
 -5.0891344e-02
  6.1976558e-01
 -2.4320692e-02
  9.8821133e-01
  1.6396099e-01
  5.8503366e-01
 -7.3148519e-02
  5.8070374e-01
  1.4284691e-01
 -1.1852493e-01
 -4.1761717e-01
  1.7820194e-01
 -2.8321418e-01
  9.4380343e-01
 -4.6571559e-01
 -1.3168820e-02
  3.6091191e-01
 -2.0440732e-01
 -3.3512825e-01
 -1.2604420e-01
 -1.1436096e-01
 -2.6537266e-01
 -4.2838472e-01
 -2.3947839e-01
  2.7478147e-02
  1.6097052e+00
 -2.1280951e+00
  4.2550012e-01
  1.1846127e-02
 -3.5484213e-01
  8.4622331e-02
  5.2850533e-01
  3.0086935e-01
  5.2656722e-01
 -4.0152010e-01
 -2.9561238e-02
 -2.4805334e-01
  1.3930112e-01
 -2.0614794e-01
 -2.2798274e-01
 -4.0771568e-01
  3.3913460e-01
  3.4722034e-02
  1.4149974e-01
  7.1570957e-01
 -5.1326770e-03
 -2.1075454e-01
  3.8122013e-01
 -1.3041696e-01
 -4.2215067e-01
 -1.6594824e-01
 -2.0132959e+00
 -1.3190874e+00
 -1.0104793e-01
  2.5551721e-01
  1.7093675e-01
  4.9341825e-01
  1.2990522e+00
 -3.9088979e-01
 -3.6298569e-02
 -2.1793060e-01
 -2.4504317e-01
 -1.0398839e+00
  1.2444054e-01
 -8.3982851e-04
 -4.7888599e-02
  5.7517968e-02
 -2.8975356e-01
  2.3872048e-01
 -4.9773864e-02
  3.1012699e-02
 -6.4840078e+00
 -3.9599255e-02
 -1.6807902e+00
  1.8378591e-02
  2.7870321e-01
  3.2868639e-01
 -9.0763457e-02
 -1.1755887e+00
  5.8386147e-01
  1.2872928e-01
  9.5615350e-02
 -5.5739015e-01
 -3.2490596e-01
 -9.5501043e-02
 -7.7857858e-01
  1.6476192e-01
 -2.5363201e-01
 -6.0516012e-01
 -3.5135961e-01
 -1.6896178e-01
  1.6217679e-04
 -5.4813065e-02
  3.1116810e-01
 -6.1364782e-01
 -7.3714286e-01
  3.1418645e-01
 -7.7688351e-02
 -6.9357321e-02
 -4.5613527e-01
 -3.0704969e-01
 -4.4080514e-01
 -1.3888313e-01
 -6.5363210e-01
 -5.0128096e-01
  2.4271493e-01
  1.0307916e-01
 -8.3027160e-01
  5.5795228e-01
  1.3145699e-01
 -1.3995638e-01
  2.9605818e-01
 -2.8930792e-01
 -9.4718277e-02
 -4.8613808e-01
 -9.7245485e-02
  2.2006200e-01
  1.2979092e-01
 -4.2328618e-02
  3.1983525e-01
  6.9648109e-02
 -7.2494268e-02
 -4.8406011e-01
 -2.8425619e-01
 -1.3798437e-01
 -2.2149932e-02
  3.1103981e+00
 -3.4633446e-01
  3.9376028e+00
  4.3283165e-01
 -3.0782070e+00
 -2.7522359e+00
  1.4351231e+00
  1.1791394e+00
 -8.3546877e+00
 -4.4902492e+00
 -5.7476997e-01
  2.3515048e+00
  3.8667469e+00
 -2.0172405e-01
  1.0825293e+00
 -2.3232388e-01
  9.3350649e-01
 -4.2730954e-01
 -1.9713203e+00
  1.6864989e+00
  3.7646480e+00
  1.7922895e+00
 -2.8293085e+00
 -1.7537286e+00
 -2.5060689e+00
  1.9363669e-01
 -1.0300231e+00
 -1.3616327e+00
  1.7903223e+00
  8.6043823e-01
 -3.1729499e-01
 -3.6515527e+00
 -2.5035572e+00
  1.5287426e-01
 -1.4356186e+00
 -2.4166338e+00
  2.1322408e+00
  1.3877335e-01
 -4.1311431e-01
 -2.4921882e+00
 -9.7568339e-01
  4.8193282e-01
 -4.9099095e-02
  4.4462529e-01
  1.0310392e+00
 -3.8487792e-01
  2.2357516e-01
  3.7361994e-01
  1.5365396e-01
  6.7708391e-01
 -1.1183094e+00
 -7.9726940e-01
  2.1318378e+00
 -5.3247508e-02
 -1.6581774e-01
  2.5619035e+00
 -3.6206597e-01
  1.6254399e+00
 -3.1202264e+00
 -5.7769239e-02
 -1.4130034e-01
 -2.1327918e+00
 -2.3442710e-02
  8.1524557e-01
 -3.1428739e-01
 -4.5227793e-01
 -7.9052009e-02
  8.8931817e-01
  1.6660398e+00
 -2.7520147e-01
 -5.0609523e-01
  3.1558819e-02
 -1.2631118e-01
  2.1452759e-01
  6.4720154e-02
  1.7544082e-01
 -2.6422169e-02
  4.2134142e-01
 -1.0549334e+00
 -1.5422275e+00
  8.1666446e-01
 -7.2695267e-01
  5.2759224e-01
  1.2112575e+00
  6.5168224e-02
  1.2448849e-01
 -6.0164309e-01
  1.3466005e-01
 -8.4502876e-02
  3.0972866e-02
 -2.8446323e-01
  3.8080987e-01
 -4.5620510e-01
  1.7136045e-01
  9.0101548e-03
  4.9020517e-01
  5.7000673e-01
 -2.3334917e-01
 -2.0155296e-01
 -3.9638531e-01
 -3.4563845e-01
 -7.1357709e-01
 -8.8778853e-01
 -9.8097213e-02
 -2.9941589e-01
  2.2841062e-02
 -1.4757820e+00
 -1.0927474e+00
 -2.1452963e-01
 -3.2692653e-01
 -2.4560280e-02
  2.7893698e-01
  1.2690458e+00
  1.1840748e+00
 -2.0238559e-01
 -3.1462133e-01
  1.7438138e-01
  1.0871195e+00
 -1.1168924e-01
 -8.8696167e-02
  4.6082059e-01
 -5.1344925e-01
  5.1429510e-01
 -6.5911359e-01
 -2.4690980e-02
  3.8252022e-02
 -7.9689413e-02
 -3.5788244e-01
 -1.7305228e-01
  9.0632647e-01
  2.7984152e+00
  1.2942377e-01
  1.2536979e-01
  4.6249550e-02
 -1.8302763e+00
  1.1243612e-02
 -5.5031765e-02
  2.7818961e+00
 -5.2206248e-01
 -6.3019380e-02
 -9.7936265e-02
  5.0944990e-01
 -2.0743841e-01
 -2.0173916e-01
 -8.3728844e-01
  5.3308553e-01
  9.2772311e-01
  2.3942906e-01
  1.1217897e-01
 -2.2343604e-02
  7.4615067e-01
  4.3224259e-03
  6.2670928e-01
 -2.0433164e-01
  5.8781702e-02
  1.9993117e-01
  1.6779140e-01
 -4.8869416e-02
 -2.6565926e-02
  1.2754044e-01
  2.9467431e-01
  4.8668692e-01
 -2.9088717e-02
  2.9176342e-01
  7.3290929e-02
  8.2685389e-02
 -6.4740384e-01
 -2.6794264e-01
 -8.7808919e-01
  8.3364964e-01
  3.4379816e+00
  1.8401763e-01
  1.6187875e-02
 -2.0801270e-01
 -6.4312100e-01
  5.5864286e-02
  8.7949175e-01
 -1.6196398e-01
  2.7266741e-01
 -5.1489394e-02
  2.4449734e-01
 -4.7382385e-01
  1.0267469e-01
 -5.6704026e-01
  3.3170122e-01
 -3.0208546e-01
  2.0973830e-01
 -1.1233789e+00
 -2.0929515e-02
  2.2212622e-01
 -2.1889530e-01
  1.0638078e-01
 -2.2069263e-01
  3.4920377e-01
  1.7854890e-01
 -1.3913479e+00
 -1.3800226e-02
  2.0603330e-01
  1.1859757e-01
 -1.6283356e-01
  1.2108693e-01
  3.9279892e+00
  5.9310541e+00
  1.0865070e+00
  7.7132850e+00
 -3.2889163e-01
  1.4773855e+00
  3.7757456e+00
 -7.3962933e-01
  4.6038854e-01
 -5.4714477e-01
  4.6015075e-01
  2.0107213e-01
  4.0280479e-01
  6.9686025e-01
  2.2944006e-01
  2.7696908e-01
 -1.1752926e+00
 -1.5758328e-01
  3.2584721e-01
 -2.9369805e-02
 -2.8448095e+00
 -9.9481791e-02
 -2.6432235e+00
  4.2400613e+00
  1.3576535e+00
  1.9546732e-01
 -5.1070803e-01
 -1.1225891e+00
 -4.8923023e-02
  8.9983237e-01
 -4.9709177e-01
  6.9360048e-02
  2.3900988e-03
 -3.3894852e-03
 -1.7778702e+00
  1.1305907e+00
  2.3781593e+00
  4.1791562e-02
 -7.1371680e-01
 -2.8748849e-01
 -5.2291598e-02
 -1.0060287e-01
  8.6646956e-01
  3.1365007e-02
 -7.8013104e-01
 -3.3074364e-01
 -1.4874241e-01
 -9.3499756e-01
  1.8850926e-02
 -4.4028225e+00
 -1.8067615e+00
 -3.1566534e+00
 -3.8214488e+00
  5.2332449e-01
 -9.3321317e-01
  1.4351326e+00
  3.2359570e-01
  9.2586355e+00
  1.3707178e+00
  1.6944814e+00
 -7.8082427e-02
 -1.1026939e+00
 -1.7822998e+00
 -5.2893126e-01
  8.6320657e-01
  1.7795920e+00
  9.3718421e-01
  1.7474345e+00
 -9.3906504e-01
 -2.6051881e+00
 -3.8054368e-01
 -2.4648426e+00
  1.2757632e+00
  8.1359011e-01
  1.7695764e-01
  1.2456985e+00
 -4.2765602e-01
 -3.4818177e+00
 -1.6881694e+00
 -3.2282579e+00
  1.5734565e+00
 -8.5744038e-02
  6.0960263e-01
  4.1414449e-01
 -5.9854329e-01
 -1.9850483e+00
 -4.9600081e+00
  1.5420524e-02
  1.5843195e-01
  1.0261674e+00
  8.3200771e-01
 -1.1330368e-01
 -2.4260850e-01
 -1.6817503e-01
  9.5355469e-01
  1.8331328e-01
  6.8999875e-01
  1.5432318e-01
 -1.8109836e-01
  5.8328474e-01
  6.7314762e-01
 -8.3220914e-02
  5.5672741e-01
 -4.0077671e-01
  3.2341903e-01
 -1.3888463e+00
 -1.9688115e-01
 -6.2993771e-01
 -3.5755375e-01
  1.2026636e-01
  5.6936914e-01
 -1.1470234e+00
  3.4065318e-01
 -1.8115407e-01
 -1.1500175e-01
  3.0897260e-01
  6.9850761e-01
  3.8984677e-01
  7.3085606e-02
 -4.4976190e-02
  1.3407613e+00
 -1.3834839e-01
 -1.3037658e-01
  5.0001973e-01
 -2.9663306e-01
 -4.9333242e-03
  5.2392119e-01
 -3.3693510e-01
 -3.7321970e-02
  3.7013805e-01
  6.6469157e-01
 -5.0918275e-01
 -6.2106542e-02
 -2.9671890e-01
 -3.9050928e-01
 -4.4397643e-01
  1.1963677e-01
 -4.5522861e+00
  2.8378349e-02
 -2.2480723e-01
 -5.3093588e-01
 -2.6892281e-01
  5.4579860e-01
 -1.8665537e-02
  8.0789171e-02
  2.7489799e-01
 -2.7021717e-02
 -1.3350257e-01
  5.1018590e-01
 -7.0910260e-02
  6.0688597e-01
 -2.1992084e-01
  5.3222865e-01
  7.0198393e-01
 -3.1104234e-01
  8.6737266e-03
  2.6968601e-01
 -4.5668375e-02
  2.3233866e-02
  4.3678051e-01
 -2.9073473e-02
  1.3155130e-01
  7.3268250e-02
 -1.7208794e-01
  1.2819856e-02
 -4.6952346e-01
  2.6653937e-01
  7.7523850e-02
 -2.2798827e-01
  1.0208499e-01
  5.1986688e-01
 -2.8919744e-01
 -1.5519422e-01
 -4.1873088e-01
  1.0206039e+00
  3.7194097e-01
 -5.4403460e-01
 -1.0860395e-01
 -2.1289338e-01
 -8.8016972e-02
 -1.6645044e-01
  1.9442227e-01
  6.0225648e-01
  2.0453432e-01
 -1.7028905e+00
  4.4126579e-01
  9.9124528e-02
 -1.9473068e-01
 -8.2707733e-01
  7.9077050e-02
 -7.2645284e-02
  1.0434177e-01
 -1.2389222e-01
 -6.4235544e-01
 -5.0792015e-01
  1.1492599e-02
  3.8509426e-01
 -1.1973794e-01
  8.5737534e-02
  1.2560387e+00
  1.0869172e+00
 -8.4784728e-01
  1.2037508e-01
 -4.2779064e-01
  3.3213818e-01
  2.1054921e+00
 -1.1324717e+00
  9.5470600e-02
 -1.1565217e+00
 -7.9756391e-01
  1.8475873e-02
 -8.8677442e-01
 -1.2567323e+00
 -2.4745319e+00
 -7.1521568e-01
 -1.7438713e+00
  1.2321754e+00
  1.7095625e+00
 -9.6198136e-01
 -2.8212801e-01
 -5.1762348e-01
 -2.3222923e-01
  9.7458839e-01
 -1.9185694e+00
 -2.8461919e+00
 -2.7334374e-01
 -5.0794405e-01
 -1.1997231e+00
 -6.0712910e-01
 -2.3678327e+00
 -2.3310981e+00
 -3.2856991e+00
  1.3189861e-01
  5.9943992e-01
  1.2389591e-01
  1.2412682e-01
 -5.5386966e-01
 -1.4669793e+00
 -8.3199376e-03
  2.7194464e-01
 -3.1834209e-01
 -1.0615718e+00
 -1.7930521e+00
  4.3374807e-02
 -1.0495131e-01
  2.3503309e-01
 -4.1043913e-01
 -2.0854156e-01
 -2.1018045e-01
 -1.4055128e-01
 -3.2860926e-01
  5.8863729e-01
  5.2267903e-01
 -1.1638913e+00
  1.8687651e-01
  4.3039909e-01
 -3.7995517e-01
 -1.1923168e+00
 -1.5358393e+00
  1.0725172e+00
 -6.0559869e-01
 -1.0351700e+00
  1.3958689e+00
  6.8006462e-01
  7.2764349e-03
 -7.1375889e-01
  3.1133765e-01
  1.4452815e+00
 -1.1178347e+00
 -4.1318836e+00
 -5.1166303e-02
 -3.8758445e+00
  4.3167021e-02
  3.7388647e-01
  9.5554367e-02
 -3.8685539e-01
 -9.7795630e-01
 -4.0424867e+00
  5.0884914e+00
  2.7733192e+00
 -4.9539724e-01
 -5.4306114e-01
  6.1473769e-01
 -5.3126401e-01
 -2.3282492e+00
 -2.2639806e+00
  2.7474062e+00
  2.0174839e+00
  3.9577575e+00
 -7.5555456e-01
  3.5374567e-01
  1.3490631e-01
  8.8195853e-02
 -6.1894459e-01
 -2.3767829e+00
 -4.6270919e-01
 -4.3495372e-01
 -6.5065026e-02
  1.4424336e-01
 -1.9489734e-01
 -3.0371404e-01
  6.9786720e-03
  4.9640954e-01
 -8.1682771e-02
 -6.5318933e-03
 -2.0852083e-01
  2.9388173e-02
  8.3248186e-01
  2.5062466e-01
  5.5088215e-02
 -1.1626796e-01
 -4.6175143e-01
  1.1710029e-01
  4.4778022e-01
  3.9525667e-01
  4.9584404e-01
  1.9595663e-01
  5.7157755e-01
 -5.1271522e-01
  1.7324010e-01
  7.2828615e-01
 -1.0753025e-01
  8.6061977e-02
 -1.7003107e-01
  8.6332098e-02
  1.7353019e+00
  4.4954491e-01
 -2.6869103e-02
  9.8050222e-02
  7.4149817e-01
  1.2712912e-01
  7.2270131e-01
  4.7027647e-02
 -3.3948064e-02
  3.3503029e-01
  4.2517519e-01
  3.2528064e-01
  2.4447568e-02
 -3.7555847e-02
  5.6041520e-02
  6.6205055e-01
 -2.8263360e-01
 -8.5789877e-01
 -7.8782994e-01
 -1.2339253e+00
 -4.2904377e-01
  1.7506673e+00
 -5.7051921e-01
  1.7269059e+00
  1.5520692e-01
 -2.4784508e-01
  3.8789448e-01
  5.6963694e-01
  3.7644732e-01
  2.6110098e-01
 -2.4712244e-01
  1.5045249e-01
  1.6518238e-01
 -1.1283752e-01
  3.4531540e-01
 -1.3853322e-01
  4.6674517e-01
 -1.8592550e-01
 -2.4629316e-01
 -1.2183556e-01
  1.2327776e-01
 -2.6057258e-02
 -1.2986358e-01
 -1.4742534e-01
  2.6226175e-01
  3.5714540e-01
 -1.3691662e-01
 -3.4266524e-02
  2.9931006e-01
 -5.6825471e-01
  1.7305741e-01
  1.5831476e-01
  4.3257537e-01
  1.0947788e+00
 -1.7241263e-01
 -6.4913817e-02
  1.0440145e-02
 -5.9309043e-02
  1.3676019e-01
  6.7999220e-01
  2.6825985e-01
 -2.7002966e-01
  6.6737503e-02
 -1.8942159e-01
  2.0105706e-01
 -2.9743665e-01
 -2.1373583e-02
 -1.6582160e-01
  2.9350465e-02
  2.4000806e-01
  1.1546869e-01
 -2.3645902e-01
 -2.9399663e-01
  5.8955538e-01
 -7.5611643e-02
 -2.3250418e+00
 -1.6178474e+00
  4.0157282e-01
 -8.3840892e-02
 -1.3834871e-01
 -1.4405950e-02
 -1.5380347e+00
  1.1935395e+00
  1.1332699e+00
  1.8049955e+00
  3.4672983e-02
  1.0148720e-02
  2.2280173e+00
  2.1754494e+00
  3.6918142e-01
  2.3193869e-01
 -2.6330745e-01
  1.0109399e-01
 -1.1686184e+00
 -3.6050275e-02
  1.8621746e+00
  1.2896259e+00
  1.1825902e+00
  1.1773815e-01
 -1.5539746e-01
  8.0699110e-01
  2.6852778e-01
  8.7043166e-01
 -1.1267215e+00
 -9.4484645e-01
  5.5230987e-01
 -6.4183049e-02
  2.5662103e-01
  3.2565126e-01
 -8.3653456e-01
  4.9090332e-01
 -5.2886248e-02
 -2.7008951e-01
  1.9691985e+00
 -1.7425731e-01
  2.2072122e+00
 -5.1763304e-02
 -1.4395891e-03
  3.1085226e-01
 -2.2251993e-01
  8.7532640e-02
  2.5936032e-02
  5.6114823e-01
 -3.9523917e-01
  1.8846445e-01
 -1.2707911e+00
  1.1204127e+00
  2.3374286e-01
  7.7248472e-01
  4.9928039e-01
 -2.0293942e-01
  8.7119979e-01
  8.8386494e-01
  1.2947525e+00
 -3.9872760e-01
 -3.2046297e-01
  3.4353495e-01
  2.9244605e-02
  1.1681795e+00
 -8.5210067e-01
  2.4131995e-01
  1.1928198e-01
  1.2769172e+00
  1.2412368e-01
  4.6658802e-01
 -4.8936316e-01
  2.5308944e-02
  9.8042566e-01
 -3.2094669e-02
 -1.1622889e-01
  5.4533720e-01
  8.7192225e-01
 -4.0342170e-01
  3.8782448e-01
 -7.2910261e-01
 -1.8507352e-01
 -4.0932711e-02
  1.1722822e-01
 -4.7991624e-01
  2.9087135e-01
 -2.1164483e-01
  2.9915495e+00
  2.8121856e-01
  4.3430066e-01
  3.4223497e-01
  1.2413419e-01
  2.8729326e-01
 -2.7794251e-01
 -2.3175096e-02
  3.7521854e-02
  1.5890940e-01
 -1.7538075e-01
 -5.5533445e-01
 -2.5748450e-01
 -3.2349920e-01
  5.3922755e-01
  7.0810539e-01
 -4.2749941e-02
  1.2739849e-01
 -1.7897502e+00
 -3.2481733e-01
  3.2925507e-01
  8.0202762e-03
 -3.5511687e-01
 -8.9770276e-03
  1.0443172e-01
 -8.1579723e+00
 -4.2591151e-03
 -4.7992103e-02
  1.7403309e-01
 -5.0989646e-01
 -1.2098370e-01
  2.3334016e-01
 -2.0000586e-01
 -2.4847493e-01
  4.7217497e-01
 -5.2419680e-01
 -2.8114372e-01
 -1.2385549e-01
 -3.3598587e-01
 -7.5495929e-01
 -2.5130886e-01
  1.0981553e-01
 -6.1995351e-01
 -9.6504040e-02
 -1.0112412e-02
 -3.5563278e-01
 -4.5496982e-01
 -4.7274059e-01
  2.1009244e-01
 -5.9425831e-01
 -1.5674857e-02
 -1.0280888e+00
 -3.2513908e-01
  1.4276181e-01
 -1.0155118e+00
 -1.2646644e-02
 -3.0048931e-01
  3.0496460e-01
  1.7432562e+00
 -5.2241206e-01
 -2.3330152e-02
  5.2241437e-02
 -4.5492846e-01
  6.7708123e-01
  1.4192209e-01
  7.7740240e-01
 -3.1668532e-01
 -1.0151471e-01
  2.8299615e+00
 -1.1848222e-01
 -5.2544320e-01
  3.5772890e-02
  9.9649569e-03
 -3.0494726e-01
 -8.3076721e-01
  7.3224127e-02
 -3.3505076e-01
 -4.9622927e-02
  8.6978331e-02
 -1.4556605e-01
  3.8367653e-01
 -3.7965173e-01
  3.8512114e-02
 -2.4490008e-01
 -6.7028093e-01
  1.6970441e-01
  6.1697954e-01
  5.3934842e-01
 -2.6345310e-01
 -1.8622723e+00
 -1.4998612e-01
 -4.4328505e-01
 -6.4675570e-02
  3.7757799e-02
  1.8318807e-01
 -1.8497132e+00
  1.1173579e-01
 -9.3683958e-01
 -3.3483499e-01
 -4.4221245e-02
  8.9769393e-02
  3.8107365e-01
 -2.5554694e-02
 -2.6452327e-01
  2.0867558e-01
  2.0935813e-01
  3.4159890e-01
 -9.9343508e-01
  2.3191233e-01
  1.5813966e-01
  5.9716874e-01
 -1.5196444e-01
  3.9958072e-01
 -8.1854302e-01
 -2.9943533e+00
 -7.9029889e+00
 -4.1302407e-01
  2.1750600e+00
  2.8211493e+00
  8.3408225e-01
 -2.9563334e+00
 -8.3979553e-01
 -1.6973444e+00
  2.6350322e-01
  1.3676758e-01
  4.8734072e-01
  1.0361668e+00
  3.1628418e-01
 -9.2356640e-01
 -1.5588652e+00
  1.0963264e-01
  2.5805393e-01
  1.0548140e-01
 -4.3456159e+00
  1.8844763e+00
  3.7678388e-01
 -1.6320997e+00
 -3.7094456e-01
  1.3719482e+00
 -6.9753081e-01
  6.0502493e-01
 -2.3934714e-01
  3.8226299e+00
 -8.6350089e-01
  9.9537678e-02
 -6.1140083e-02
 -2.3269249e-01
  6.3905495e-01
 -4.3895394e-02
 -2.3005505e-01
  1.5074229e+00
 -1.0555327e-01
 -1.1011912e-01
 -3.9448917e-01
  6.8402129e-01
  1.8464029e-04
  2.5478172e-01
  4.5364064e-01
  2.4773197e-02
 -2.1729442e-01
  2.0056596e+00
 -3.0128682e-01
 -2.0174801e+00
  2.1616945e-01
  1.7773015e+00
 -2.4813349e+00
 -3.1941819e+00
  5.4159646e+00
  4.6308794e+00
  1.9413943e+00
 -3.8930550e+00
  2.7511945e+00
  3.7515106e+00
  1.4974356e+00
  1.3917443e-01
 -6.6944999e-01
 -1.7382827e+00
 -1.0541775e+00
 -3.3333126e-01
 -1.0483139e+00
 -5.5422240e-01
  2.5273117e-01
 -6.0394520e-01
  2.0117048e-02
 -3.0972891e+00
 -1.5868613e+00
 -1.2594163e-01
 -8.6952549e-01
 -7.4970675e-01
  2.0665402e+00
  5.4177856e-01
 -1.2675527e+00
 -1.6772166e+00
 -5.1377863e-01
  7.3092765e-01
 -1.3619685e+00
 -7.8832513e-01
  1.6234974e+00
 -1.0024083e-01
 -4.7811028e-01
 -1.4442130e+00
  5.6045240e-01
  3.5660759e-02
 -3.5503790e-01
  1.8276441e-01
 -7.2059110e-02
  1.1165193e-01
  6.5327376e-02
  7.8103352e-01
  4.2665192e-01
 -1.5788220e+00
 -7.4673921e-02
  4.7805756e-01
 -5.4775804e-01
 -1.9829069e-01
 -3.2750055e-01
 -9.1554499e-01
  8.6980596e-02
 -2.9182749e-02
  4.8051581e-02
 -3.7030056e-02
  4.2040399e-01
  1.2627421e-01
  6.9290847e-02
 -6.6414125e-02
 -3.6625645e-01
 -1.9474499e-02
  8.5868642e-02
  8.3219431e-02
  4.7762021e-01
  3.8909793e-01
 -4.9337357e-01
  1.2823996e-01
  5.4242082e-02
 -1.3888410e-01
  1.5914543e+00
  8.0278510e-01
  2.6063746e-02
 -1.2729746e-01
  1.2192243e+00
 -4.2925766e-01
  5.8860831e-02
 -5.8821404e-01
  1.0985116e+00
 -1.5689456e-01
 -3.1820264e-01
 -2.4645451e-01
 -2.5045257e-02
 -3.0498765e-02
  6.9329292e-01
  3.0892152e-01
  2.6872963e-01
  1.2807742e-01
  4.0362209e-01
  1.2098739e-01
  1.0389821e-01
  2.0073855e-01
 -1.5285380e-01
 -5.0032282e-01
  1.3901838e+00
 -3.2598394e-01
 -1.3562848e-01
 -1.8557705e-01
 -1.5364558e+00
 -7.0946461e-01
 -2.2123287e+00
 -3.3330649e-01
  7.2328672e-02
 -1.6034983e-01
 -3.2396436e-01
 -8.4546101e-01
  7.0249345e-03
 -8.9610606e-01
  3.2235667e-01
 -3.0767122e-01
  7.7727538e-01
  5.3112226e+00
  1.8616924e-01
 -2.1104503e-01
  3.0577111e-01
  4.2307999e-02
  1.1092949e-01
 -5.0006372e-01
  4.9305361e-02
  4.4385672e-01
 -9.3624347e-01
 -3.2304922e-01
 -4.1126989e-02
  9.8339520e-02
  1.8915942e+00
  7.3112619e-01
 -1.2373610e-01
  6.4002472e-01
  2.0178560e-02
 -1.6057411e-01
 -2.9287380e-01
 -1.1718265e-01
  5.5846202e-01
 -5.8549948e-02
 -3.2134655e-01
  2.7286655e-01
 -9.2706650e-02
 -3.4215309e-02
 -1.9139266e-01
  2.1279695e+00
  3.5843363e-01
 -3.6872518e-01
  1.7866722e-01
  3.6048204e-01
 -1.4157139e-01
 -3.3699479e-02
 -1.1549026e-02
  3.4119737e-01
 -2.6355100e-01
 -1.7837731e+00
  1.7789690e-01
 -1.0337770e+00
 -4.2266979e+00
  1.2933322e+00
  1.4785923e-01
 -2.9548436e-01
  1.7153052e+00
  8.1467348e-01
  8.7475485e-01
  9.7423822e-02
 -6.1568893e-02
 -7.4198350e-02
 -1.0504615e-02
  1.0512732e-02
  6.6436946e-01
 -2.2080560e+00
 -5.0225925e-02
  5.5276561e-01
 -2.2067153e+00
 -1.5064380e-01
 -1.5487992e+00
  4.9323846e-02
 -1.4346994e-02
  1.0613126e-01
  1.2005847e+00
 -4.0912309e-01
 -4.9232021e-03
  6.1577678e-01
 -4.9325064e-01
  3.2277230e-02
 -2.8814889e-02
 -1.8161807e+00
  1.1484220e+00
  8.9861447e-01
 -6.3089079e-01
  1.2838393e+00
  2.9300880e-01
 -1.6453929e-01
  1.0460857e-01
 -2.0724194e-01
  2.8716810e-03
 -1.2337691e-01
  4.7436777e-01
  6.1435074e-01
  1.8227758e-01
 -7.3655650e-02
  1.3693149e+00
  1.3650796e-01
 -2.0797160e-02
 -1.5778646e+00
 -8.0148333e-01
 -6.2367749e-01
 -3.2442837e+00
 -8.8142651e-01
 -4.4107527e-01
  1.4921650e+00
  1.4710273e-01
  7.8410709e-01
  4.2023206e-01
  1.0031626e-01
 -8.0824786e-01
  1.9558112e-01
  4.2738619e-01
 -1.1902375e+00
  1.7878549e-01
  3.1675681e-01
 -7.9516345e-01
 -3.4004381e-01
  1.2966404e+00
 -1.0152055e-01
  4.7286662e-01
  3.5703912e-01
  2.9256874e-01
 -8.2721138e-01
 -8.7542790e-01
  9.4630383e-04
 -6.4988023e-01
 -7.4157804e-01
  7.0466471e-01
 -2.1220188e-01
 -4.0755698e-01
  3.7881893e-01
 -1.3377656e-01
  8.0164045e-01
 -5.1111233e-01
 -3.1186152e-01
  6.7250621e-01
 -1.0759140e-01
  5.1016545e-01
  1.0167011e+00
  5.6182362e-02
 -4.7185442e-01
  1.0139158e-01
 -3.8638166e-01
 -3.5712251e-01
 -3.4829053e-01
  1.6042176e-01
  1.9143203e+00
 -5.7137538e-02
  7.8960818e-01
 -1.6155584e-01
 -5.5526412e-01
 -2.6845312e-01
  6.8450874e-01
  4.2078006e-01
 -3.6917007e-01
  7.3498493e-01
  2.4489672e-01
  1.0140133e-01
  2.0432601e-02
 -5.5221027e-01
  3.5039302e-02
  1.3736267e-01
 -2.3000775e-01
 -4.0035546e-02
 -3.1272170e-01
 -7.7686638e-01
 -1.0737747e-02
  6.2756091e-02
 -2.2276805e-01
 -3.0451566e-01
  7.2266385e-02
 -1.8040419e-02
  1.7098978e-02
  6.6915624e-02
 -3.3894174e-02
 -1.2388893e-01
  4.4378686e-01
 -2.5391230e-01
  2.5007434e-02
  2.7162629e-01
  3.4059253e-01
  3.3293933e-01
  4.2757106e-01
 -1.0638307e+00
  2.8877968e-01
  1.3359523e-01
 -2.2541629e-01
 -8.7229359e-01
 -2.0609688e-02
  9.4831780e-02
  1.6931887e-01
 -7.2906411e-01
 -4.8226899e-01
  8.8969904e-01
 -1.6491216e-01
 -1.6437039e-01
  2.3325707e-01
 -1.5855590e+00
 -1.6786861e+00
 -1.2072544e+00
  1.0724573e-01
 -3.2902536e+00
  6.7729008e-01
  1.4815458e+00
 -2.2361392e-01
  4.1006583e-01
  3.8471198e+00
 -5.2511805e-01
  3.0796087e-01
 -7.8873508e-02
 -7.0295699e-02
 -2.1164261e-01
  1.1585120e-02
  1.8523622e-02
  1.8166368e-01
  1.8993172e-01
  3.9654875e-01
  4.8391178e-01
 -1.6930983e+00
 -3.9501184e-01
  2.0709175e-01
  6.9301271e-01
  2.8239863e-02
 -7.1153276e-02
  2.7622154e-01
  1.5477148e-01
  1.8349756e-02
 -2.5038281e-01
 -6.7576595e-02
  1.1728386e-02
 -6.8626910e-01
  4.7906968e-01
  2.8907144e-01
 -3.0455732e-01
 -6.2153388e-02
 -2.3133625e-01
  1.7001036e-01
 -9.6736592e-01
  4.4895675e-02
 -4.5423365e-01
  1.0835858e-01
 -3.1862333e-02
  7.7702963e-01
 -5.6546646e-01
  1.0895574e-01
 -3.0325703e-02
 -5.8636606e-01
 -1.2781653e-01
 -1.2029382e-01
  1.6966501e-01
  1.8697885e-01
  3.7420675e-02
  5.2772975e-01
  3.3146274e-01
  1.9386658e-01
  9.5552489e-02
  2.6968560e-01
 -1.0744815e-01
 -6.3041574e-01
 -7.1169570e-02
  3.9428237e-01
  9.6948631e-02
  4.3972275e-01
  4.8354134e-02
 -2.0197760e-02
 -1.0934116e+00
  2.4866397e-02
 -9.1100889e-01
  1.4386575e-01
  1.0656158e-01
 -9.4553781e-01
 -6.6988236e-01
 -1.7679073e-01
 -1.4116707e-01
 -4.5376730e-01
 -4.8852444e+00
 -1.1348858e-02
 -8.4137738e-01
 -2.9171515e-01
 -1.5314741e-01
 -2.5660738e-01
  7.3560381e-01
  3.9582503e-01
  8.4742285e-02
 -5.1635351e-02
  5.4406917e-01
  1.7348820e-01
 -1.0390244e+00
  8.3456212e-01
 -4.3447129e-03
 -2.3314020e-01
  5.7292539e-01
 -5.6411755e-01
 -1.9439176e-01
 -2.5278300e-01
 -4.6605775e-01
  2.2424221e-01
 -1.1785947e+00
  1.0273495e+00
  1.5377984e+00
  3.5983586e-01
  5.8687013e-01
 -1.3120404e-01
  5.0734922e-02
  1.9380946e-01
  2.4921192e-01
 -9.5392898e-02
  2.6170486e-01
 -5.1160830e-01
 -2.6575363e-01
 -3.5555452e-01
 -3.4827664e-01
 -1.8803918e-01
 -1.0023169e-01
  1.7093970e-01
 -9.8205000e-02
  5.3144264e-01
  6.2208575e-01
  8.0122793e-01
  1.2042131e-01
 -2.2751106e-01
 -3.3104795e-01
 -1.9915387e-01
 -3.2105535e-01
 -6.0169256e-01
 -1.3929843e+00
  9.6148238e-02
  1.1266669e+00
  5.6082301e-02
  1.4884873e-01
 -1.2614554e-01
  6.2802666e-01
  8.4331587e-02
  1.4238290e-01
 -1.8202379e-01
  2.4271846e-01
  6.7550912e-02
 -8.7650515e-02
  6.1274465e-02
  1.7792366e-02
 -2.7631745e-01
 -4.0320298e-01
  8.0109197e-01
 -2.6985489e-02
  3.2311273e-01
 -3.1642653e-03
  3.9620888e-01
 -5.0436120e-02
  3.4580430e-01
  5.6525314e-01
  1.7021086e-02
  2.3121725e-01
 -1.9506463e-01
 -5.4824787e-01
  3.7222004e-01
 -1.5589592e-01
  4.7592074e-02
 -4.0265340e-01
  6.5989032e-02
  8.7132907e-01
  6.9570971e-01
 -3.1673652e-01
 -2.0228334e-01
  1.4611281e-01
  7.0571327e-01
  9.6770518e-02
  7.2154713e-01
 -4.6264127e-01
 -3.2532454e-01
 -1.2487726e+00
 -1.3626436e+00
  4.6345636e-01
  8.4493160e-02
  2.9080027e-01
  1.8143075e-02
  6.6088073e-02
 -6.1726145e-02
  7.1768083e-02
 -7.3851526e-01
 -1.6167922e-01
  1.7157532e-01
 -5.5078702e+00
 -4.7547004e-01
 -8.3779502e-01
  1.1092416e-01
  3.3421350e-01
 -5.8582708e-02
  6.9656976e-02
  1.9217157e-01
  6.2586159e-02
  1.0518484e-01
 -4.0367624e-01
  2.7449638e-01
  8.6744547e-02
 -1.8489327e-02
  1.6128431e-01
  9.0905011e-01
  5.8273041e-01
  3.2885864e-01
 -1.1992399e+00
  5.5441445e-01
 -3.1706488e-01
 -2.3485100e-01
 -1.8275831e+00
 -8.2486808e-02
  2.2960622e-02
 -6.2555987e-01
  4.1255158e-01
 -7.4524158e-01
 -1.8551356e-01
 -2.3292309e-01
 -3.3335397e-01
  7.8641713e-02
 -1.2403087e-01
  6.1947551e-02
 -1.3665725e-01
 -3.8237783e-01
  2.8487217e-01
  6.7200798e-01
 -4.0252563e-01
 -3.4961200e-01
 -6.2605131e-01
 -9.1402137e-01
 -2.4823609e-01
  1.6038451e-01
  3.1291932e-02
  6.2690091e-01
  7.3586184e-01
  8.6037591e-03
  4.2686111e-01
 -1.1483441e-01
  1.1726911e+00
  8.0789506e-02
 -8.2533956e-01
  1.2312055e-01
 -1.1497529e+00
 -1.5775597e-01
 -2.4250928e-01
 -2.1817881e-01
  2.4863373e-01
 -1.6702488e-01
  3.6979324e-01
 -1.6490829e+00
 -1.5410614e-01
 -3.8200007e-03
  3.9277822e-03
  1.3368991e-01
  5.6740087e-02
  2.1918470e-01
  9.4179702e-01
 -2.7166944e-02
 -5.2659577e-01
 -8.9009386e-01
 -4.2049798e-01
 -4.9654868e-01
  1.0144929e-01
 -6.8676576e-02
  1.2029152e-01
 -4.9077231e-01
  1.8711489e-01
 -1.1883636e-02
 -1.7333111e-01
  4.6015307e-02
  1.3802509e-01
  7.1616316e-01
 -4.3742791e-02
  5.7640475e-01
  3.9181046e-02
  3.6962986e-02
 -6.3663624e-02
  4.6979713e-01
 -7.8896582e-03
  2.2812977e-02
  1.3330755e-01
  1.2199531e+00
 -7.2768837e-01
 -2.6192194e-01
  4.9630073e-01
 -2.1209723e-01
 -6.6570610e-01
  3.9406848e-01
  2.0336393e-01
  4.7971392e-01
 -5.7983595e-01
 -8.2635522e-02
 -1.4498630e-01
  6.7366503e-02
  1.7545593e-01
 -5.1952630e-02
  6.6477549e-01
 -4.8843689e-02
 -8.8909149e-02
 -3.8081670e-01
 -6.1504919e-02
  1.7660089e-01
 -1.9822119e-02
  5.1323420e-01
 -3.0158195e-01
 -1.3937568e-02
  4.0149054e-01
 -3.1686920e-01
  8.1342980e-02
 -6.0710675e-01
  3.1142059e-01
  6.9669998e-01
 -5.4816270e-01
 -5.9286609e-02
 -2.5789708e-01
  3.0330044e-01
 -2.0899100e+00
  1.9499457e-02
 -2.1432245e-01
 -4.1835669e-01
  3.4730560e-01
 -9.1875777e-02
 -4.0853417e-01
  2.3206857e-01
 -1.8428646e+00
 -2.2815652e-01
 -2.9730973e-01
  2.4836954e-01
  1.0665824e+00
  4.4290346e-01
  5.1257432e-01
 -1.1159398e-01
 -1.4024559e-02
  2.1260384e-01
 -4.0342781e-01
  9.3571052e-02
  1.5303625e-01
 -3.0026472e-01
 -4.3930176e-01
 -8.7228514e-02
  7.7429414e-02
 -7.1805656e-01
  5.9848852e-02
 -9.9036969e-02
  3.8252920e-02
 -7.2331280e-01
 -7.7560291e-02
 -2.9517667e-02
 -1.6305490e-01
 -1.1633044e+00
  2.5862062e-01
  2.5026056e-01
 -7.9671472e-02
  1.3233057e-01
 -3.6761067e+00
 -3.8819284e+00
 -6.8880787e+00
 -8.5066289e-01
  1.4361411e-01
  2.4981220e+00
 -1.6530813e+00
 -2.1923867e-01
  5.2373123e-01
 -5.6961459e-01
  4.2684209e-01
 -1.1012217e+00
 -1.5677103e+00
 -3.5826011e+00
  7.1890408e-01
 -2.9535110e+00
  2.3290451e+00
  2.7586919e-01
 -1.7276202e+00
 -6.9061726e-02
 -2.7356958e-01
  1.6721381e-02
 -3.6028844e-01
 -2.2371557e-02
 -2.8034370e+00
 -3.3028209e-01
  1.3267634e+00
 -1.7826172e+00
 -7.2573513e-01
 -2.7741244e-01
  4.5719630e-01
 -5.1325965e-01
 -3.0068830e-01
 -1.5207967e+00
  5.0415713e-01
  1.7331384e-02
 -4.1247954e+00
 -8.4571505e-01
  1.0577662e+00
 -5.7050329e-01
 -3.0323985e-01
  6.5554723e-02
 -1.9985734e-01
  6.0594046e-01
 -6.4412433e-01
  8.2087559e-01
 -2.3464979e-01
  1.9977972e-01
 -1.8749900e-01
  2.0780753e-02
  7.9410869e-01
  3.6553600e-01
  4.6841604e-01
 -3.5396096e-01
  1.3887514e+00
 -4.6695495e-01
 -5.9081256e-01
  2.2534664e-01
 -6.1331308e-01
 -2.3594679e-01
  4.5727229e-01
  2.2076964e-01
 -1.4941484e-02
 -1.0052499e+00
  5.0846463e-01
  3.0716515e-01
  3.6506677e-01
 -4.4051895e-01
 -2.1831968e-01
  7.7427387e-02
  1.5794183e+00
  3.9823584e-02
 -4.9497610e-01
 -2.3937610e-01
 -1.6425115e-01
 -6.1399937e-02
 -4.6433198e-01
  8.4803276e-02
  4.3750775e-01
 -3.5059211e-01
  6.5660849e-02
  3.7940356e-01
  1.7472874e-01
 -2.6014596e-02
 -2.3075274e-01
  1.9626521e+00
  1.8625805e-01
 -6.7380780e-01
 -2.6543725e-01
 -3.0928868e-01
 -1.0012011e-01
 -8.9624666e-02
  4.9299264e-01
  7.6699722e-01
 -1.6238116e-02
 -2.7061030e-02
  3.6840022e-01
  1.0192046e-01
 -1.0409557e-01
  5.4834145e-01
 -5.5599761e-01
 -2.8365557e+00
  5.0093621e-01
  3.1749892e+00
 -3.8936510e+00
 -7.7809745e-01
  3.1643111e-01
 -1.4398615e+00
  8.6668497e-01
  4.0423808e-01
  2.4933389e-01
 -2.0007763e+00
  2.3767118e-01
 -5.4121238e-01
 -7.0078450e-01
 -2.6075774e-01
  9.8401129e-01
 -5.6836540e-01
  1.2667149e+00
  7.6408374e-01
 -2.3587883e+00
  1.1117341e-01
 -3.3511686e+00
 -1.0983355e+00
 -1.2202324e-01
  5.0037670e-01
  2.4266680e-01
  2.1914674e-01
 -9.7955309e-02
 -2.9926711e-01
  1.0126491e+00
  1.7367313e+00
  5.4975331e-01
 -1.9938205e+00
  3.1658673e-01
  7.0441252e-01
 -1.5614229e+00
 -2.0016472e+00
 -2.8015396e-01
 -4.2894396e-01
  2.5452623e-01
 -9.0417415e-02
  6.1933714e-01
 -7.2583809e-02
  6.5089214e-01
  8.1107086e-01
  4.4863272e-01
 -2.4001658e-01
  4.3978378e-02
  1.7903347e-01
 -4.1546267e-01
 -1.8061943e-02
 -2.1616174e-02
  2.7051935e-01
  5.6142583e-02
  9.5213555e-02
 -2.0936491e-02
 -4.5418730e-03
  2.5932491e-01
 -1.0320204e-01
 -8.0316387e-02
  9.9320710e-02
  8.5580930e-02
 -2.3281588e-01
 -1.0525647e+00
 -1.7031941e-01
 -7.0863044e-01
 -1.5321122e-01
  1.1266474e-01
  2.8557092e-01
 -1.2367847e-01
 -1.2596323e-01
  5.8309013e-01
 -8.7613858e-02
  1.0298963e-01
 -1.1245182e-01
 -1.0300291e-01
 -1.2694204e-01
 -3.0753526e-01
  4.5887870e-01
  6.4151061e-01
  1.6748519e-01
 -2.0374052e-02
 -6.3002926e-01
  1.0405181e-02
 -4.6002612e-02
 -1.2749753e+00
  3.5676783e-01
  5.7179559e-02
 -1.4727492e-02
  1.4435178e+00
 -4.3635347e-01
 -1.1068913e-01
  1.2406286e-02
  4.4544017e-01
 -2.9797879e-01
  3.0647385e-01
  5.6651944e-01
  3.6252171e-01
 -9.4255850e-02
 -1.3512602e-01
 -7.6986313e-01
 -5.0931990e-01
 -1.8855251e+00
 -1.1560543e-02
 -1.6288771e-01
  6.9066897e-02
  1.0254760e-01
  8.3903235e-01
  1.9687757e-01
 -3.1872977e-02
  3.4900510e-01
 -6.1728442e-01
  1.4359257e-01
 -1.4013755e-01
  4.5922679e-01
  4.7014770e-01
  5.0459690e+00
 -5.6120944e-01
 -7.0892900e-02
  3.4552790e-02
 -4.7900778e-01
 -1.5172948e-01
 -8.8204533e-02
  3.8961720e-01
 -4.1571185e-03
 -2.3949508e-01
  9.1848671e-02
  5.0465918e-01
  1.7851083e-01
  2.5206980e-01
  6.3365340e-02
  6.8183649e-01
  3.9355466e-01
 -5.5700012e-02
  7.2037143e-01
  4.7666166e-02
  4.9837658e-01
 -7.7694200e-02
 -2.6553372e-01
 -2.5351980e-01
  2.5264990e-01
 -2.8277572e-02
  2.5367036e-02
 -2.0351341e-01
  6.0115027e-01
  1.5831557e-01
  1.9556780e-01
  2.2482789e+00
 -6.8936847e-02
  9.7560310e-01
  1.2754227e+00
 -7.1926820e-01
 -6.0752058e+00
  4.7318292e+00
  1.0836947e+00
  3.0463398e+00
  1.6085318e+00
  8.7952316e-01
  5.9858644e-01
 -2.8428090e-01
 -2.4653933e+00
  2.5890827e+00
  2.7347932e+00
  2.5086439e+00
  8.2126337e-01
  2.0068535e-01
  9.1136777e-01
  2.0827043e-01
  3.3170381e+00
  2.8447211e+00
 -2.3350918e+00
 -2.7231157e+00
  1.5662822e+00
 -4.8662364e-01
  1.9184044e-02
 -1.3751473e-01
  3.7676344e+00
  1.4953369e+00
 -6.5945750e-01
 -2.3530192e+00
  3.6124128e-01
  1.2040344e-01
 -7.3244639e-02
  2.9319376e-01
  1.1500919e+00
  1.2832915e+00
  7.8449845e-01
 -4.4002920e-01
 -1.4004460e-01
 -6.8779433e-01
 -7.2308294e-02
 -8.7777324e-02
  4.2223537e-01
  6.2581673e-02
 -1.1736429e+00
  8.2729146e-02
 -2.8566461e-02
 -5.2878726e-01
  1.6736537e-01
  4.2869869e-01
  3.1557241e-01
  1.3155277e+00
  2.6206676e-02
 -3.8339621e-01
 -1.1819205e-01
 -3.0077845e-01
 -1.9272104e-01
 -6.4401841e-01
 -3.1781578e-01
 -4.9394259e-01
  1.8727267e-01
 -5.0182238e+00
  4.9784115e-01
  9.2364773e-02
  1.0983386e+00
 -4.8853830e-01
  4.3392646e-01
  1.2447605e+00
  1.8150993e-01
 -3.9010152e-01
 -2.2272196e-01
 -2.0713626e-01
 -1.1876930e-01
 -2.0711828e-02
 -6.2840486e-01
  3.9474449e-01
  4.9719378e-02
 -1.6177049e-01
  1.7633729e-01
  4.7272450e-01
 -2.4141398e-01
  6.7886686e-01
  2.7935082e-01
  2.7484644e-02
 -4.5890668e-01
 -3.6870413e-02
  5.3532082e-01
  2.8340247e-01
  4.1778570e-01
  5.7683263e-02
  2.1479151e-01
  6.4734805e-01
 -4.5921832e-01
  7.8827485e-02
  3.7990907e-01
 -6.3401783e-01
  1.1199539e+00
 -9.1692910e-02
  6.9455081e-01
 -5.3617567e-02
  5.8784467e-01
  7.7459991e-02
  3.8284233e-01
 -5.9484482e-01
  3.7417278e-01
  1.1984436e-01
 -2.3029681e-01
  2.1543582e-01
 -3.6293510e-01
  7.0786470e-01
  2.0869999e-01
 -4.9535464e-02
  2.6366425e-01
  1.6772567e-01
 -2.5934035e-01
  2.9606217e-01
  1.4022174e-01
 -1.0556595e-01
  3.2184538e-01
 -5.4980791e-01
  1.3327843e-01
 -6.1806989e-01
  6.6081829e-02
  1.8708377e-01
 -3.1700715e-01
  7.3506093e-01
 -3.1468880e-01
 -1.0295696e+00
  3.5278268e-02
 -2.0287128e-01
 -3.3611038e-01
 -1.3082080e-01
  2.2803001e-02
 -1.1600161e-01
 -7.6776594e-02
  2.0252401e-01
  6.5605533e-01
  1.0908229e+00
  2.0246816e-01
 -9.9330890e-01
  5.1238358e-01
 -7.3675394e-01
 -5.4372966e-01
 -4.0608518e-02
  6.8025872e-02
 -1.2905701e-01
 -6.5681499e-01
 -1.4368661e-02
  4.6337023e-03
 -4.3288803e-01
  1.3020266e+00
  5.2996325e-01
  7.4043591e-03
  1.5570943e-01
 -5.0956208e-02
 -8.5445136e-01
 -7.1098167e-01
  5.7645435e+00
  4.7405437e-02
  3.1201992e-02
  1.0263796e+00
 -3.1974580e-02
 -1.0840644e-01
  1.3065912e-01
 -5.3845549e-01
  7.3796742e-02
 -1.8742940e-01
  5.6600446e-01
  4.5797652e-01
  6.8500364e-01
  3.2638356e-02
  4.8144352e-02
  6.6513598e-01
 -7.1649969e-02
  2.4764422e-01
 -2.8834167e-01
  7.3866522e-01
 -1.0506391e-01
 -3.3363563e-01
  5.7889676e-01
  1.3794795e-01
 -4.3971696e-01
 -9.0470463e-02
 -2.5306409e-02
  1.3650039e-01
  9.2328973e-03
 -1.1003830e-01
  4.6762010e-01
 -3.6804754e-01
  1.4833751e-01
  8.5748696e-01
  3.4347686e-01
 -3.5971889e-01
 -4.9950391e-02
 -8.2238400e-01
 -2.0219321e+00
  5.0830457e-02
  9.3196118e-01
 -7.4400820e-02
  3.2181194e-01
 -1.0269244e+00
  2.2731390e+00
 -6.2104530e+00
  2.3990107e+00
  1.1284225e+00
  2.4920695e+00
 -2.7162328e-01
  2.1388759e-01
  1.4526145e+00
 -1.3929126e+00
  4.4763267e-01
 -1.4908918e+00
 -2.3180308e+00
 -6.7292893e-01
  4.2826939e-01
  2.7906534e-01
  1.6343825e+00
  9.5410103e-01
 -1.8333907e-01
  5.3534752e-01
  1.8786336e+00
  3.6862794e-02
  1.9775081e-01
  1.0750704e-01
 -8.1524737e-02
 -1.1231314e-01
  1.9865602e-01
 -2.7739051e-01
 -3.5669382e+00
 -3.0760980e+00
 -2.2851653e-01
 -2.3173779e-01
  1.3250334e+00
  5.2059937e-01
 -1.0520338e+00
  2.0276019e-01
  3.1221516e+00
 -1.6249791e-01
  1.3269023e+00
  4.2702931e-01
  9.7634113e-01
 -3.7301314e-01
 -1.7052935e+00
  4.1960019e-01
  8.3340275e-01
 -1.4623564e-01
  2.8725886e-01
  5.6163973e-01
 -1.9790815e-02
 -4.6097943e-01
 -3.5349476e-01
 -3.4933782e-01
 -6.1059105e-01
  8.4739983e-01
 -8.0035669e-01
  7.2320682e-01
  5.5218023e-01
  2.8274272e-02
 -5.2550767e-02
 -1.3186870e-02
  1.3369106e-01
  1.8644409e-01
 -1.5681112e-01
  3.0009663e-01
 -1.7783213e+00
  7.1112197e-03
  8.0882058e-02
 -4.3617401e-02
 -1.7335728e-02
  7.6249234e-02
  1.9154330e-01
 -2.6226258e-01
 -1.0054949e-01
 -1.6132683e-01
  1.9301778e-01
  2.0566946e-01
 -1.3157295e-01
 -8.6911663e-02
 -3.3994558e-01
  1.5052404e-02
 -1.7309436e-01
  6.4445838e-02
  6.3931382e-01
 -2.6804805e-01
 -8.1899308e-02
 -5.1640815e-01
  2.1163674e-01
  3.0333507e-01
 -2.2140214e-01
  2.3352766e-01
 -1.1569276e-01
  1.3313209e-01
 -9.4117731e-02
  9.3608630e-01
 -1.4756160e+00
 -1.2184089e-01
  2.1530908e-01
  3.7251297e-02
 -5.8789015e-01
 -6.7781347e-01
  1.2374153e+00
 -3.6684439e-01
  6.4406061e-01
 -4.4737518e-01
 -8.3514458e-01
  2.8434405e-01
  7.5582647e-01
 -9.4923317e-01
 -4.9050480e-02
  6.3032895e-01
 -1.9512673e-01
 -5.7264268e-01
  4.7933334e-01
 -1.9749281e-01
 -5.2589659e-02
 -2.5982577e-01
 -5.0118637e-01
  3.9056432e-01
  6.6215047e-03
 -1.2174573e-01
  2.3109858e-01
 -6.3076919e-01
  1.6283755e+00
  1.0501070e-01
  3.0444083e-01
  5.8988154e-01
 -1.4943777e+00
 -5.2010405e-01
  1.0819306e-01
  1.3666075e+00
 -3.1104690e-01
  1.0976473e-02
  8.2919560e-02
 -1.6841274e-01
  1.7984562e-01
 -1.8603623e-01
  2.9323071e-01
  7.2435653e-01
 -9.8462448e-02
 -4.6645604e-02
 -1.0433926e-01
 -1.9309215e-01
 -5.2344918e-02
 -1.0145940e-01
  3.6229503e-01
 -1.9208127e-01
  1.8623650e-01
  3.3319452e-01
  1.7628258e-01
  1.6568047e-01
 -7.4348307e-01
 -2.3632002e-01
 -6.9665688e-01
  5.7735950e-02
 -7.0080847e-01
  3.4520072e-01
 -5.5090678e-01
 -7.5830840e-02
  4.2451212e-01
 -1.3196775e-01
  1.9602124e-01
 -3.1431928e-01
  9.1271454e-01
 -1.3710053e-01
  5.8510564e-02
  1.2496634e-01
 -5.2728140e-01
 -4.1817173e-01
  5.6093287e-01
 -1.1513175e-01
 -2.1364684e-01
  3.8710374e-01
 -3.8523245e-01
 -1.2539816e-01
  5.7821983e-01
 -2.9786099e-02
 -2.9068792e-01
 -3.7460655e-02
 -1.0870815e-01
 -1.2096050e+00
 -3.8673759e-02
 -1.4437047e-01
 -6.1683202e-01
  1.5737659e-01
 -1.2815985e-01
 -1.6492067e-01
  5.0117135e-01
 -4.2837593e-01
  4.2385399e-01
 -2.5618783e-01
 -1.9728918e-01
  1.5982428e-01
  2.6124341e-02
 -6.2366609e-02
  9.2267072e-01
 -7.0802677e-01
 -1.2773228e-01
  7.3714212e-02
 -2.7030475e-02
 -3.6162943e-02
  8.3176963e-02
  5.1040727e-01
 -1.6194054e-01
  3.9458014e-02
  9.5108849e-01
  1.2827656e+00
  2.1101114e-01
 -1.6076015e-01
  2.4796548e-01
 -3.1707039e-01
 -4.3356544e-01
 -2.2164805e-02
  2.0066895e-01
 -2.1425317e-01
 -5.8620185e-01
 -2.0724492e-01
 -9.1114521e-02
 -4.2268404e-01
 -1.1574455e-01
  9.4180614e-02
 -2.0991205e-01
  1.0594343e-01
 -3.4353989e-01
 -5.2961420e-02
  1.6739461e-01
  9.2105085e-01
 -5.3386271e-01
  8.9569193e-01
 -8.3541460e-02
  2.5586969e-01
 -3.2938826e-01
  3.6959431e-01
 -1.2702681e+00
  1.5807442e-01
 -7.8981060e-01
  1.1078020e-01
 -4.4670659e-01
 -8.6652428e-02
  3.8513154e-01
  2.3150714e-01
  8.1893399e-02
  8.6728203e-01
 -1.9068359e+00
  1.6459970e+00
  7.6454997e-01
  3.6463940e-01
  1.0950580e-01
  1.0128342e-02
 -1.4696240e-01
  4.8460767e-01
 -2.8589992e-03
  9.6583232e-02
 -2.4923180e-01
 -2.7118915e-01
 -7.9827152e-02
 -3.4455070e-01
  5.2741253e-01
 -8.3922163e-02
  2.1988341e-01
  3.5853913e-01
 -5.8896817e-02
  1.0515347e+00
 -6.0186619e-01
 -1.6133453e+00
 -1.4583912e-01
  3.0752853e-01
  4.1706964e-02
  3.8933998e-01
  4.2698821e-01
 -5.7723612e-02
  1.1766876e-01
 -8.5209403e-04
  1.0741314e-01
 -6.7632958e-02
  1.3259366e+00
  2.5176257e-01
  1.7698583e-01
 -4.6517172e-01
  3.4972179e-01
 -5.5915141e-03
  7.1367294e-02
 -1.1240405e-01
 -7.3990509e-02
 -7.6723391e-01
  4.5105052e-01
 -5.2371198e-01
 -4.2147726e-02
 -5.0056362e-01
  9.9680096e-02
  6.8455315e-01
 -4.4966274e-01
  4.8743457e-01
 -5.0137413e-01
 -8.8220432e-02
  2.7662788e-02
 -4.8945650e-02
 -5.6502229e-01
  2.3902125e+00
  2.8279641e-01
  8.1384033e-01
 -4.0390500e-01
  5.6350428e-01
  2.3619804e+00
 -1.1098281e+00
  4.4416573e-02
 -1.5304961e+00
  2.2056904e+00
 -4.3622464e-01
  2.4191222e-01
  5.6343198e-01
 -7.0280606e-01
 -3.9945754e-01
  9.3474096e-01
 -5.3662497e-01
 -5.1042819e-01
 -1.8818375e-01
  5.8474308e-01
  2.7081566e-02
 -3.2145220e-01
 -3.7063092e-01
  1.5419787e+00
 -9.4547614e-02
  1.9247234e-01
  5.5907145e-02
 -2.3813567e-01
  1.7124145e-01
 -1.3245703e+00
 -1.6799113e+00
 -3.2465422e-01
  3.2730481e-01
  9.7257420e-02
 -9.1818273e-01
 -1.8123218e-01
  1.7514336e-01
  1.3584048e-01
 -2.6059443e-01
  2.1901208e-01
  5.8009218e-02
  1.0199970e+00
 -1.2643309e-02
 -6.9669807e-01
  3.0294419e-03
  1.8110502e-01
 -1.3296942e-01
 -1.0923330e-02
 -2.6490837e-01
 -1.3993540e-01
  6.4629638e-01
  1.3597499e-01
  4.3512523e-01
 -6.9598919e-01
  1.8790343e-01
 -1.2148551e-01
 -2.1780608e+00
 -6.7384684e-01
  1.3196529e-01
 -5.3152806e-01
  1.1252269e-01
 -1.2334868e-01
  2.9856443e-01
 -2.5565749e-01
  2.1774769e-02
  5.1262014e-02
  2.2635484e-01
  2.1130219e-01
  4.5799682e-01
 -1.4110931e+00
  5.5130947e-01
 -2.2199377e-04
  2.4457529e-01
  3.0132657e-01
 -8.0111377e-02
  1.1448419e+00
 -5.9222800e-01
  6.4949840e-02
  9.0169735e-02
  8.8978320e-02
  1.1745729e-02
  5.0144196e-01
 -1.4333397e+00
 -1.4997673e-01
  1.4101826e-01
  1.3438253e+00
 -1.8714571e-01
  6.9983113e-01
  9.5859343e-01
 -4.3349883e-01
 -1.1446927e-01
 -4.0395409e-01
 -6.1073965e-01
  3.8078392e-01
  1.4806606e+00
  1.4061674e-01
 -5.3693998e-01
  1.4186458e-01
  3.1009200e-01
 -1.7078093e-01
 -1.9157891e-01
  2.9285982e-01
  3.2702759e-01
  7.2330171e-01
 -4.0179621e-02
 -7.0061594e-01
 -1.1102351e+00
 -1.0369189e+00
 -4.6051543e-02
 -6.5931100e-01
  1.1730723e+00
 -1.3038437e+00
  2.5495484e+00
 -2.7180994e-01
  1.1369843e+00
  5.5362868e-01
  1.0881279e-02
  3.2471769e-02
 -1.3072015e-01
 -8.5878864e-02
 -2.7312515e-02
  1.4435438e+00
 -3.0355840e+00
  7.1773496e+00
  1.1613831e-01
 -9.0260133e-02
 -2.4634363e-02
  1.0463704e+00
 -2.7690893e-01
  3.8072944e-01
 -2.6748674e+00
  6.4344841e-01
 -1.0234301e+00
  8.1866187e-01
  4.6037772e-01
 -1.0223885e+00
 -1.1051008e+00
  3.9157552e-01
 -1.1029801e+00
  2.8989342e-01
  7.3076598e-02
  1.6963859e-01
 -2.3366076e-01
 -1.9551523e-02
  1.1855977e-01
  9.9878001e-01
  1.3528983e-01
  5.2665353e-02
 -1.0418352e+00
  1.1011830e-01
  4.1510144e-01
  5.2014595e-01
  6.9730639e-02
 -2.2901111e+00
  1.3826415e-04
 -2.4606857e-01
 -3.7219667e-01
 -2.7433196e-01
  8.7419701e-01
 -3.2379219e-01
 -3.5523921e-01
  6.4129069e-02
 -4.9130395e-01
  1.2386143e-01
  1.2887637e-01
  2.6189056e-01
  1.0906347e-01
 -2.4790718e-01
 -1.9407538e-01
 -1.3018700e-01
  7.4506767e-02
 -4.1744024e-01
 -4.2612511e-01
 -9.4528869e-02
 -5.8512408e-01
 -9.7811550e-02
 -5.9826165e-01
  1.9429293e-01
 -1.3628753e-01
 -2.0444743e-01
  2.3010557e+00
  5.2992934e-01
  1.4384267e+00
 -7.9406542e-01
  8.8348567e-02
 -9.8828137e-02
 -1.4418313e-02
  5.0217677e-03
  3.9173955e-01
  1.9987953e-01
 -1.5197790e-02
 -8.9215739e-03
 -2.6034823e-01
  1.7918053e-01
 -9.7930752e-02
 -1.1051566e-01
  3.0572796e-01
  1.3825899e-02
 -3.6786529e-01
 -4.7983652e-01
  1.1452146e-01
  8.9644361e-01
 -8.6026257e-01
  5.5968460e-02
  6.1305541e-01
 -3.3523774e-01
  6.3274097e-01
 -9.8800099e-01
  2.0544161e-01
  1.9668831e-01
 -2.4819380e-01
  1.2005267e+00
 -2.1766099e-01
 -1.3272280e-01
 -2.4214786e-01
  6.1559206e-01
 -8.0669269e-02
 -5.5846412e-02
 -3.6647266e-01
 -7.9751968e-01
 -4.0354282e-01
 -7.6794401e-02
  9.0454501e-01
  1.9107310e-02
 -4.3183677e-02
  1.4283815e-01
  1.4572220e-01
  1.2573031e-01
  5.5575115e-03
  2.0236881e-01
 -3.3946157e-01
  2.1530867e-01
  2.6670972e-01
 -3.6887380e-01
  3.2853299e-01
 -7.6033317e-02
 -4.4935390e-01
  1.0099889e-01
  6.0444295e-01
 -2.3954085e-01
 -2.5544202e-01
 -1.9622552e-01
  8.7110981e-02
 -1.1193092e-01
 -4.1172609e-02
  1.5645044e-02
  1.6707912e-02
 -1.0665759e+00
  2.1671863e+00
 -7.2798496e-01
  1.7916169e-02
 -3.8096929e-01
 -8.5500157e-01
 -1.9180556e-01
 -2.9349315e-01
 -5.4115796e-01
 -7.7312008e-02
  2.8363425e-02
  1.2572800e-01
  1.6484841e+00
 -4.0018740e-01
  4.4297215e-01
 -5.1649261e-01
  2.0170681e-01
 -2.4617860e-01
 -3.0098963e-01
 -6.7403710e-01
  2.8764245e-01
 -1.9521929e-01
 -1.2551621e-02
  4.3187666e-01
 -2.8767365e-01
  2.7331088e-02
 -3.6541128e-01
  6.8790495e-01
  1.8484408e-01
  4.6075769e-02
  1.3369852e-01
  5.3668559e-01
  1.1706042e-01
  4.5777914e-01
 -1.6757523e-01
  4.4690055e-01
 -7.2122212e-03
  3.2121509e-01
 -4.4020262e-01
 -3.6186138e-01
 -4.6963200e-01
  5.1025355e-01
 -2.2482006e-01
 -1.7663668e-01
  4.2779568e-01
 -5.4018926e-02
 -1.6638538e-01
  2.5709319e-01
  1.4250888e+00
  3.0851850e-01
  1.6622126e-01
 -6.1539579e-03
  9.7259861e-01
 -1.1980629e+00
 -2.6794508e-01
 -1.9949906e-01
 -1.1708206e+00
 -1.8342902e-01
  2.0205297e+00
  2.0795925e+00
  1.3978482e+00
 -5.3282946e-01
  1.0764843e+00
  2.0438084e-01
 -8.9790247e-02
 -4.5748133e-02
  9.6158758e-02
  1.1836407e-01
 -2.8126899e-02
 -6.6963851e-01
 -1.1205254e-01
  1.0402037e+00
  9.9409014e-01
 -3.1743452e-02
 -3.2393372e-01
  5.4436380e-01
 -3.8925909e-02
  1.1776768e-01
  3.5024104e-01
 -2.8671843e-01
 -4.8102462e-01
  1.9324510e-01
 -4.1755855e-01
 -6.5262592e-01
 -5.9046912e-01
  5.6699556e-01
  7.8696901e-01
  3.0810767e-01
  3.6348864e-02
 -4.4063297e-01
 -1.2595936e+00
  3.0124313e-01
  8.8586481e-03
 -5.0068706e-02
 -3.8297784e-01
  8.8563204e-01
  2.8678250e-01
 -3.5582811e-01
  3.9586801e-02
 -5.8905804e-01
 -1.9173244e-01
  4.3783975e-01
 -3.3482455e-02
 -3.2511714e-01
  1.4691906e-01
 -2.2806967e-02
 -2.2247332e-01
  1.2733783e-03
 -4.0314886e-01
 -2.7177482e+00
 -7.7129090e-01
  5.7677880e-02
 -1.1142848e-01
  3.4943324e-01
  6.5250921e-01
 -3.1266475e-01
  2.2010085e-01
 -4.6439102e-01
  2.1629074e-01
 -6.0429263e-01
  4.2236766e-01
 -3.0656588e-01
 -5.7399499e-01
 -1.9008899e-01
  7.0599556e-01
  9.5788039e-02
  5.9476197e-02
  2.5853652e-01
 -3.8823478e-02
  4.3296874e-01
  1.4141083e-02
 -2.3675002e-01
  1.2489155e-02
 -1.0017409e+00
  5.0786608e-01
  1.5790677e-01
 -1.1166102e-01
 -5.0904405e-01
 -5.2150972e-02
  6.0258683e-02
 -7.0625901e-01
 -1.0074542e+00
  6.2364584e-01
  6.2231576e-01
 -4.0781960e-02
  2.7881712e-01
  1.1931114e-02
  3.9909407e-02
  1.4808977e-01
  1.0549209e-01
 -4.2947590e-02
 -3.6104140e-01
 -1.2500244e-01
 -5.1699530e-02
  7.3882028e-02
 -3.2398719e-03
  2.7380192e-01
  1.8004328e-01
  2.1553928e-01
  7.3643142e-01
  7.7761453e-01
 -9.1977723e-02
  5.1753461e-02
 -9.0149540e-01
  2.5121620e-01
  2.1053548e-01
  5.9210968e-01
 -2.5795555e-01
  1.3903159e+00
 -2.4439472e-01
  1.2138462e-01
 -3.2701847e-01
 -3.8522947e-01
 -4.8537534e-01
  2.9389966e-01
  1.6268526e-01
  3.5736308e-01
 -6.6852647e-01
 -8.1884205e-02
 -1.5583920e+00
 -1.2354158e-01
 -5.7721265e-02
 -5.8852887e-01
 -9.7221208e-01
  6.9974907e-02
  6.2069631e-01
  5.0304246e-01
  3.3720908e-01
 -2.2335097e-01
  1.1181121e-01
  1.8639520e-02
 -7.9122078e-01
 -6.2806629e-02
 -1.5075202e-01
 -2.8701124e+00
 -5.0933772e-01
 -1.6864857e-01
 -3.8173370e+00
  2.6413256e-01
 -4.4010904e-01
 -5.0240475e-01
  2.9472295e-02
 -2.0748366e-01
 -8.2178205e-01
 -1.9153121e-01
 -2.6079929e-01
 -1.7119248e+00
 -2.9489961e-01
 -1.9898705e-01
 -3.0893481e+00
  3.5405609e-01
 -6.1814046e-01
  2.6021197e-01
 -2.9383352e-01
 -6.3334423e-01
 -1.4827633e-01
  3.5149209e-02
 -7.4097067e-01
 -1.3653799e+00
 -4.8680663e-01
  5.5483925e-01
 -2.1269166e-01
 -4.4406077e-01
  3.7984833e-01
 -1.5790169e+00
  3.3700246e-02
  9.1943115e-01
  4.7620785e-01
 -4.0871404e-02
  1.2607664e-02
 -3.3463061e-02
 -2.0225075e-01
 -2.8715500e-01
 -1.6835474e+00
 -2.6909775e-01
 -5.1710403e-01
  1.3675562e-01
 -4.6001607e-01
  6.9130796e-01
  7.6935679e-02
  4.9056554e-01
 -2.5205362e-01
  5.1996320e-01
 -2.5517061e-01
  5.8340367e-02
 -2.9814493e-02
  3.3465698e-02
  1.0659763e-01
  1.6284448e-01
  1.4532515e-01
  4.6034044e-01
  1.3039801e-01
  3.2114994e-02
 -3.4924787e-01
 -5.3307909e-01
 -4.9555894e-02
  3.2605648e-01
 -8.3479136e-01
 -9.5294537e-03
 -3.5179174e-01
  4.3476798e-02
  1.1856959e-01
 -3.2125908e-01
  2.2587654e-01
 -1.1838906e-01
  2.2478804e-01
 -2.1631207e-02
 -1.9461656e+00
  9.6027851e-01
 -1.1874571e-01
  2.2177950e-01
 -2.0423847e-01
  2.3017429e-02
  3.8969377e-01
  2.0061316e-02
  2.3035383e-01
  3.3010238e-01
 -6.7346081e-02
  5.3000033e-01
 -3.0973974e-01
  1.3191380e-01
  4.2696762e-01
 -2.4815886e-01
  4.6029653e-02
 -3.9601106e-02
 -2.1050958e-01
 -2.7496895e-01
  1.6574705e+00
 -3.3383337e-01
 -2.2716029e-02
 -1.4158255e-01
  6.4029080e-01
  2.4487659e-02
 -1.8549269e-01
  1.6745108e-01
  1.6786325e-01
 -6.3432634e-02
  3.9884236e-01
  1.5175802e+00
 -3.5175616e-01
  8.3254442e-02
 -4.4540772e-01
 -1.1549348e-01
 -9.8753345e-01
  2.0686950e-01
 -1.9135156e-01
  3.7649986e-01
 -5.9063565e-02
 -1.3082696e-01
  1.0717831e-01
 -4.5554268e-01
 -2.2425421e-01
  2.3902766e-04
 -2.9563038e+00
  2.8321397e-01
 -4.9440071e-01
  2.3772465e-01
 -3.0557975e-01
  1.1466357e-01
  6.3363338e-01
 -4.3206364e-01
 -5.4313451e-01
  1.4623845e-01
  5.6426309e-02
  1.0262404e-01
  3.4472862e-01
  7.8695762e-01
 -4.3377761e-02
 -2.0819604e-01
  1.3699871e-01
  8.3000317e-02
 -5.5014938e-03
 -1.3084081e-01
 -4.9004946e-02
 -1.5957138e-01
 -1.2533663e-01
  5.4441887e-01
 -4.5311296e-01
  8.3790332e-01
 -4.3635391e-02
  3.6427030e-01
  5.9247351e-01
  2.6340476e-01
  8.5739426e-02
  3.4322938e-01
 -6.2260377e-01
 -2.5014734e-01
  7.1539037e-02
  4.1102403e-01
 -2.6019379e-01
 -1.5628351e-01
  1.7090230e-01
  1.7315149e-03
 -3.3847153e-02
  7.3081307e-02
  4.9342403e-01
 -4.2279857e-01
 -2.5981333e+00
 -2.8007245e+00
  2.3899636e+00
  1.4182127e+00
 -8.6768723e-01
  2.7674124e-01
  1.4632816e+00
  2.5258270e-01
  4.6365151e-01
 -1.5372655e-01
  2.4178917e+00
  6.3319665e-01
 -1.1444379e+00
 -5.5265322e-02
  1.2277523e+00
 -7.9007179e-01
 -2.7653277e-01
  1.0253829e+00
 -7.9297084e-01
  2.7302284e+00
  1.3325942e+00
  9.5107749e-02
 -9.4352342e-02
  9.7006255e-01
 -7.6848817e-01
  6.1607450e-01
 -8.7757486e-01
 -2.4454582e+00
  1.1770591e+00
 -2.2286060e+00
  2.3906982e-01
  2.0284152e+00
 -6.1102426e-01
 -1.3009676e+00
  2.2652401e-01
  1.8332832e+00
  6.5149128e-01
 -1.1236565e+00
  5.8651280e-01
 -1.9864924e-01
  5.1273727e-01
 -1.2649463e+00
 -1.3674353e+00
 -1.3325508e+00
  1.9413173e-01
  8.0424297e-01
  5.6374693e-01
  1.6238835e-01
 -1.3864701e+00
 -1.5263634e+00
 -1.9572825e+00
  7.7581954e-01
  1.5400279e+00
 -1.3282720e+00
  3.5022941e-01
  1.8600627e+00
 -1.5672755e+00
  2.3218389e+00
  1.5686719e+00
 -1.9359723e+00
 -1.3689784e+00
  1.3315365e+00
 -1.6193540e+00
  2.3040471e+00
 -2.4974732e+00
 -6.5378010e-01
 -2.6033366e-01
 -2.5887623e+00
  9.6541601e-01
  6.2802976e-01
  4.4568294e-01
 -1.6588053e+00
 -1.8231373e+00
 -3.6313598e+00
  1.9108270e+00
  2.7303977e+00
 -2.1397290e-01
  1.9127942e+00
  1.3127506e+00
 -1.6016098e+00
 -2.9872546e+00
 -1.5438489e+00
 -4.0142214e-01
 -1.5013292e+00
  1.7309394e+00
  3.5653940e-01
 -6.7402434e-01
  4.5161572e+00
  7.1365887e-01
  1.3110884e+00
  4.5506245e-01
  7.7815962e-01
 -1.2695354e-02
 -1.2183110e-01
 -2.7952807e+00
 -8.5992473e-01
  1.6186031e-02
  1.1005067e+00
 -1.5966307e+00
  1.0552268e-01
 -2.1931699e-02
 -9.2316991e-01
 -9.1380560e-01
 -8.4034455e-01
  3.2015267e-01
 -1.4460055e+00
 -2.1825418e+00
 -4.1060300e+00
  4.1288468e-01
 -1.0238532e-01
  2.4432421e-01
 -7.8907877e-01
 -2.1853317e-01
  1.0893451e+00
  1.9394664e+00
  2.4353296e-02
  2.5323827e+00
 -1.9580236e-01
  2.0255058e+00
  1.8761526e+00
 -2.6352901e+00
  1.8114344e+00
 -7.2130823e-01
  3.3303711e-01
 -1.8004118e-01
  5.4465294e-01
 -1.4936244e+00
  3.6702352e+00
  2.2579181e+00
  1.0576106e+00
 -8.9737362e-01
  1.1820701e+00
  1.1575402e+00
  1.1696627e+00
 -1.8472849e+00
  1.2675695e+00
  4.0135269e+00
  8.9330751e-01
  2.7156377e+00
  1.3122536e+00
 -1.1549680e+00
 -1.3450141e+00
 -3.2849142e-01
 -1.1053834e+00
 -1.0964568e+00
 -1.8990344e+00
 -2.1062310e+00
  5.4159254e-01
 -1.2926336e-01
 -9.4200104e-01
 -7.1846098e-01
  8.1762797e-01
 -3.7995705e-01
  7.1236467e-01
 -5.9666973e-02
  1.2749535e-01
 -6.4710200e-02
 -3.0506912e-01
  3.1049153e-01
 -6.8110150e-01
  8.8402581e-01
  4.2517781e+00
  5.0550735e-01
 -6.8227077e-01
 -2.1512945e+00
 -7.4871880e-01
  1.4291328e+00
  1.3416612e-01
 -1.2892860e+00
 -1.4815520e-01
  4.0642140e-03
  2.2250371e-01
  4.4429633e-01
  3.3969158e-01
  4.7323066e-01
 -2.4760213e+00
  2.1453223e-01
 -3.7979710e-01
  2.6175103e-01
  8.7258214e-01
 -9.4028272e-02
  6.7809850e-01
 -4.7143987e-01
 -8.5778505e-01
  2.6721281e-01
  9.6493073e-02
 -1.2461580e-01
  8.1799513e-01
 -3.6925516e-01
  7.1466571e-01
 -5.4449492e+00
 -3.2301059e-01
  1.3170727e-01
 -7.4638121e-02
  2.1870298e+00
  1.7168189e+00
 -1.0650752e-02
 -1.8870515e-01
 -2.5010021e+00
 -1.2398785e+00
  3.5962462e-02
 -4.0981926e-02
  4.1678828e-01
  7.0104945e-01
 -1.0520574e-01
  6.4055517e-02
 -4.1125694e-01
 -3.0712712e+00
  1.6450910e-02
 -1.6135140e-01
 -4.5779485e-01
  1.1172329e+00
 -9.6513838e-02
  1.4114915e-01
 -4.1996589e-01
  2.0152180e-02
  7.6389468e-01
 -1.3008222e-01
  1.0353199e+00
 -1.4463308e+00
 -3.7661868e-01
 -9.2676944e-01
 -1.1412129e+00
  3.9989199e-02
  8.4521346e-02
 -2.0399230e+00
 -1.0836478e-01
  6.5701872e-02
 -2.0723119e-01
  1.9247431e+00
  1.0241487e-01
 -4.2245039e-01
 -2.0088243e-01
 -4.7819090e-01
 -5.0171006e-01
 -2.7834973e-01
 -3.0169770e-01
 -6.0745466e-01
 -7.9527929e-02
  8.4648538e-01
 -5.9322602e-01
 -3.0235139e-01
  4.1474462e-02
 -1.2263875e-01
  6.8667817e-01
  5.7769078e-01
 -4.8660609e-01
  4.5643759e+00
 -8.5628994e-02
 -1.2199755e+00
  3.0095284e-03
  4.7975894e-02
  3.6116099e-01
  9.9414790e-01
  1.0326038e-01
 -1.6089970e-01
 -6.5406322e-02
  3.7196827e-01
  4.3228868e-01
 -5.7487923e-01
 -2.3913117e-01
 -3.6066383e-01
 -4.0229204e-01
 -4.1637936e-01
 -3.4614319e-01
  1.7897999e-01
 -7.4534231e-01
  4.1322327e-01
 -6.2548345e-01
 -2.1040130e-02
 -7.2301883e-01
 -1.0584354e-01
  1.8435293e-01
 -1.9041476e+00
 -2.4007130e-02
  1.2566538e-01
 -2.4691541e-01
 -8.6412233e-01
  1.2103052e-01
  4.0421344e-02
  5.8431461e-02
 -1.2554010e+00
  7.9073715e-01
 -1.0308659e+00
  3.7560257e-01
  7.5729877e-02
 -1.1296082e-01
 -3.4578493e-01
 -1.6973047e-01
  8.9852977e-01
  9.3190670e-01
 -4.1062284e-01
 -7.3066756e-02
 -1.2370912e-01
  4.5142919e-01
  4.8110333e-01
 -4.1534209e-01
 -1.1622895e-01
  1.4706593e+00
  4.1080427e-01
 -1.2127535e-02
 -3.2457197e-01
  1.6271869e-02
  1.1092270e-01
 -6.8474579e-01
 -1.1329720e-01
 -9.2315815e-02
 -1.8359102e-01
 -2.5636783e-01
 -2.1885164e-02
 -1.3138430e-01
 -7.0541605e-02
  6.0334271e-01
  2.8786996e-01
 -1.6064796e-01
  3.9832100e-01
 -7.0249796e-01
 -1.0520141e+00
 -5.1832531e-02
  9.0070963e-02
 -5.0076622e-01
  9.7561389e-02
 -2.8359875e-01
  3.3509991e-01
 -5.3947175e-01
  9.1670847e-01
 -3.1507829e-01
 -6.7278855e-02
 -1.9988325e-01
 -6.5750372e-01
 -7.2496936e-02
 -7.6030664e-02
  1.6322862e-02
  9.0322018e-02
  1.3795921e-01
 -2.1041375e-01
  1.4692923e-01
 -3.5582131e-01
  2.2120452e-01
  5.9152430e-01
  1.9982703e-01
 -1.3346712e-01
  8.8986772e-01
  1.5157889e-01
 -3.7203425e-01
 -4.4205368e-02
 -8.5991514e-01
  2.4331394e-01
  3.7689564e-01
 -1.1283609e+00
 -2.3632702e-01
  4.1213709e-01
 -5.9441096e-01
  4.1600263e-01
  5.6799567e-01
  9.9335283e-02
 -4.7924891e-01
  1.5662134e-02
  6.9186538e-02
  7.5371347e-02
  2.6436067e-01
 -4.8114795e-02
 -5.8627605e-02
  1.5376976e-01
  1.0154052e-01
  2.3100103e-01
 -1.8620144e-01
  3.5644221e-01
 -3.5099810e-01
 -4.7020897e-01
 -9.8978765e-02
  4.4912584e-03
 -1.1548356e-01
  2.9478112e-01
 -8.5216882e-03
  1.5274234e-01
 -1.2423497e-02
 -4.2356071e-01
 -1.2337483e-01
 -4.3275151e-01
 -8.3597183e-01
 -4.9501139e-01
  3.0608335e-01
 -2.8075644e-01
 -3.0954525e-01
  1.5631825e-01
  2.2222716e-01
 -1.1376023e+00
 -6.0639948e-01
  1.2184278e+00
 -1.5452087e-03
  9.1503441e-02
 -6.9395088e-02
  1.8912140e-01
 -1.0038216e-02
 -3.2463363e-01
  1.4891873e-01
  5.9285671e-02
 -2.8968947e+00
  2.0434523e-01
 -7.6348972e-01
  2.5378993e-01
  5.9590292e-01
  1.3568616e-01
 -7.4815983e-01
  1.1348931e-01
  2.1233487e-01
 -8.9594021e-02
 -4.2597181e-01
  3.4085858e-01
 -5.6720227e-01
 -7.6512140e-01
 -2.5347078e-01
 -2.1217452e-01
  2.7264363e-01
  3.5393733e-01
  2.1380121e-01
  6.2844448e-02
 -2.4688073e-01
  2.5668308e-01
 -6.8773812e-01
  8.2641631e-01
  7.6517141e-01
 -1.7505459e+00
 -3.6536136e-01
 -1.5997687e-01
  2.8529212e-01
  1.4082162e+00
 -4.2919570e-01
 -1.3287798e-01
 -1.1241980e+00
 -7.7999532e-01
 -2.3476790e-01
  1.0075012e-01
 -7.2643049e-02
 -1.0367756e-01
 -1.4829195e-01
  5.8598328e-02
 -5.2233851e-01
 -7.6355022e-01
 -1.5652137e-02
 -3.4147859e-01
 -3.9858860e-01
  1.5370107e-01
 -6.0290188e-02
 -3.4803852e-01
 -4.4875824e-01
 -1.8947186e-01
  3.5504029e+00
 -1.8594288e+00
 -3.1271216e-01
  3.0704131e+00
 -4.2772311e-01
  1.8681048e-01
 -1.2874174e+00
  1.3687021e+00
 -8.1137106e-02
  8.7963831e-01
 -3.4227223e+00
  2.8457659e-01
  7.8533125e-01
  1.0607363e+00
 -2.8050283e-01
  4.8324180e-01
  9.0198779e-01
 -1.5741867e-01
  1.6969264e+00
  5.9133792e-01
 -1.2182676e-01
  1.4618171e+00
 -1.7779638e-01
 -4.7720137e-01
  3.9884892e-01
  2.9665768e-01
  4.0855985e+00
 -1.3305867e-01
  1.4492786e+00
  8.0378991e-01
  8.7891799e-01
  1.4418899e-01
  9.9288762e-02
  1.3600460e-01
  9.4058108e-01
 -6.7803913e-01
 -1.7850006e-01
  7.6642019e-01
  2.5264975e-01
 -3.1051582e-01
 -1.9722594e-01
  2.9061109e-01
  2.4357367e+00
  7.9904042e-02
 -5.3841859e-01
 -8.9238398e-02
  6.6066885e-01
  1.4860529e+00
 -9.0300567e-02
 -6.7616326e-01
 -4.4599018e-01
 -3.6728162e-02
  4.3916330e-04
  1.7792937e-01
 -3.3667254e-01
 -6.3655305e-01
 -5.3173083e-01
 -3.6010403e-02
 -7.4422106e-02
 -1.5202447e+00
 -1.4737034e-01
  4.6465406e-01
  1.3868611e-01
  8.1512623e-02
  1.5835527e-01
  4.6971794e-02
  9.9473804e-02
 -2.5303987e-01
 -3.9351863e-01
  1.2148286e-01
  2.1176654e-01
  3.3797202e+00
 -1.5622811e-01
  1.5062439e-01
  1.2523127e-01
 -2.2582120e-01
 -1.2444296e-01
  7.0433244e-03
 -5.7487571e-01
  9.1596141e-02
 -3.2119411e-01
 -2.9957539e-01
  5.1293675e-02
 -4.2590243e-01
  1.1974795e-01
  3.5929710e-01
 -2.8857529e-01
  1.2381461e+00
 -9.9615678e-03
  3.9930639e-01
  6.8819523e-03
 -2.9242826e-01
 -1.5395609e-01
 -3.7065780e-01
 -2.9568595e-01
 -3.5988978e-01
 -1.8237246e+00
 -5.9975863e-01
  7.3297989e-01
 -4.2452112e-02
  2.8775623e-01
 -5.0499842e-02
 -7.5788843e-03
  9.0641207e-01
  1.1705561e+00
  4.4611850e-01
  1.8485788e+00
 -1.0947248e-01
 -2.8531179e-01
 -1.0428142e-01
  6.1710700e-02
  2.6761672e-01
 -2.2792239e+00
 -3.3621892e-01
 -3.8509715e+00
  5.5422223e-01
  1.7379546e-01
 -2.8430459e-01
  5.5569619e-01
  7.1998334e-01
 -3.1963775e-01
 -1.0185572e-01
 -1.5261378e+00
  4.5513257e-01
  7.5876665e-01
  5.8914393e-01
 -7.1769184e-01
  2.5693831e-01
  6.2934924e-03
 -8.5391420e-01
 -1.3141736e-01
 -1.9106182e-01
  1.7513858e-01
 -1.2162571e-01
  4.0859899e-01
 -8.6520925e-02
 -5.8241900e-02
 -1.5227824e-01
  9.8719984e-01
 -4.2862954e+00
 -3.0901918e-01
  3.6773971e-01
  3.3089325e-02
  2.6071861e-01
  3.8068503e-01
  2.1799751e-01
 -9.1454101e-01
  2.0036048e-01
 -1.0669462e-01
  1.1756668e-01
 -1.4967872e+00
  6.0307503e-02
 -3.9576076e-02
 -1.1411293e+00
  2.5858706e-01
 -8.6048102e-01
  1.1632607e+00
 -1.0000675e+00
  9.2781281e-01
 -3.6457118e-01
 -7.8536063e-01
 -2.5562240e-02
  2.9440090e-01
  9.1916762e-02
 -5.3999841e-01
  3.4548101e-01
  1.6215354e-01
 -5.0493348e-01
 -2.9748890e-01
 -1.8848102e-01
  4.3183309e-01
  6.3375629e-02
  6.5761948e-01
  2.0244822e-01
  6.0217351e-01
 -4.5769700e-01
 -2.3565370e-01
 -4.5745465e-01
 -1.0248669e+00
 -1.4912591e+00
  1.4770436e-01
 -1.8432250e-02
  4.6915215e-01
 -1.1606649e-01
  8.2893930e-02
 -8.8576883e-01
  8.1208265e-01
  4.1465393e-01
  4.0278798e-01
  4.8605666e-01
 -6.5866768e-02
 -5.1479870e-01
 -7.3311681e-01
  7.1866381e-01
  3.3721980e-01
  3.9211541e-02
 -3.0931458e+00
 -3.2079571e-01
  4.5674750e-01
  1.5733697e-01
  4.2446867e-01
 -3.2575317e-02
  5.0657594e-01
  1.8826751e+00
  1.3041610e-01
  4.6175185e-01
 -2.4800515e-01
  4.6153200e-01
  1.7908041e+00
  8.9759089e-02
 -3.7529466e-01
 -5.3321999e-01
  4.4333369e-02
  7.8884906e-01
 -1.8669964e-01
 -6.0130769e-01
 -2.0241322e-01
 -8.1895518e-01
 -2.1603100e-02
  2.3369311e-01
  6.2518817e-01
 -3.1099230e-02
  6.2303312e-02
 -1.6951440e-01
  1.9952714e-01
 -4.2622942e-01
 -3.0704495e-01
  1.0126368e+00
  1.7374860e-01
 -1.7203367e-01
  5.4629344e-01
  2.4390927e-01
 -2.5623778e-01
 -1.8237661e+00
  2.9629353e-01
 -1.3971816e-01
 -1.3353826e-01
 -1.1137474e+00
 -6.2219751e-01
 -1.1509970e+00
  1.0322072e-02
  2.3370412e-01
  2.2856324e+00
 -4.0481217e-02
  1.9735564e-01
  3.1147426e-01
  4.8573929e-01
 -9.6920115e-01
  1.6427538e-01
 -3.8480997e-02
 -1.0873557e+00
  2.8704989e-01
  8.2853979e-01
 -3.9654109e-01
  6.0920089e-01
 -3.1488478e-01
  3.5984027e+00
 -1.2465528e-01
  2.3401536e-01
 -3.4601490e+00
 -3.5667486e+00
 -2.0008500e-01
 -7.5025275e-02
  2.4298480e-01
 -4.0298786e+00
 -8.9455426e-01
 -1.8567655e+00
  5.6536436e-01
 -1.2039875e+00
  1.6835798e+00
 -2.0970776e+00
  6.5232456e-01
  7.0000760e-02
  4.5824209e-01
 -1.4004020e-01
 -2.3329389e-01
  5.6661522e-01
  1.9099484e-01
  2.6024595e-01
  9.2969075e-02
  7.7726769e-01
 -8.9243971e-02
  2.1719372e-01
  1.4909617e+00
 -1.4127451e+00
  3.4257658e-02
 -9.0697743e-02
  3.2276997e-01
 -6.0408294e-01
  7.2848743e-01
 -5.8124568e-02
  5.4752135e-01
  5.2306825e-01
  9.6875325e-02
 -2.4415448e+00
 -6.2379506e-03
  4.0185657e-01
 -4.3339527e-01
  2.5557145e-01
  3.3366448e-01
  8.4948651e-03
  4.3386173e-01
  3.4716067e-01
 -1.0999411e-01
 -1.3233154e-01
 -4.6588528e-01
 -1.2767826e+00
  3.6602640e-01
 -1.0212798e-01
 -2.1457392e-01
 -2.1783866e-01
 -5.4919165e-01
  2.7656877e-01
  5.7708538e-01
 -1.6859727e-01
  3.0658734e+00
  7.1290821e-02
  1.8229474e-01
  7.3763996e-01
  4.3414184e-01
  2.4002443e-01
  1.1446036e+00
 -1.7315032e-01
  9.3999907e-02
 -4.0600875e-01
  3.5744160e-03
 -5.8548641e-01
 -5.9135747e-01
 -3.7566763e-01
 -9.3400240e-01
 -1.7488673e-01
 -1.2151226e+00
 -1.3775671e-01
 -8.0558026e-01
 -2.4617007e-01
  1.2896876e-01
  5.6559861e-02
  5.0801867e-01
  4.9014017e-01
 -7.6571941e-01
  1.7087147e-01
 -5.5106705e-01
 -9.0213744e-03
 -8.0992049e-01
 -2.3940907e-01
 -1.1123092e-01
 -1.7025675e-01
 -2.0930620e-01
  5.3705472e-01
  7.3179409e-02
  2.3408933e+00
  7.3483455e-01
  2.6930828e+00
  3.4541786e+00
  1.4335494e+00
  3.8686119e-02
 -3.2332733e-01
  1.8386668e+00
  1.4280692e+00
  1.0407298e+00
  1.5514277e+00
 -3.5615027e-01
  3.2921147e-01
  3.1305289e-01
  1.6554577e+00
 -2.0981884e-02
  8.2259333e-01
 -1.0154682e+00
  7.3158979e-01
  7.3517019e-01
 -1.1436545e+00
 -5.7927245e-01
  1.0857711e+00
  3.9087641e-01
 -4.5584190e-01
  8.9059304e-03
 -2.7079743e-01
 -6.9683802e-01
 -9.9267364e-01
 -2.8508121e-01
 -1.0964252e+00
  1.2904108e+00
 -3.0821371e-01
  1.9908519e-01
  7.2755247e-01
 -5.5158806e-01
  5.3324157e-01
 -2.3296914e+00
 -3.2873824e-01
 -9.6414089e-01
 -1.7381057e-01
 -3.7051609e-01
  5.1850963e-02
 -1.3788499e-01
  1.8416901e-01
  3.5843500e-01
 -3.0866310e-01
  9.1854200e-02
 -3.0700609e-01
 -1.7051991e-02
 -2.8328989e+00
 -1.6421552e-01
 -9.1527045e-01
  1.6077432e-01
 -4.7882453e-01
 -3.2488143e-01
 -3.8078547e-01
 -1.0534909e-01
  3.0623497e-02
  2.1075079e-01
 -4.0414247e-01
  6.9981951e-01
 -7.5032729e-01
 -8.3862513e-01
  5.5235934e-01
  5.1239908e-01
 -2.2956967e-01
 -1.0464489e-02
 -1.2371140e+00
 -3.2212731e-01
  5.5924124e-01
  2.8447661e-01
  1.3145800e-01
  4.9821284e-01
 -1.9912849e-01
  5.0883389e-01
 -1.2902945e+00
 -1.8713458e-01
 -7.9855597e-01
 -3.3533287e-01
 -1.4991798e-01
 -1.1954621e-01
 -1.8661369e-01
 -1.5875646e-01
 -8.7106282e-01
 -1.7648308e+00
  1.4454331e-02
  7.6810795e-01
 -2.2879496e-01
 -6.3403177e-01
 -1.2566045e-01
  2.8062597e-02
 -3.6244422e-01
  1.7692128e-01
 -2.0086312e-01
  3.0507159e-01
  3.4151399e-01
 -1.6008975e-01
  3.2401717e-01
 -3.1824398e-01
  4.2982550e+00
 -1.4872132e-01
  1.2921196e-01
  6.4108932e-01
  2.0482499e-02
 -4.3699723e-01
 -8.4672374e-01
  2.2793105e-01
 -2.2091559e-01
  1.0288885e-01
  1.8508688e-01
  1.0357098e-02
  1.2636884e-01
 -1.6573846e-01
 -1.5061554e-01
 -6.1583221e-01
 -1.2610741e+00
  7.3518223e-01
 -1.9127700e-01
 -4.5035255e-01
  1.4567864e+00
  5.0795615e-01
 -1.2849563e+00
  2.3415130e-01
  5.7001937e-02
  3.6343250e-01
 -7.5674518e-03
 -5.5482769e-01
 -8.8386774e-02
 -3.4900308e-01
  1.3320370e-01
 -9.7128272e-02
 -8.2459229e-01
 -1.4038952e-01
  4.5265582e-01
 -6.4745092e-01
  7.0931709e-01
 -2.3409387e-01
 -3.9384240e-01
 -7.3202062e-01
  1.5653652e-01
  6.9411194e-01
 -3.6477327e-02
  1.6515720e-01
 -3.6716601e-01
  8.9993589e-02
  1.9510353e-01
 -5.5460986e-02
 -7.8151834e-01
  5.8767104e-01
 -1.2035439e+00
  6.5614694e-01
  1.0777439e+00
 -1.4718190e+00
 -5.6775987e-01
 -6.8372291e-01
  6.5422231e-01
 -3.1740785e+00
  3.8959184e-01
  9.3648905e-01
  6.6099393e-01
  7.5921136e-01
 -1.1441128e-01
  1.4946663e-01
  2.9429710e-01
 -2.3620878e-01
 -4.5583662e-01
 -3.8202552e-03
  1.0196213e+00
  4.7978528e-02
  4.7194171e-01
  8.9296371e-02
  2.1175246e+00
  6.6331729e-02
  1.3607311e-01
 -3.0003557e-01
 -1.2122731e+00
 -5.0724477e-02
 -9.6810013e-02
  2.6254004e-01
 -4.5985845e-01
 -1.3052380e-01
  1.5835702e-02
 -4.5468596e-01
  1.2417825e-01
  1.5201916e+00
  1.0869153e-01
  9.7967744e-02
 -6.0604829e-01
  6.7454273e-01
 -1.2602316e-02
  1.2232862e-01
 -1.9572036e+00
 -2.3136751e-01
  1.5148563e-02
  4.6771649e-01
 -6.8312116e-02
 -3.6871698e-02
  5.4000747e-01
  3.6096323e-01
 -9.1634148e-01
 -1.4995085e+00
 -1.0412607e+00
  2.8770394e+00
 -1.9716437e-01
  7.3441511e-01
  3.9524171e-01
  5.1073246e-02
  2.7283010e-01
  3.2024212e+00
  2.3877037e+00
 -2.7950535e+00
  3.4681377e-01
  4.3212932e-01
  3.9035872e-01
  8.3988649e-01
 -1.0636210e+00
  2.5700855e-01
 -2.0638874e+00
 -3.2776804e+00
  1.8190918e+00
  2.5875058e+00
 -7.2617054e-01
  4.3674824e-01
 -1.2375610e-01
 -4.8003510e-01
 -5.1722109e-02
 -2.4564424e+00
 -5.1694387e-01
 -7.8508757e-02
 -3.8623860e-01
 -6.8776810e-01
 -2.7481234e-01
 -8.4141999e-01
  7.3802739e-01
 -3.0520036e+00
  1.8485298e-02
  1.9934142e+00
 -3.0331513e-01
 -2.6527375e-01
 -2.7760670e-01
 -5.6947898e-02
  5.2775770e-01
 -5.0972837e-01
 -7.3558378e-01
  2.2457933e-01
  7.7052134e-01
  4.7110021e-01
  4.1895923e-01
 -9.7869188e-03
  1.5362294e-01
 -1.2392618e-01
 -2.2654047e+00
  1.3659616e-01
  1.0869013e+00
  3.7373804e-02
 -8.2986879e-01
 -2.0006680e+00
  1.4527767e+01
 -1.8238634e-01
 -1.5696238e-01
 -1.1613465e-01
  8.8855273e-01
  7.3558891e-01
  2.6641646e-01
 -3.5051623e-01
 -4.1688752e-01
  4.7649570e-02
 -2.6601061e-01
 -1.9069482e-01
 -1.1300697e+00
  9.2814162e-02
 -7.5202703e-02
  1.6972925e-01
  6.8876192e-02
  2.3006934e-01
 -5.6190919e-02
 -3.3472195e-01
 -3.2084234e-02
  2.6364732e-01
 -1.8003961e-02
  8.3349091e-01
  4.3983020e-02
 -3.9043495e-01
  6.6384152e-02
 -4.8034751e-01
  5.7566911e-01
 -1.3025256e-01
 -6.1134119e+00
 -9.2674002e-02
 -1.5311074e-01
 -3.1561983e-01
  8.3343096e-02
  1.4003493e-01
  1.1256697e+00
 -5.5626411e-02
 -4.7367135e-01
 -7.0195958e-02
  1.9188546e-01
 -9.5600456e-01
  3.8952565e-01
 -3.1095195e-01
  5.6632000e-01
  1.7891368e-02
  8.0164891e-01
 -2.3527075e-01
  9.1467008e-02
  9.8277688e-02
 -1.0071218e-02
  7.8489691e-02
 -1.7020264e-01
  2.3492001e-01
 -8.9068905e-02
 -4.6697739e-01
 -7.1956134e-01
  4.6022120e-01
 -2.1651238e-01
 -2.0092070e-02
  2.5695782e+00
 -8.8576712e-02
  4.9248439e-01
  4.5010433e-02
 -8.1398016e-01
  6.1660117e-01
  2.9045421e-01
  3.4738806e-01
 -2.9202469e-02
  2.6125789e-01
 -4.9194932e-01
 -8.4519327e-02
  1.0771023e-01
 -2.5804026e-02
  1.2030213e-01
  1.4209605e+00
  1.5127592e+00
 -2.7786511e-01
 -5.7989264e-01
 -2.8666234e-01
  6.3251346e-01
 -5.0340258e-02
  1.6657384e-01
 -3.8483024e-01
 -1.2059704e-01
  3.3635966e-02
 -2.9628676e-01
  4.9599645e-01
  4.1901991e-01
 -2.5567621e-01
 -2.1399736e-02
  9.3451977e-01
  2.5604696e+00
  1.7194477e+00
 -9.1538072e-01
  8.5440236e-01
  7.7901375e-01
 -5.0968447e+00
  1.8077750e+00
 -1.7033579e+00
  1.8095036e-01
 -5.4610425e-01
 -3.2813449e+00
  2.1330349e-01
  4.6765766e-01
 -4.0772378e-01
 -1.2189789e+00
  7.7887022e-01
  3.2031530e-01
 -3.5363483e-01
 -5.7159811e-01
  8.5905075e-01
 -1.4852101e+00
 -3.6284176e-01
  1.0888685e+00
  2.8703172e+00
 -4.4009104e-01
  6.9853204e-01
 -7.0870286e-01
  2.1106093e+00
 -5.8147706e-02
  2.0010604e-01
  2.0713612e-01
 -1.8932214e-02
  1.3055941e+00
  3.6505282e-01
  7.8156388e-01
 -1.3047409e+00
 -1.9979936e-01
 -2.4628799e+00
  4.9714651e-04
  8.2474567e-02
  4.1033742e-01
 -3.9083564e-01
 -2.0960743e+00
  9.3191856e-01
 -3.7834981e-01
  4.8078753e-02
 -2.2348271e-01
 -5.5859316e-02
 -6.4131308e-01
 -3.8469186e-01
  2.6097741e+00
  4.2174435e-01
 -3.6367938e-01
  3.3941217e-02
  1.1742868e-01
 -4.3711415e-01
  2.2857136e-01
  3.3739677e-01
 -5.2325612e-01
 -1.3483566e-01
 -7.4598670e-01
 -5.7955599e-01
  8.3331168e-02
 -3.2495913e-01
  1.9464374e+00
  1.1106103e-01
 -5.4631531e-01
  7.0683187e-01
 -8.4950697e-01
  1.1794972e-01
  5.4360402e-01
  1.1755014e-01
  1.9198689e-01
 -2.0936131e-02
 -6.7762417e-01
  4.4974867e-01
 -1.3650115e-01
 -1.0835952e-01
 -7.1499354e-01
 -8.5705191e-02
  4.6560901e-01
  6.7539096e-01
 -1.9435202e+00
  7.6865852e-01
  2.4547769e-01
 -1.0821358e-01
 -1.7495315e-01
 -2.9667789e-01
 -4.8726127e-03
 -5.5233955e-01
  2.4607557e-01
  5.8326244e-01
 -8.3150005e-01
  1.1496363e-01
  6.1266094e-02
  1.7234884e-01
  1.9184870e-01
  2.2788066e-01
 -4.7498852e-01
  3.8086089e-01
  1.6204829e+00
 -1.6262900e+00
 -1.3851744e-01
 -8.7006992e-01
  9.5230675e-01
  1.0487151e+00
 -1.2563334e+00
  4.1479960e-02
  9.5203847e-01
  5.9376925e-01
 -5.8662885e-01
  8.2202345e-01
 -8.6682957e-01
  4.4445527e-01
 -1.1983021e-01
  2.7303565e-01
 -1.1775864e+00
  2.2036174e-01
 -5.2038544e-01
  2.1539919e+00
  6.2138945e-01
 -4.1837001e-01
 -3.5572395e-01
  1.4463636e+00
  3.6662239e-01
 -9.7607717e-02
 -1.6953377e-01
 -1.2657389e-01
  1.2909941e-01
  1.2574998e-01
 -2.4780908e-01
  4.4477409e-01
 -1.7895241e-01
 -3.8515136e-01
 -7.3117810e-01
 -9.2098612e-01
  2.4603115e-02
 -9.6096414e-01
  1.1192389e-01
  2.4110422e-01
  2.9615352e-01
  7.6131605e-02
 -6.2345155e-02
  1.1708473e-01
 -2.2688255e-01
